element,v1,v2,v3,v4,v5,v6,v7,v8,v9,v10
<http://www.w3.org/2000/01/rdf-schema#label>,0.4267943799495697,0.5346131324768066,-0.9635986089706421,-0.9595025777816772,1.0613453388214111,1.2975480556488037,0.4008026719093323,-0.49010223150253296,-0.9943702220916748,0.2332281768321991
<http://ec.europa.eu/eurostat/ramon/ontologies/geographic.rdf#hasSubRegion>,1.049416184425354,0.301918089389801,-1.3819735050201416,-4.504769802093506,2.0379464626312256,-0.4862004816532135,-0.721585214138031,-2.1076316833496094,-4.362340927124023,-1.0990526676177979
<http://www.w3.org/2000/01/rdf-schema#seeAlso>,1.6251194477081299,0.7069258093833923,1.4244821071624756,-0.1750597059726715,1.3205616474151611,-1.2031255960464478,1.8969099521636963,0.1674666702747345,-1.6400197744369507,2.381849527359009
<http://www.w3.org/2004/02/skos/core#altLabel>,-0.5553944110870361,1.4318935871124268,-0.17548449337482452,-2.5556278228759766,0.9058793187141418,1.4833004474639893,0.3314495086669922,-0.12672914564609528,0.3113451898097992,0.7291470766067505
<http://www.w3.org/2004/02/skos/core#prefLabel>,-0.19532625377178192,1.3530937433242798,-0.5414495468139648,-2.5457537174224854,0.9708472490310669,0.9401773810386658,-0.1496461033821106,0.09466267377138138,0.16127736866474152,0.9206843376159668
<http://data.kasabi.com/dataset/cheese/schema/province>,1.8068493604660034,0.9514896869659424,1.8905764818191528,0.4110882580280304,1.9937927722930908,-1.1750457286834717,2.504333734512329,1.130590796470642,-1.2527053356170654,4.20625638961792
<http://data.kasabi.com/dataset/italy/schema/contains>,2.4397432804107666,0.3087675869464874,2.553269386291504,0.9022482633590698,2.2193453311920166,-0.7980684041976929,3.1156487464904785,1.1091294288635254,-1.9235877990722656,3.0663723945617676
<http://www.w3.org/2002/07/owl#sameAs>,1.3080514669418335,0.3350156247615814,1.3424233198165894,0.5215572118759155,1.5986518859863281,0.9936497211456299,2.416980028152466,0.6454687118530273,-0.7238767147064209,2.5109922885894775
<http://ec.europa.eu/eurostat/ramon/ontologies/geographic.rdf#hasParentRegion>,0.506696879863739,0.527540385723114,-1.6146031618118286,-4.817502498626709,2.375330924987793,-0.3934699296951294,-0.3009280860424042,-2.603748321533203,-4.735352039337158,-0.888899564743042
<http://www.w3.org/1999/02/22-rdf-syntax-ns#type>,0.8072469234466553,-0.35795190930366516,-1.1999648809432983,-1.0889590978622437,3.0978217124938965,2.6604647636413574,-2.1391515731811523,-2.029162883758545,-0.17768019437789917,2.9849815368652344
<http://ec.europa.eu/eurostat/ramon/ontologies/geographic.rdf#regionCode>,0.8686160445213318,0.6657499670982361,0.8602698445320129,-0.9467228055000305,1.5109320878982544,-1.676919937133789,0.9636555314064026,-0.7822192311286926,-2.5271692276000977,0.3059311807155609
<http://data.kasabi.com/dataset/cheese/schema/municipality>,-0.32383519411087036,-1.4520643949508667,-3.5471479892730713,-1.786960244178772,1.8181259632110596,3.759324789047241,1.0686193704605103,0.35617873072624207,-1.0510481595993042,0.7633076906204224
<http://ec.europa.eu/eurostat/ramon/ontologies/geographic.rdf#name>,0.2595195174217224,0.3626607060432434,-0.8245449066162109,-4.119752407073975,2.107041597366333,-0.29920512437820435,-1.0560853481292725,-1.4893548488616943,-3.1993353366851807,-0.9458490014076233
<http://data.kasabi.com/dataset/italy/schema/iso3166-2>,2.041576623916626,0.1119263544678688,2.0299010276794434,0.4168691039085388,1.9754353761672974,0.41715148091316223,2.7581136226654053,1.170241117477417,-0.7700207829475403,2.500764846801758
<http://www.geonames.org/ontology#population>,1.831199288368225,0.16784118115901947,2.165602684020996,0.7465517520904541,2.297663688659668,0.48605385422706604,2.844228982925415,1.511934757232666,-0.7155725955963135,2.6990315914154053
<http://www.w3.org/2003/01/geo/wgs84_pos#lat>,1.7753641605377197,0.02385028824210167,2.136251926422119,0.7623375654220581,2.311018943786621,0.44475582242012024,2.78704571723938,1.471543312072754,-0.8165395855903625,2.751039981842041
<http://www.w3.org/2003/01/geo/wgs84_pos#long>,1.4225136041641235,0.40786412358283997,2.0956778526306152,0.745721161365509,2.3682446479797363,0.4036658704280853,2.835066795349121,1.2506057024002075,-0.6998131275177002,2.8069934844970703
<http://data.kasabi.com/dataset/italy/schema/isContained>,-0.06490019708871841,0.4019448161125183,3.391667366027832,1.362848162651062,3.9837162494659424,-0.7697622776031494,3.4485361576080322,1.8038281202316284,-1.036738395690918,0.8511101603507996
<http://data.kasabi.com/dataset/cheese/schema/region>,-0.6845079660415649,0.58365797996521,2.974367618560791,0.9993346333503723,3.5856635570526123,-0.57501620054245,3.303734302520752,1.1977083683013916,-0.7921450138092041,0.6690641641616821
<http://data.kasabi.com/dataset/cheese/schema/country>,0.7682923674583435,-0.7477351427078247,-1.710649013519287,-3.479466676712036,-0.3310989737510681,2.5361101627349854,0.2207656055688858,-0.2817802429199219,-1.2006731033325195,2.9245142936706543
<http://xmlns.com/foaf/0.1/page>,-0.6429860591888428,0.055237360298633575,0.5059258341789246,1.2689560651779175,2.301766872406006,1.249367356300354,2.380922555923462,0.7279021143913269,-1.4752341508865356,0.8303589820861816
<http://data.kasabi.com/dataset/italy>,-3.3353357315063477,-2.334775447845459,-0.13078591227531433,-2.6042470932006836,3.7444937229156494,-1.3762120008468628,1.5610814094543457,4.91837739944458,-3.06840443611145,-1.0873428583145142
<http://rdfs.org/ns/void#inDataset>,-4.192083358764648,-1.7944371700286865,-1.4639517068862915,-3.5072154998779297,3.709705114364624,-1.0957127809524536,2.386756181716919,3.4685463905334473,-2.2263848781585693,0.798022985458374
<http://data.kasabi.com/dataset/cheese/schema/weight>,-1.091233730316162,0.9532806277275085,-0.6415446996688843,-1.1365392208099365,1.8700311183929443,2.3399550914764404,1.274146318435669,0.42337191104888916,-0.236044242978096,0.4480663239955902
<http://data.kasabi.com/dataset/cheese/schema/aging>,-1.4944343566894531,1.058174729347229,-0.4195890426635742,-0.6447585821151733,1.608298420906067,2.810053586959839,1.6174455881118774,0.29126450419425964,-0.9044293761253357,0.4452913999557495
<http://data.kasabi.com/dataset/cheese/schema/Municipality>,0.4375462234020233,-1.912515640258789,-2.48016619682312,-1.5784246921539307,0.603268563747406,2.128065347671509,1.5602492094039917,0.42161405086517334,-1.941021203994751,1.4016685485839844
<http://www.w3.org/2004/02/skos/core#hiddenLabel>,-0.3257528245449066,0.6929144263267517,1.7555855512619019,-1.480903148651123,-0.3824310898780823,3.1726555824279785,1.4135122299194336,0.39279353618621826,-2.147765874862671,0.2825101912021637
<http://data.kasabi.com/dataset/cheese/schema/location>,-0.3967372477054596,0.6909397840499878,-1.5974762439727783,-1.837654948234558,0.8037639856338501,3.4782280921936035,0.9601473808288574,0.5523312091827393,-1.0482434034347534,-0.13995839655399323
<http://data.kasabi.com/dataset/cheese/schema/height>,-0.9613638520240784,0.4967041313648224,-0.7213756442070007,-1.2781256437301636,2.3101398944854736,2.1575851440429688,0.9977883696556091,-0.0007495654281228781,-0.19371409714221954,0.4080568552017212
<http://data.kasabi.com/dataset/cheese/schema/diameter>,-1.2301201820373535,1.1739596128463745,-0.012314382009208202,-1.3756588697433472,2.4382529258728027,2.2134273052215576,1.2742880582809448,0.24164041876792908,-0.05450499802827835,0.11405010521411896
<http://xmlns.com/foaf/0.1/primaryTopic>,-0.6878970861434937,0.3021268844604492,2.511413335800171,0.7722856998443604,3.3474514484405518,-0.521623432636261,2.8945226669311523,1.7855006456375122,-0.882276177406311,0.2678311765193939
<http://data.kasabi.com/dataset/cheese/grana-padano>,0.14330166578292847,0.22506827116012573,1.3390591144561768,0.1233053207397461,1.275152325630188,1.0451972484588623,0.8188043832778931,1.5020838975906372,-0.8537091016769409,0.48602294921875
<http://www.geonames.org/ontology#parentFeature>,1.120286226272583,0.3144088387489319,2.2106568813323975,0.4274481236934662,1.641087532043457,0.4536034166812897,1.9984209537506104,1.30666983127594,-0.8786605000495911,1.7477812767028809
<http://data.kasabi.com/dataset/cheese/schema/Cheese>,0.41119349002838135,-1.1504132747650146,-1.4184248447418213,-1.325515866279602,-0.3460352122783661,0.9563422799110413,1.245992660522461,0.2935849130153656,-1.1204949617385864,1.5842366218566895
<http://data.kasabi.com/dataset/cheese/schema/certification>,1.4524317979812622,2.425171375274658,1.9287277460098267,-1.9686639308929443,2.2145214080810547,1.2448298931121826,0.15384291112422943,-1.3961552381515503,0.6829808354377747,-1.5105087757110596
<http://rdfs.org/ns/void#rootResource>,-1.0062689781188965,-0.1274825632572174,1.8627163171768188,0.40110957622528076,2.801227331161499,-0.9384437799453735,2.670238494873047,2.343190908432007,-0.9233598709106445,0.43759945034980774
<http://data.kasabi.com/dataset/cheese/casu-marzu>,-0.4562126696109772,0.22892798483371735,1.6101129055023193,-0.8320956230163574,1.3924825191497803,0.5639362335205078,0.08197043091058731,1.6484229564666748,-1.3576425313949585,-0.595526933670044
<http://data.kasabi.com/dataset/cheese/parmigiano-reggiano>,0.15136246383190155,-0.0396236851811409,0.9349890351295471,-0.34467098116874695,1.244471788406372,0.4885624349117279,0.3673049807548523,1.5581024885177612,-1.3397325277328491,0.07668061554431915
<http://open.vocab.org/terms/defines>,0.3871961534023285,0.271083801984787,0.14874579012393951,-2.0689175128936768,0.21392855048179626,0.5735238194465637,1.7882421016693115,0.03993314132094383,-2.0177037715911865,-0.29056093096733093
<http://data.kasabi.com/dataset/cheese/ragusano>,-0.4325506091117859,-0.5742353200912476,-0.9386016130447388,-0.05113736912608147,2.0103073120117188,1.6989331245422363,0.9487872123718262,0.314090371131897,-0.6375734806060791,-0.5299795866012573
<http://ec.europa.eu/eurostat/ramon/ontologies/geographic.rdf#level>,-1.8169353008270264,0.9965891242027283,-1.9295762777328491,-2.8301351070404053,1.592423677444458,0.32613933086395264,-0.5624755620956421,-1.1984362602233887,-2.6094143390655518,0.881435751914978
<http://data.kasabi.com/dataset/cheese/fontina>,-0.2919810712337494,0.32401809096336365,0.40379202365875244,-0.47423824667930603,1.4394614696502686,1.1783558130264282,0.3853025436401367,1.3154337406158447,-0.7974817156791687,-0.1851678043603897
<http://data.kasabi.com/dataset/cheese/bitto>,-0.5107274651527405,-0.4219977557659149,-0.1708938181400299,0.019688677042722702,1.8252253532409668,2.2498741149902344,0.45417824387550354,1.227321743965149,-0.8376041054725647,-0.6519246101379395
<http://data.kasabi.com/dataset/cheese/schema/PDO>,1.6846054792404175,0.6271554231643677,0.1689659208059311,-3.280822515487671,2.7524702548980713,-1.3947309255599976,-0.9674038290977478,0.8071685433387756,0.5036975741386414,0.25718703866004944
<http://purl.org/dc/terms/identifier>,0.45294076204299927,0.19976116716861725,1.7779511213302612,1.481403112411499,3.892683982849121,1.0572887659072876,2.718143939971924,0.470723032951355,-1.9905301332473755,-0.04625396057963371
<http://data.kasabi.com/dataset/cheese/provolone-del-monaco>,-0.31742891669273376,-0.3126524090766907,-0.7138594388961792,-0.4782143235206604,2.0701770782470703,1.9911404848098755,0.4191037714481354,0.29368022084236145,-0.5561845302581787,-0.732092022895813
<http://data.kasabi.com/dataset/italy/schema/Province>,1.1905770301818848,-1.4614800214767456,-0.6740953922271729,-0.6618222594261169,-0.3119012415409088,0.707082211971283,2.076833724975586,0.9198350310325623,-1.9663240909576416,2.0953874588012695
<http://data.kasabi.com/dataset/cheese/pecorino-romano>,-0.31824931502342224,0.3277876377105713,0.576677143573761,-0.24092133343219757,1.6546721458435059,1.3224843740463257,0.46813568472862244,1.4209861755371094,-0.6894120573997498,-0.1054798811674118
<http://data.kasabi.com/dataset/cheese/castelmagno>,-0.49521759152412415,-0.0904894694685936,0.12182033807039261,-0.5139893889427185,1.2711516618728638,1.286899209022522,0.597528874874115,0.8883923292160034,-0.9339084029197693,-0.373467355966568
<http://ec.europa.eu/eurostat/ramon/ontologies/geographic.rdf#NUTSRegion>,0.6194506287574768,-1.0228655338287354,-1.3732240200042725,-2.130211114883423,0.2615334391593933,0.09714096784591675,0.9744592308998108,-0.2981727123260498,-2.3698067665100098,0.6861787438392639
<http://ec.europa.eu/eurostat/ramon/rdfdata/nuts2008/ITC4>,0.09195523709058762,0.05792741850018501,-0.3626866936683655,-2.1726062297821045,0.8703175187110901,-0.5921866297721863,0.3995283842086792,-0.613315999507904,-2.1968958377838135,-0.5223642587661743
<http://data.kasabi.com/dataset/cheese/casciotta-durbino>,-0.2070174515247345,0.0679246336221695,0.4444205164909363,-0.5722829699516296,1.2147189378738403,0.8003524541854858,0.20197828114032745,0.93964684009552,-0.7699882388114929,0.16779036819934845
<http://data.kasabi.com/dataset/italy/emilia-romagna>,0.7742908000946045,0.11812569200992584,1.2798049449920654,1.3506499528884888,1.4459245204925537,1.0997593402862549,1.60373055934906,0.14978256821632385,-2.0177054405212402,0.5343204140663147
<http://data.kasabi.com/dataset/cheese/bel-paese>,0.12954364717006683,-0.3216562867164612,-0.18688587844371796,-0.6903334856033325,1.2709064483642578,1.0275650024414062,0.24073095619678497,0.9508863687515259,-0.5299174785614014,0.07187968492507935
<http://ec.europa.eu/eurostat/ramon/rdfdata/nuts2008/ITE1>,0.5398347973823547,-0.0749068558216095,-0.519770622253418,-2.076173782348633,1.0908833742141724,-0.6511693596839905,0.23759299516677856,-0.5631514191627502,-2.0159568786621094,-0.4583982229232788
<http://data.kasabi.com/dataset/italy/sardegna>,1.1215962171554565,0.20831263065338135,1.2247676849365234,1.3567942380905151,1.6288012266159058,1.4161173105239868,1.6604645252227783,-0.03708183392882347,-2.2172040939331055,0.20736441016197205
<http://data.kasabi.com/dataset/cheese/burrata>,0.08897406607866287,0.20281720161437988,0.6258672475814819,-0.42957571148872375,1.181941270828247,0.9861219525337219,0.4079802334308624,0.7778210043907166,-0.8173961639404297,-0.23294943571090698
<http://data.kasabi.com/dataset/italy/sicilia>,0.893794596195221,0.30097946524620056,1.2310774326324463,1.4046379327774048,1.5054007768630981,1.2556700706481934,1.3707078695297241,0.21296899020671844,-1.7895338535308838,0.4947754442691803
<http://data.kasabi.com/dataset/cheese/mozzarella-di-bufala-campana>,0.2877384126186371,-0.054338645190000534,0.7207798957824707,-0.39037245512008667,1.1197831630706787,0.4165725111961365,0.4738105833530426,1.065658450126648,-0.7863368988037109,0.5713202357292175
<http://data.kasabi.com/dataset/cheese/montasio>,0.2704726457595825,0.2934746742248535,0.37377414107322693,-0.27119457721710205,1.3359845876693726,0.6559304594993591,0.4680537283420563,0.6676202416419983,-0.7055089473724365,0.15954607725143433
"3",1.986544132232666,-0.4077816605567932,-0.37150928378105164,-2.366809606552124,1.36736261844635,-0.39876648783683777,1.8338520526885986,-0.882438600063324,-2.305514097213745,-0.987501859664917
<http://data.kasabi.com/dataset/italy/piemonte>,0.9979649782180786,0.2490367740392685,1.0306968688964844,1.4190270900726318,1.6266518831253052,1.3646540641784668,1.5720707178115845,0.12424410879611969,-1.9981404542922974,0.14081905782222748
<http://data.kasabi.com/dataset/cheese/pecorino-di-osilo>,-0.2704717516899109,-0.16038158535957336,0.1611754149198532,-0.3972606062889099,1.750518560409546,1.7322285175323486,0.37405338883399963,0.5946485996246338,-0.6332970857620239,-0.31510183215141296
<http://data.kasabi.com/dataset/italy/marche>,0.9806519150733948,0.39302194118499756,1.2838636636734009,1.4064689874649048,1.6182167530059814,1.1802773475646973,1.318004846572876,0.09513948112726212,-2.0578773021698,0.2778462767601013
<http://ec.europa.eu/eurostat/ramon/rdfdata/nuts2008/ITG1>,0.46298229694366455,-0.1468326896429062,-0.14816023409366608,-1.9836007356643677,1.170646071434021,-0.3167232275009155,0.24872341752052307,-0.5915674567222595,-1.9638394117355347,-0.3269703984260559
<http://ec.europa.eu/eurostat/ramon/rdfdata/nuts2008/ITD5>,0.3276881277561188,-0.12319294363260269,-0.3269153833389282,-1.7449582815170288,0.9438938498497009,-0.7691043615341187,0.26651981472969055,-0.8468912839889526,-1.9711618423461914,-0.4580933451652527
<http://data.kasabi.com/dataset/italy/lombardia>,1.0117132663726807,0.23127475380897522,1.2433252334594727,1.4816194772720337,1.4870014190673828,1.4784241914749146,1.364041805267334,0.03382900729775429,-1.8786615133285522,0.22179652750492096
<http://data.kasabi.com/dataset/cheese/gorgonzola>,-0.13137966394424438,0.19691967964172363,0.4482573866844177,-0.14649394154548645,1.4502912759780884,0.9010376334190369,0.5034011006355286,1.0744454860687256,-0.7335180640220642,0.14056430757045746
<http://data.kasabi.com/dataset/italy/puglia>,1.0371172428131104,0.07148368656635284,1.1666990518569946,1.516700267791748,1.6481502056121826,1.302516222000122,1.6718590259552002,0.14023956656455994,-2.12805438041687,0.38889986276626587
<http://data.kasabi.com/dataset/italy/schema/Region>,0.7025251388549805,-1.1559110879898071,-0.8818556666374207,-1.1089593172073364,0.09645937383174896,0.7847073078155518,1.6989396810531616,0.4576784670352936,-2.04506778717041,1.427820086479187
<http://data.kasabi.com/dataset/italy/abruzzo>,0.8330036401748657,0.07852473109960556,1.3513920307159424,1.205087423324585,1.2938485145568848,0.6984097957611084,1.5023235082626343,0.2723083198070526,-1.8504314422607422,0.3111322820186615
<http://data.kasabi.com/dataset/cheese/ziger>,-0.44365471601486206,0.22188444435596466,1.1254228353500366,-0.7710316181182861,1.5885889530181885,1.134757399559021,0.5236063003540039,1.0612553358078003,-1.449808120727539,-0.37726137042045593
<http://ec.europa.eu/eurostat/ramon/rdfdata/nuts2008/ITG2>,0.26579123735427856,0.20428317785263062,-0.212173730134964,-1.872912049293518,0.8603726029396057,-0.2844700217247009,0.315188467502594,-0.27565574645996094,-1.8712671995162964,-0.2160245180130005
<http://data.kasabi.com/dataset/cheese/toma-piemontese>,-0.2667939066886902,0.17128756642341614,0.7300778031349182,-0.43418365716934204,1.5200225114822388,1.0697489976882935,0.3462655246257782,1.0825438499450684,-0.9695554971694946,0.24868686497211456
<http://data.kasabi.com/dataset/italy/friuli-venezia-giulia>,0.997754693031311,0.07939527183771133,1.1450188159942627,1.4167709350585938,1.7039947509765625,0.9654797315597534,1.3618333339691162,0.1947094202041626,-1.8942363262176514,0.3336147367954254
<http://data.kasabi.com/dataset/cheese/asiago-mezzano>,-0.5487709045410156,0.14838014543056488,1.123430609703064,-0.851564347743988,1.2613438367843628,0.8622366189956665,-0.0599944107234478,1.0465604066848755,-0.9289003610610962,-0.065712109208107
<http://data.kasabi.com/dataset/italy/campania>,0.9656695127487183,0.11617837101221085,0.9645424485206604,1.3582780361175537,1.3301788568496704,0.989983081817627,1.1699049472808838,0.371829092502594,-1.821075201034546,0.2928321659564972
<http://data.kasabi.com/dataset/cheese/pecorino-sardo>,0.1151621863245964,0.10931111872196198,0.7526413798332214,-0.5285459160804749,1.0989946126937866,0.6051281094551086,0.6994339823722839,0.7883121967315674,-0.9123510122299194,0.10614290833473206
<http://data.kasabi.com/dataset/cheese/casizolu>,-0.37647807598114014,-0.06029137223958969,-0.5049778819084167,-0.33657586574554443,1.6494876146316528,1.4014006853103638,0.39233818650245667,0.6836307644844055,-0.24831902980804443,-0.3369801342487335
<http://data.kasabi.com/dataset/italy/lazio>,0.9658905863761902,0.06899935007095337,0.9070786833763123,1.311138391494751,1.4498459100723267,1.0040429830551147,1.415131688117981,0.09261055290699005,-1.8124573230743408,0.3218251168727875
<http://data.kasabi.com/dataset/italy/liguria>,0.4662232995033264,0.3012616038322449,1.2142335176467896,1.2577515840530396,1.6778982877731323,0.8995016813278198,1.624901294708252,0.2223168909549713,-1.9745837450027466,0.4338917136192322
<http://ec.europa.eu/eurostat/ramon/rdfdata/nuts2008/ITC1>,0.3136965334415436,0.022221464663743973,-0.1407160609960556,-1.721421480178833,0.9766181707382202,-0.5694537162780762,0.12774035334587097,-0.7683088183403015,-1.6983915567398071,-0.4970409870147705
<http://data.kasabi.com/dataset/cheese/stelvio>,-0.14367501437664032,0.41025614738464355,0.827000081539154,-0.7235184907913208,1.5488351583480835,1.141274333000183,0.2874414622783661,0.7426974773406982,-0.9137606024742126,-0.19273582100868225
<http://data.kasabi.com/dataset/cheese/taleggio>,-0.07330852001905441,0.06193935498595238,0.7434201836585999,-0.1705392301082611,1.541035771369934,1.2658441066741943,0.44071608781814575,1.1800081729888916,-0.8819243311882019,-0.04722665250301361
<http://data.kasabi.com/dataset/italy/umbria>,0.7056463360786438,0.3058062493801117,1.2059612274169922,1.2836077213287354,1.8149255514144897,1.1784545183181763,1.450023889541626,0.23237475752830505,-2.1456234455108643,0.19228072464466095
<http://data.kasabi.com/dataset/italy/toscana>,0.8007665872573853,0.2030252069234848,1.0676168203353882,1.274030327796936,1.4655762910842896,1.137945294380188,1.3550381660461426,0.05271650478243828,-1.5807278156280518,0.17919012904167175
<http://www.geonames.org/ontology#featureCode>,-0.021335797384381294,-0.04386195167899132,1.9986733198165894,0.10429587960243225,0.6764047145843506,0.30931246280670166,1.0180494785308838,1.2719041109085083,-1.6560165882110596,1.2625014781951904
<http://data.kasabi.com/dataset/italy/molise>,0.5907324552536011,0.18349212408065796,1.2598029375076294,1.238700032234192,1.665298581123352,1.024583101272583,1.3416223526000977,0.22557084262371063,-2.2810451984405518,0.2552620470523834
<http://www.w3.org/2000/01/rdf-schema#comment>,0.5477960109710693,-0.39507681131362915,-0.14402934908866882,-2.016329050064087,1.506879448890686,1.1471519470214844,0.48489177227020264,-0.4029986560344696,-1.691801905632019,1.214725375175476
<http://data.kasabi.com/dataset/italy/veneto>,0.8642633557319641,0.30322736501693726,1.0669963359832764,1.2992639541625977,1.561065435409546,1.3825916051864624,1.4332854747772217,0.20736271142959595,-1.721973180770874,0.34097975492477417
<http://data.kasabi.com/dataset/cheese/dolcelatte>,-0.31508326530456543,-0.04960045963525772,0.810613214969635,-0.4785715937614441,1.5286442041397095,0.7507439851760864,0.3155606985092163,1.2402162551879883,-1.2937358617782593,0.01074310950934887
<http://data.kasabi.com/dataset/cheese/fresa>,-0.20209170877933502,-0.08723977953195572,-0.2674983739852905,-0.570267379283905,1.600005865097046,1.6210790872573853,0.476600706577301,0.36997029185295105,-0.4629350006580353,-0.3637673258781433
<http://data.kasabi.com/dataset/italy/valle-daosta>,0.692658007144928,0.1523476392030716,0.8285672664642334,1.0175286531448364,1.4766759872436523,0.8064436912536621,1.1287940740585327,0.3993839919567108,-1.8960708379745483,0.0004486161924432963
<http://data.kasabi.com/dataset/italy/calabria>,0.8386403918266296,0.2238132208585739,1.07686185836792,1.2183451652526855,1.1260747909545898,0.8314690589904785,1.3533672094345093,0.25627535581588745,-1.6491402387619019,0.46932587027549744
<http://data.kasabi.com/dataset/cheese/monte-veronese>,0.047301508486270905,0.2559768557548523,0.3454638123512268,-0.5522391200065613,1.227979063987732,0.9601690173149109,0.3895699381828308,0.9676879644393921,-0.7587447762489319,0.2703087329864502
<http://data.kasabi.com/dataset/cheese/ircano>,-0.035312872380018234,0.22952677309513092,0.011526023969054222,-0.32397791743278503,1.798585295677185,1.1504251956939697,0.33450108766555786,0.7168518900871277,-0.5001669526100159,-0.010827014222741127
<http://data.kasabi.com/dataset/cheese/spressa-delle-giudicarie>,-0.42680859565734863,0.2238469421863556,0.18831951916217804,-0.6832972168922424,1.6731921434402466,1.4587247371673584,0.29133340716362,0.5388242602348328,-0.7509456872940063,-0.4926305115222931
<http://data.kasabi.com/dataset/italy/trentino-alto-adige>,0.9240820407867432,0.2611134350299835,0.8374879956245422,1.2591722011566162,1.4364683628082275,1.1930674314498901,1.4550747871398926,0.020454952493309975,-1.757510781288147,0.16578277945518494
<http://data.kasabi.com/dataset/cheese/pecorino-siciliano>,0.13020864129066467,0.05365743115544319,0.4489850401878357,-0.4173052906990051,1.4548922777175903,0.5471614599227905,0.3724103569984436,0.8425534963607788,-0.9310181736946106,0.3424321115016937
<http://ec.europa.eu/eurostat/ramon/rdfdata/nuts2008/ITD3>,0.23798705637454987,0.07908393442630768,-0.3597377836704254,-1.759719967842102,1.263021469116211,-0.5234218835830688,0.1574774980545044,-0.4215574264526367,-1.7072795629501343,-0.05877718701958656
<http://data.kasabi.com/dataset/italy/schema/Comune>,0.8809908628463745,-0.06179317459464073,-0.1735953688621521,-2.83774471282959,0.5513520836830139,0.7744318246841431,0.40873754024505615,-0.08069036900997162,-1.8349107503890991,-0.1054016724228859
<http://data.kasabi.com/dataset/cheese/fiore-sardo>,-0.06251051276922226,0.05125939100980759,0.7611782550811768,-0.42761698365211487,1.4473448991775513,1.0624651908874512,0.31224507093429565,0.9196088314056396,-0.6198216676712036,-0.08588961511850357
<http://data.kasabi.com/dataset/cheese/carnia>,-0.3390292823314667,0.12395482510328293,0.400287389755249,-0.5354682803153992,1.3900140523910522,1.4513534307479858,0.20394021272659302,0.7210826873779297,-0.5028438568115234,-0.08881427347660065
<http://data.kasabi.com/dataset/cheese/caciocavallo-silano>,0.051637984812259674,0.14102204144001007,0.8092026114463806,0.053938206285238266,1.0436203479766846,0.539121687412262,0.5026198029518127,0.7244725227355957,-0.6763595342636108,0.5321823358535767
<http://data.kasabi.com/dataset/cheese/murutzulu>,-0.4442629814147949,0.1553080677986145,1.0886679887771606,-0.7232265472412109,1.8059853315353394,1.0600649118423462,0.2100876271724701,1.2416093349456787,-1.3548336029052734,-0.10815968364477158
<http://data.kasabi.com/dataset/cheese/formaggio-di-fossa-di-sogliano>,0.047099605202674866,0.038900893181562424,0.3309999406337738,-0.24666371941566467,1.2068554162979126,0.8215769529342651,0.33012446761131287,0.7203188538551331,-0.41634100675582886,0.5233937501907349
<http://data.kasabi.com/dataset/cheese/valle-daosta-fromadzo>,-0.1904187798500061,0.02679911069571972,0.7075369358062744,-0.3438326120376587,1.4871827363967896,1.2297149896621704,0.39721789956092834,0.8388528823852539,-1.0643686056137085,0.07978658378124237
<http://data.kasabi.com/dataset/italy/basilicata>,0.6982558965682983,0.16485539078712463,0.8781058192253113,1.2629064321517944,1.367879867553711,1.0761427879333496,1.3296502828598022,0.19596973061561584,-1.846603512763977,0.34854260087013245
<http://data.kasabi.com/dataset/italy/cagliari>,0.2987428605556488,0.3149127960205078,0.9266470074653625,0.092582568526268,0.7744140028953552,0.38982245326042175,0.6682210564613342,0.8781468868255615,-0.7374944686889648,0.9922330975532532
<http://data.kasabi.com/dataset/cheese/bagoss>,-0.22079133987426758,0.2771972119808197,0.24449342489242554,-0.5093766450881958,1.4008628129959106,1.27479887008667,0.30672773718833923,0.6778850555419922,-0.47970065474510193,-0.417763352394104
<http://data.kasabi.com/dataset/cheese/agri-di-valtorta>,-0.10765662044286728,0.33110037446022034,0.2949148714542389,-0.3382897973060608,1.3788673877716064,1.02299165725708,0.08693283051252365,0.7586303949356079,-0.5619151592254639,-0.31093570590019226
<http://data.kasabi.com/dataset/italy/schema/>,0.6748224496841431,0.23664778470993042,-0.5137096643447876,-2.3244364261627197,1.0115511417388916,0.7182453274726868,0.1703595519065857,-0.6864989399909973,-1.421148419380188,-0.5631967186927795
<http://data.kasabi.com/dataset/cheese/asiago-dallevo>,-0.09691991657018661,0.04931296408176422,0.4132111072540283,-0.6047640442848206,1.1156114339828491,0.555079996585846,0.29719799757003784,0.7270445823669434,-0.6020117402076721,0.2173609733581543
<http://data.kasabi.com/dataset/cheese/puzzone-di-moena>,-0.22376835346221924,-0.01155324000865221,0.3536387085914612,-0.33911800384521484,1.7145555019378662,1.3683644533157349,0.4105026423931122,0.8383427262306213,-0.8736263513565063,-0.18082106113433838
<http://data.kasabi.com/dataset/cheese/crescenza>,-0.19253355264663696,0.061442043632268906,0.4712880253791809,-0.4123958647251129,1.3504652976989746,0.8595277070999146,0.5061811208724976,0.7914535403251648,-0.8457607626914978,0.2576586604118347
<http://www.geonames.org/ontology#parentCountry>,0.7055596709251404,0.031175391748547554,1.737026572227478,0.4675040543079376,1.2022804021835327,0.5989077687263489,1.4641337394714355,1.2021211385726929,-0.879687488079071,0.875715434551239
<http://data.kasabi.com/dataset/cheese/schema/Country>,0.47624900937080383,-0.8938055634498596,-1.0412019491195679,-1.4984675645828247,0.32553982734680176,1.1220107078552246,0.8855353593826294,0.3514883518218994,-1.513041615486145,1.550978660583496
<http://data.kasabi.com/dataset/cheese/bastardo-del-grappa>,-0.2169187217950821,0.3633077144622803,0.47921913862228394,-0.38178005814552307,1.3388183116912842,1.192611813545227,0.15411323308944702,0.9610295295715332,-0.6112566590309143,-0.03316023573279381
<http://data.kasabi.com/dataset/cheese/asiago-pressato>,-0.08938433974981308,0.2759265601634979,0.36430492997169495,-0.4155731499195099,1.2627911567687988,0.6709535717964172,0.21561235189437866,0.5743539333343506,-0.5000611543655396,0.18246091902256012
<http://data.kasabi.com/dataset/cheese/raschera-dalpeggio>,0.08194919675588608,0.11452782154083252,0.47364896535873413,-0.48011288046836853,1.4622645378112793,0.6084900498390198,0.24959133565425873,0.7813034057617188,-0.9995728731155396,0.1557474136352539
<http://data.kasabi.com/dataset/cheese/branzi>,-0.2556166648864746,0.010891728103160858,0.3927364945411682,-0.7074864506721497,1.3398793935775757,1.1090439558029175,0.1132739707827568,0.754361629486084,-0.4099035859107971,-0.15149535238742828
<http://data.kasabi.com/dataset/cheese/pecorino-toscano>,0.08648204803466797,0.06243608519434929,0.6131347417831421,-0.34296518564224243,1.0188645124435425,0.3744083344936371,0.5728861689567566,0.8502128720283508,-0.5297054648399353,0.6082872748374939
<http://data.kasabi.com/dataset/cheese/raschera>,-0.14300651848316193,0.1542084664106369,0.6248577833175659,-0.4275285601615906,1.4932940006256104,0.9361152052879333,0.2655833661556244,0.9786519408226013,-0.9756038188934326,0.27940401434898376
<http://www.w3.org/2000/01/rdf-schema#isDefinedBy>,0.04088025540113449,0.2781665027141571,-0.15020401775836945,-2.152653694152832,1.0056400299072266,0.8324005007743835,0.041056543588638306,-0.7411649823188782,-1.39313542842865,-0.0028494801372289658
<http://data.kasabi.com/dataset/cheese/bettelmatt>,-0.3415628671646118,0.35922837257385254,0.05659353733062744,-0.6164841651916504,1.2537438869476318,1.2283775806427002,0.4341355562210083,0.5946044921875,-0.743602991104126,-0.1613929569721222
<http://www.geonames.org/ontology#countryCode>,1.2432162761688232,-0.36947008967399597,1.206885814666748,-0.18096141517162323,1.7137359380722046,0.1694483906030655,0.7946518659591675,0.7471969723701477,0.1528736799955368,1.6187098026275635
<http://data.kasabi.com/dataset/italy/verona>,0.040379587560892105,0.08319458365440369,0.9860048294067383,-0.1615239679813385,0.9978797435760498,0.4371106028556824,0.8186404705047607,0.8259820938110352,-1.0453290939331055,0.7714089751243591
<http://ec.europa.eu/eurostat/ramon/rdfdata/nuts2008/ITF6>,0.3978624641895294,0.12235825508832932,-0.14479626715183258,-1.5967098474502563,1.0098373889923096,-0.37355804443359375,0.43146172165870667,-0.4484502971172333,-1.6525062322616577,-0.19858761131763458
<http://data.kasabi.com/dataset/cheese/schema/use>,-0.44453760981559753,0.5623363256454468,-0.020181739702820778,-0.507809579372406,1.1755720376968384,0.9707343578338623,0.7087371349334717,0.2059888392686844,-0.8282797932624817,0.2944034934043884
<http://data.kasabi.com/dataset/italy/verbano-cusio-ossola>,0.4837063252925873,0.14659535884857178,1.015313982963562,-0.14292781054973602,1.1825453042984009,0.4561570882797241,0.9631147384643555,0.6294783353805542,-0.9568630456924438,0.7290969491004944
<http://data.kasabi.com/dataset/italy/grosseto>,0.2101632058620453,0.3437412977218628,0.8283653259277344,0.11500927060842514,0.9322691559791565,0.3385343849658966,0.7083857655525208,0.6361478567123413,-0.9825989603996277,0.8211849331855774
<http://ec.europa.eu/eurostat/ramon/rdfdata/nuts2008/ITF4>,0.2796688377857208,0.10088058561086655,-0.4721652865409851,-1.6383001804351807,1.0930012464523315,-0.2043718546628952,0.45238199830055237,-0.31739935278892517,-1.494157314300537,-0.27017903327941895
<http://data.kasabi.com/dataset/cheese/dobbiaco>,-0.07846660912036896,0.21431975066661835,0.5162135362625122,-0.39988282322883606,1.5969643592834473,1.1895902156829834,0.05878395214676857,0.6782042384147644,-0.5807650089263916,0.16713933646678925
<http://www.geonames.org/ontology#featureClass>,0.9619788527488708,0.6746563911437988,1.5546070337295532,0.05744305998086929,1.639256238937378,0.010775230824947357,0.4474448263645172,1.1907384395599365,-0.3944522440433502,0.7847144603729248
<http://data.kasabi.com/dataset/italy/gorizia>,0.32916226983070374,0.06532981246709824,0.8755570650100708,-0.03012525849044323,1.0489213466644287,0.3083649277687073,0.743808388710022,0.6554267406463623,-0.887737512588501,0.6594610810279846
<http://data.kasabi.com/dataset/cheese/canestrato-di-moliterno>,-0.09614083915948868,0.20507697761058807,0.28166985511779785,-0.42254409193992615,1.3100574016571045,0.8988842368125916,0.1891821324825287,0.6410694718360901,-0.4388323426246643,-0.02170880138874054
<http://data.kasabi.com/dataset/cheese/bruss>,-0.03096430003643036,0.18160219490528107,0.5739172101020813,-0.4967574179172516,1.2110990285873413,0.6276652812957764,0.25324010848999023,0.7291147112846375,-0.6116630434989929,0.10375159978866577
<http://data.kasabi.com/dataset/cheese/schema/shape>,-0.21738752722740173,0.21946978569030762,-0.16803647577762604,-0.7863416075706482,1.7761895656585693,1.3004376888275146,0.6091466546058655,0.4951356053352356,-0.5856326222419739,0.24560856819152832
<http://data.kasabi.com/dataset/cheese/casatella-trevigiana>,-0.15231642127037048,0.08737676590681076,0.5925998687744141,-0.4815208613872528,1.4185717105865479,1.0553338527679443,0.309570848941803,0.8335081338882446,-0.6221510171890259,-0.21597567200660706
<http://ec.europa.eu/eurostat/ramon/rdfdata/nuts2008/ITF3>,0.38305962085723877,0.1685256063938141,-0.09588999301195145,-1.538368821144104,1.0055904388427734,-0.37887856364250183,0.5142958164215088,-0.3657907545566559,-1.607571005821228,-0.08924555778503418
<http://data.kasabi.com/dataset/italy/bolzano>,0.5887276530265808,0.26993057131767273,0.6272968649864197,-0.1652122139930725,0.813169538974762,0.1537681221961975,0.6814008355140686,0.4327421486377716,-0.5906085968017578,0.48508113622665405
<http://data.kasabi.com/dataset/cheese/robiola-di-roccaverano>,0.13033251464366913,0.012741842307150364,0.44304159283638,-0.7287150621414185,1.3511227369308472,1.004732608795166,0.5254148840904236,0.7279234528541565,-0.740279495716095,0.1165022924542427
<http://data.kasabi.com/dataset/cheese/bonassai>,-0.05145036429166794,0.2819209098815918,0.5235782265663147,-0.7135834693908691,1.4496854543685913,1.183172345161438,0.23844504356384277,0.8538764715194702,-0.6413844227790833,-0.0465000681579113
<http://ec.europa.eu/eurostat/ramon/rdfdata/nuts2008/ITE4>,0.0911322608590126,0.03415286913514137,-0.13463059067726135,-1.4892319440841675,0.9944198727607727,-0.4003996253013611,0.44912412762641907,-0.20155905187129974,-1.3982083797454834,-0.1357875019311905
<http://data.kasabi.com/dataset/cheese/kanterkaas>,0.13628418743610382,0.14263494312763214,0.32722362875938416,-0.7343417406082153,1.38169264793396,0.7558961510658264,0.02165456861257553,0.5683412551879883,-0.646377444267273,0.22196726500988007
<http://data.kasabi.com/dataset/italy/isernia>,0.4175308346748352,0.2987819015979767,0.9843939542770386,-0.02925211749970913,1.082187294960022,0.3130043148994446,0.9266383051872253,0.6701315641403198,-0.9053113460540771,0.5400254130363464
<http://data.kasabi.com/dataset/cheese/cantal>,-0.12576305866241455,0.008453035727143288,0.17203663289546967,-0.6236982345581055,1.2348144054412842,0.703896164894104,-0.025374554097652435,0.43286964297294617,-0.4686611592769623,0.07985338568687439
<http://data.kasabi.com/dataset/cheese/triza>,-0.2730412781238556,-0.04890316352248192,0.7892208099365234,-0.7820320129394531,1.647635579109192,0.8305126428604126,0.46286919713020325,0.8661894798278809,-1.020739197731018,0.11794106662273407
<http://data.kasabi.com/dataset/cheese/munster>,-0.14355644583702087,0.20978690683841705,0.31964409351348877,-0.8712167143821716,1.2744430303573608,0.6347963809967041,0.27790844440460205,0.6276975870132446,-0.6002706289291382,-0.04996291548013687
<http://data.kasabi.com/dataset/cheese/provolone-valpadana>,0.17324967682361603,0.17139004170894623,0.6309823989868164,-0.2467455416917801,1.3279345035552979,0.6970008015632629,0.3948204815387726,0.8863133192062378,-0.6942035555839539,0.5659111738204956
<http://data.kasabi.com/dataset/cheese/murazzano>,-0.13316546380519867,0.23830489814281464,0.489694207906723,-0.4738463759422302,1.4127146005630493,0.8023566007614136,0.27321481704711914,0.8046950697898865,-0.8239550590515137,0.3329928517341614
<http://data.kasabi.com/dataset/cheese/ricotta-gentile>,-0.1890031397342682,0.03658584877848625,0.6772794127464294,-0.4865467846393585,1.4673875570297241,0.8644672632217407,0.339682936668396,1.0039573907852173,-0.9892060160636902,0.19680573046207428
<http://data.kasabi.com/dataset/cheese/schema/Location>,0.2804340422153473,-0.6135886311531067,-1.0436443090438843,-1.0919361114501953,0.2647347152233124,1.255783200263977,1.2302969694137573,0.6250999569892883,-1.4866070747375488,0.8068391680717468
<http://sws.geonames.org/3175395/>,-0.08254582434892654,-0.06244959309697151,1.2622853517532349,0.46528398990631104,1.2699240446090698,0.8156002759933472,1.3687057495117188,0.26789069175720215,-1.1497098207473755,1.4472306966781616
<http://data.kasabi.com/dataset/cheese/formaggella-del-luinese>,0.0631476566195488,0.07032140344381332,0.31958338618278503,-0.37595462799072266,1.4654934406280518,1.104712963104248,0.23635847866535187,0.5465568900108337,-0.6366732120513916,-0.07465925067663193
<http://data.kasabi.com/dataset/italy/oristano>,0.20566506683826447,0.16283255815505981,0.9126622676849365,-0.09152505546808243,0.9870801568031311,0.5311222672462463,0.8619588613510132,0.6464661359786987,-0.7246881127357483,0.8831854462623596
<http://rdfs.org/ns/void#vocabulary>,-1.2898207902908325,-0.5723191499710083,-0.23719435930252075,-1.7316595315933228,2.2353179454803467,-0.10799956321716309,0.8663368821144104,1.7971280813217163,-1.1773673295974731,0.2486407309770584
<http://data.kasabi.com/dataset/italy/terni>,0.34492582082748413,0.29074642062187195,1.0329945087432861,-0.14202694594860077,1.2483153343200684,0.5598880648612976,0.7699509859085083,0.38257673382759094,-0.9785075783729553,0.4407810866832733
<http://data.kasabi.com/dataset/italy/trento>,0.0763450637459755,0.21495012938976288,0.7781853079795837,-0.20412619411945343,1.0571976900100708,0.6619148850440979,0.692080020904541,0.6700601577758789,-0.7941726446151733,0.9205935597419739
<http://ec.europa.eu/eurostat/ramon/rdfdata/nuts2008/ITE3>,0.19863444566726685,0.07603298127651215,-0.31836867332458496,-1.4943386316299438,0.8189733028411865,-0.2674468755722046,0.37278246879577637,-0.21431933343410492,-1.276868462562561,-0.1432872712612152
<http://data.kasabi.com/dataset/italy/viterbo>,0.4447246789932251,0.14501336216926575,0.9016607999801636,-0.2671131491661072,1.2393512725830078,0.36264246702194214,0.6436119079589844,0.5620730519294739,-0.8847889304161072,0.5544605851173401
<http://data.kasabi.com/dataset/italy/napoli>,0.22268396615982056,0.10047605633735657,0.6795939803123474,-0.0706871971487999,0.9545831680297852,0.5145879983901978,0.6740242838859558,0.6936415433883667,-0.8988857865333557,0.6899721026420593
<http://data.kasabi.com/dataset/italy/trieste>,0.4259764552116394,0.4065248370170593,0.8837002515792847,-0.14415234327316284,1.1643682718276978,0.6496608853340149,0.7847265601158142,0.45829087495803833,-0.9401336908340454,0.7407240271568298
<http://ec.europa.eu/eurostat/ramon/rdfdata/nuts2008/ITC3>,0.33088788390159607,-0.01142679713666439,-0.0795569121837616,-1.3384182453155518,0.8169324398040771,-0.33060601353645325,0.33002087473869324,-0.48775941133499146,-1.3208218812942505,-0.40426310896873474
<http://data.kasabi.com/dataset/cheese/quartirolo-lombardo>,-0.08569630980491638,0.05422768369317055,0.42584264278411865,-0.40369969606399536,1.5695651769638062,0.9719622135162354,0.25879427790641785,0.6449781656265259,-0.6564447283744812,0.24688345193862915
<http://data.kasabi.com/dataset/italy/cremona>,0.2773819863796234,0.12837117910385132,0.8497366905212402,0.04512663185596466,0.8898617029190063,0.33414217829704285,0.6130962371826172,0.4745348393917084,-0.806800365447998,0.8460215926170349
<http://data.kasabi.com/dataset/cheese/bra-tenero>,-0.10118287056684494,0.19641654193401337,0.4272957444190979,-0.46658799052238464,1.2227160930633545,0.8353478908538818,0.13930067420005798,0.7356087565422058,-0.5920249223709106,0.11067180335521698
<http://ec.europa.eu/eurostat/ramon/rdfdata/nuts2008/ITD4>,0.42003631591796875,0.2153685986995697,-0.16183319687843323,-1.5485824346542358,1.160414695739746,-0.37794744968414307,0.5544945001602173,-0.44566112756729126,-1.4475667476654053,-0.3112533390522003
<http://ec.europa.eu/eurostat/ramon/rdfdata/nuts2008/ITF1>,0.262668639421463,-0.10033372789621353,-0.21210835874080658,-1.4113231897354126,0.9691062569618225,-0.24552975594997406,0.2534139156341553,-0.31510427594184875,-1.5053642988204956,-0.22891347110271454
<http://data.kasabi.com/dataset/cheese/vastedda-della-valle-del-belice>,0.24628543853759766,0.20101331174373627,0.47920188307762146,-0.5656571388244629,1.2077010869979858,0.6602905988693237,0.23054830729961395,0.49758651852607727,-0.8902571797370911,0.41669541597366333
<http://data.kasabi.com/dataset/italy/lecco>,0.27920857071876526,0.30037742853164673,0.9031376242637634,-0.1833028644323349,1.0398728847503662,0.1666773557662964,0.8263969421386719,0.704844057559967,-0.7979474663734436,0.6576377153396606
<http://data.kasabi.com/dataset/italy/chieti>,0.4572242200374603,0.15862655639648438,1.0260628461837769,0.02615445852279663,1.0701364278793335,0.13751563429832458,0.7908843755722046,0.43651384115219116,-0.6466817855834961,0.44464507699012756
<http://data.kasabi.com/dataset/italy/ragusa>,0.32703250646591187,0.019055739045143127,0.24213913083076477,-0.23287218809127808,1.265330195426941,0.7077484130859375,0.650113046169281,0.3325828015804291,-0.6861274838447571,0.3649180233478546
<http://data.kasabi.com/dataset/italy/udine>,0.23933835327625275,0.22380346059799194,0.6941667795181274,-0.20855146646499634,1.1709972620010376,0.5675691962242126,0.5777407288551331,0.7854702472686768,-0.889082670211792,0.48011401295661926
<http://data.kasabi.com/dataset/italy/venezia>,0.36795997619628906,0.09333093464374542,0.9401232600212097,-0.25379860401153564,1.1890467405319214,0.3881728947162628,0.6639650464057922,0.690281867980957,-0.9038333296775818,0.9591265916824341
<http://data.kasabi.com/dataset/italy/perugia>,0.48167258501052856,0.38458535075187683,0.9805876016616821,-0.1653687059879303,1.2969309091567993,0.3820759057998657,0.8187451362609863,0.4892793595790863,-0.8840044140815735,0.5448288917541504
<http://data.kasabi.com/dataset/italy/padova>,0.16710789501667023,0.11899394541978836,0.6306784152984619,-0.11886303871870041,1.0627214908599854,0.36865857243537903,0.6942998170852661,0.6879210472106934,-0.6302396059036255,0.7143902778625488
<http://data.kasabi.com/dataset/cheese/almkase->,-0.10864657908678055,0.04026450216770172,0.3980877995491028,-0.36110904812812805,1.333505630493164,0.9422418475151062,0.2180560827255249,0.7320520281791687,-0.3618749976158142,0.12071733921766281
<http://data.kasabi.com/dataset/cheese/bra-dalpeggio>,-0.17225728929042816,0.1840294897556305,0.4309367835521698,-0.5231128334999084,1.3471170663833618,0.8188095092773438,0.4432470500469208,0.7561458945274353,-0.5593717098236084,0.16552789509296417
<http://data.kasabi.com/dataset/italy/ogliastra>,0.5298885107040405,0.22937309741973877,0.9517102837562561,-0.05636807903647423,1.147626519203186,0.4333837330341339,0.7578871846199036,0.5552534461021423,-0.7735653519630432,0.5847695469856262
<http://data.kasabi.com/dataset/italy/forli-cesena>,0.3948284685611725,0.06867759674787521,0.7044768333435059,-0.005064038559794426,0.9591583609580994,0.22317275404930115,0.7025230526924133,0.7534780502319336,-0.819125235080719,0.7152950167655945
<http://data.kasabi.com/dataset/italy/avellino>,0.2651478350162506,0.14840783178806305,0.8421257734298706,0.12994708120822906,1.0380123853683472,0.3176492154598236,0.7284444570541382,0.6881000399589539,-0.6615094542503357,0.7892923951148987
<http://data.kasabi.com/dataset/europe/france>,0.2117212861776352,-0.648819625377655,-1.2815507650375366,-1.0697219371795654,1.1141356229782104,0.6054657101631165,-0.5873597264289856,0.5283134579658508,-0.46490880846977234,0.9225044846534729
<http://data.kasabi.com/dataset/italy/belluno>,0.42468222975730896,0.2078414112329483,0.7826143503189087,0.033815812319517136,0.9500160813331604,0.30457496643066406,0.7742971777915955,0.7906474471092224,-0.6311492323875427,0.7440028190612793
<http://data.kasabi.com/dataset/italy/crotone>,0.3743239939212799,0.21763944625854492,0.9542587995529175,-0.0034093051217496395,0.972247302532196,0.35553526878356934,0.6617918014526367,0.5223960280418396,-0.7242170572280884,0.5837164521217346
<http://data.kasabi.com/dataset/italy/cuneo>,0.09042604267597198,0.09931362420320511,0.7274245023727417,-0.08009303361177444,0.9349588751792908,0.5072392821311951,0.6528962850570679,0.7714525461196899,-0.5323560833930969,0.8588667511940002
<http://data.kasabi.com/dataset/italy/teramo>,0.4504977762699127,0.3856564164161682,1.0054007768630981,-0.12886089086532593,1.1140226125717163,0.5767335891723633,0.827461838722229,0.666805624961853,-0.9387986063957214,0.6826581358909607
<http://data.kasabi.com/dataset/italy/medio-campidano>,0.432553768157959,0.19267579913139343,0.8880693316459656,-0.13829363882541656,1.1316859722137451,0.3231712281703949,0.6347834467887878,0.6759529113769531,-0.9064356088638306,0.5721890926361084
<http://data.kasabi.com/dataset/cheese/gransardo>,-0.32030215859413147,0.06661426275968552,0.47020402550697327,-0.5825063586235046,1.6713323593139648,1.0272870063781738,0.30312761664390564,0.8946535587310791,-0.8842120170593262,-0.07052063196897507
<http://data.kasabi.com/dataset/italy/ravenna>,0.35653164982795715,0.1199757307767868,0.7709449529647827,-0.10412582010030746,1.1061025857925415,0.44178345799446106,0.7751122117042542,0.6570599675178528,-0.802805483341217,0.8416413068771362
<http://data.kasabi.com/dataset/italy/pordenone>,0.3960041105747223,0.2771173119544983,0.8814128041267395,-0.06576269865036011,0.9922046065330505,0.5075895190238953,0.8605778813362122,0.5017266273498535,-0.8752490878105164,0.6124634146690369
<http://data.kasabi.com/dataset/italy/catanzaro>,0.38467758893966675,0.2672228515148163,0.8524908423423767,-0.09031257033348083,0.8579596877098083,0.14537808299064636,0.7437503933906555,0.45038333535194397,-0.7087673544883728,0.5830429196357727
<http://data.kasabi.com/dataset/italy/rimini>,0.26812127232551575,0.344478577375412,0.7664707899093628,-0.3082004487514496,1.0678555965423584,0.4769887328147888,0.7175978422164917,0.5512588620185852,-0.8262624144554138,0.966842770576477
<http://data.kasabi.com/dataset/italy/sassari>,0.1388862282037735,0.14660325646400452,0.8082478642463684,-0.10804703831672668,0.877444326877594,0.5896954536437988,0.6219030618667603,0.6134010553359985,-0.811163067817688,0.6927127242088318
<http://data.kasabi.com/dataset/italy/caltanissetta>,0.47411972284317017,0.3682042360305786,0.751390814781189,-0.0022843098267912865,0.9297858476638794,0.27384108304977417,0.5319492220878601,0.1846502423286438,-0.6544113755226135,0.5060309767723083
<http://data.kasabi.com/dataset/cheese/ricotta-mustia>,-0.1683167964220047,0.04180792346596718,0.4080953299999237,-0.7292954325675964,1.5316095352172852,0.9122470021247864,0.3310321271419525,0.7726227045059204,-0.7721972465515137,0.12847450375556946
<http://data.kasabi.com/dataset/italy/siracusa>,0.275341272354126,0.06782696396112442,0.7891262769699097,-0.10766855627298355,1.1264004707336426,0.5781474113464355,0.6734530925750732,0.5770772099494934,-0.9048973321914673,0.6822708249092102
<http://data.kasabi.com/dataset/italy/lecce>,0.42470312118530273,0.3220019042491913,0.9919416308403015,-0.13064923882484436,1.023640513420105,0.2926616668701172,0.8696656823158264,0.6052021980285645,-0.8490836024284363,0.5485989451408386
<http://data.kasabi.com/dataset/italy/palermo>,0.27865564823150635,0.2503812909126282,0.9570584297180176,0.05114585533738136,1.2489882707595825,0.3891008496284485,0.7979733943939209,0.497395783662796,-0.8707681894302368,0.594869077205658
<http://data.kasabi.com/dataset/italy/catania>,0.47530755400657654,0.20046351850032806,0.6336632966995239,0.050149090588092804,0.8903118371963501,0.21540415287017822,0.591071367263794,0.5223181247711182,-0.7409785985946655,0.723796010017395
<http://data.kasabi.com/dataset/italy/pescara>,0.4859543740749359,0.2836308479309082,0.8673416376113892,0.04781641438603401,1.2021211385726929,0.4455057680606842,0.7690401673316956,0.4942154288291931,-0.839654803276062,0.6307383179664612
<http://data.kasabi.com/dataset/italy/brescia>,0.17817622423171997,0.18466831743717194,0.7344691157341003,-0.006591836456209421,0.7410551309585571,0.18178366124629974,0.4843142628669739,0.6115846037864685,-0.6604808568954468,0.6403523683547974
<http://data.kasabi.com/dataset/italy/salerno>,0.34254327416419983,0.32255470752716064,0.813723087310791,-0.14521490037441254,1.2169549465179443,0.3712063133716583,0.807110607624054,0.6382166743278503,-1.0114552974700928,0.7696500420570374
<http://data.kasabi.com/dataset/cheese/casolet>,-0.06747496873140335,0.03960062563419342,0.43603596091270447,-0.4692785143852234,1.3407199382781982,0.9376057386398315,0.2585902512073517,0.787073016166687,-0.6265067458152771,-0.028677653521299362
<http://data.kasabi.com/dataset/italy/livorno>,0.4131842851638794,0.18724624812602997,0.6360318660736084,-0.0037352293729782104,1.1137540340423584,0.3074348568916321,0.6596022248268127,0.5367754697799683,-0.8168128132820129,0.8147396445274353
"IT",1.0228291749954224,-0.20300881564617157,1.0422511100769043,-0.05444234982132912,1.0065600872039795,0.8090041279792786,1.3639321327209473,0.3443795442581177,-1.4407624006271362,0.3426530659198761
<http://data.kasabi.com/dataset/italy/frosinone>,0.3250565826892853,0.33135613799095154,0.9317713975906372,-0.12029846757650375,0.927956759929657,0.4878961741924286,0.780906081199646,0.6045827865600586,-0.7182368636131287,0.7528327107429504
<http://data.kasabi.com/dataset/italy/siena>,0.35614830255508423,0.16997750103473663,0.7134806513786316,-0.14473527669906616,1.1089547872543335,0.4918229877948761,0.7059248685836792,0.7634572982788086,-0.8711540102958679,0.7172296643257141
<http://data.kasabi.com/dataset/italy/cosenza>,0.28579121828079224,0.2695956826210022,0.798711359500885,-0.08508449047803879,0.7956553101539612,0.37965279817581177,0.7427957057952881,0.518354058265686,-0.7614993453025818,0.7602195143699646
<http://data.kasabi.com/dataset/italy/bergamo>,0.05933285877108574,0.1543189287185669,0.5099339485168457,0.051441315561532974,0.6654046177864075,0.2230929136276245,0.5548712015151978,0.5505359768867493,-0.6399977207183838,0.7147130370140076
<http://data.kasabi.com/dataset/italy/ascoli-piceno>,0.32728955149650574,0.3603692054748535,0.9279199242591858,0.07817572355270386,0.8471284508705139,0.34765729308128357,0.6284669637680054,0.6000903844833374,-0.7473980188369751,0.8545172810554504
<http://data.kasabi.com/dataset/italy/aosta>,0.5010356307029724,0.4685799181461334,1.1575977802276611,0.1960691213607788,0.9125933647155762,0.28438952565193176,0.9327619075775146,0.2997874319553375,-0.7561755180358887,0.5370787382125854
<http://data.kasabi.com/dataset/cheese/greviera>,-0.14149415493011475,-0.04633835330605507,0.21331767737865448,-0.5212632417678833,1.5334588289260864,1.1672019958496094,0.33517199754714966,0.7375973463058472,-0.5162943005561829,0.03896728530526161
<http://data.kasabi.com/dataset/cheese/caprino-a-latte-crudo>,-0.23372134566307068,0.050809286534786224,0.6460492610931396,-0.830916166305542,1.2336208820343018,0.5948551297187805,0.017321335151791573,0.5973068475723267,-0.7994025349617004,-0.1878911703824997
<http://data.kasabi.com/dataset/cheese/valtellina-casera>,-0.01559942401945591,0.175319641828537,0.5300925374031067,-0.5804283022880554,1.30492103099823,0.6741870641708374,0.37386441230773926,0.6540974378585815,-0.9171190857887268,0.21629315614700317
<http://data.kasabi.com/dataset/cheese/queso-palmero>,0.1564083993434906,0.2872864305973053,0.05326785147190094,-0.7738409042358398,1.2291609048843384,0.43896710872650146,0.30083146691322327,0.4732370972633362,-0.8570064306259155,0.11065173894166946
<http://data.kasabi.com/dataset/italy/vibo-valentia>,0.3133579194545746,0.35369765758514404,0.6774271130561829,-0.27307814359664917,1.147918701171875,0.3499074876308441,0.7668437957763672,0.5459331274032593,-0.9225427508354187,0.6365572214126587
<http://data.kasabi.com/dataset/italy/enna>,0.43532320857048035,0.3098076283931732,0.8141223192214966,-0.10160587728023529,0.9458718299865723,0.22333374619483948,0.702035665512085,0.5834746956825256,-0.7065342664718628,0.7876047492027283
<http://data.kasabi.com/dataset/italy/carbonia-iglesias>,0.32043641805648804,0.1606864035129547,0.8633846640586853,0.03885810449719429,0.7640315294265747,0.36576545238494873,0.7633988261222839,0.3665477931499481,-0.7719141244888306,0.6189447045326233
<http://data.kasabi.com/dataset/italy/treviso>,0.2722523510456085,0.16076569259166718,0.7978059649467468,-0.23024071753025055,0.8990346193313599,0.4062892198562622,0.5534314513206482,0.7996826767921448,-0.8544376492500305,0.7672843933105469
<http://data.kasabi.com/dataset/cheese/gamoneu>,-0.01898127608001232,0.20892129838466644,0.22518007457256317,-0.5946793556213379,1.2421196699142456,0.5227299928665161,0.11720028519630432,0.5504555702209473,-0.681287407875061,0.044341374188661575
<http://data.kasabi.com/dataset/italy/foggia>,0.30637091398239136,0.13393957912921906,0.9092461466789246,0.016677316278219223,1.1570066213607788,0.4177796542644501,0.6919171810150146,0.5527427792549133,-0.6890103816986084,0.751950204372406
<http://data.kasabi.com/dataset/cheese/canestrato-pugliese>,-0.019754281267523766,0.2506549060344696,0.17049039900302887,-0.4664456248283386,1.331932544708252,0.8890237808227539,0.06647316366434097,0.7312836050987244,-0.46281760931015015,0.04156038165092468
<http://data.kasabi.com/dataset/italy/potenza>,0.1794406771659851,0.2604573369026184,0.7147156596183777,-0.16334138810634613,0.9678300023078918,0.4774734079837799,0.7718173265457153,0.6209138631820679,-0.8681075572967529,0.8892905116081238
<http://data.kasabi.com/dataset/italy/piacenza>,0.38102057576179504,0.1433689445257187,0.6589239239692688,-0.23010751605033875,1.0139307975769043,0.37922653555870056,0.7628023028373718,0.553367555141449,-0.9076852202415466,0.6539235711097717
<http://data.kasabi.com/dataset/italy/roma>,0.2766411006450653,0.04003794863820076,0.5627022385597229,-0.30103600025177,1.2612322568893433,0.4925362467765808,0.6695900559425354,0.6728602647781372,-0.9496657848358154,0.6847957372665405
<http://data.kasabi.com/dataset/italy/mantova>,0.10232320427894592,0.1881602704524994,0.813385009765625,-0.08579626679420471,1.0802556276321411,0.4286597967147827,0.5912669897079468,0.63648921251297,-0.7602543234825134,0.8837271332740784
<http://data.kasabi.com/dataset/italy/campobasso>,0.3337709903717041,0.36327096819877625,0.8419415354728699,-0.021425312384963036,0.8235058188438416,0.3363282084465027,0.5739980340003967,0.38905394077301025,-0.5974961519241333,0.6577181816101074
<http://data.kasabi.com/dataset/italy/rieti>,0.30433565378189087,0.30843600630760193,0.9845597743988037,-0.28537899255752563,1.1745429039001465,0.5737432241439819,0.84364914894104,0.5431223511695862,-0.8440254926681519,0.6295122504234314
<http://data.kasabi.com/dataset/italy/caserta>,0.3523544371128082,0.22590208053588867,0.7707204222679138,0.08296725153923035,0.8927555084228516,0.13014809787273407,0.7252893447875977,0.6404514908790588,-0.7057684063911438,0.8911106586456299
<http://data.kasabi.com/dataset/italy/benevento>,0.32816436886787415,0.1910421997308731,0.9843697547912598,-0.15730620920658112,0.8143541216850281,0.3430328071117401,0.5941982269287109,0.629771888256073,-0.7309291958808899,0.7232774496078491
<http://data.kasabi.com/dataset/italy/latina>,0.25288259983062744,0.21046499907970428,0.8153753876686096,0.07644851505756378,1.080523133277893,0.37792840600013733,0.8637595772743225,0.43205592036247253,-0.6430947780609131,0.6306519508361816
<http://data.kasabi.com/dataset/italy/savona>,0.5218105912208557,0.303564190864563,0.9513109922409058,-0.2890271842479706,1.0109546184539795,0.5335381031036377,0.7407267093658447,0.5882596373558044,-0.7704149484634399,0.5270698666572571
<http://data.kasabi.com/dataset/italy/prato>,0.5761083364486694,0.20023790001869202,0.7335744500160217,-0.25959673523902893,1.1251599788665771,0.285667359828949,0.8024672865867615,0.6235634684562683,-0.997204601764679,0.7146703004837036
<http://data.kasabi.com/dataset/italy/biella>,0.45824113488197327,0.23024201393127441,0.7356839179992676,-0.16127267479896545,0.7521842122077942,0.1106080710887909,0.5201210975646973,0.45228543877601624,-0.6278145909309387,0.5803890824317932
<http://www.geonames.org/ontology#Feature>,0.6468836665153503,-0.7639557123184204,-0.20923689007759094,-0.1806134730577469,0.11227650195360184,0.4429856240749359,1.477134346961975,0.6400781869888306,-1.0449544191360474,1.2732032537460327
<http://data.kasabi.com/dataset/italy/lucca>,0.2918330132961273,0.22416801750659943,0.8020485043525696,-0.029273808002471924,1.103991985321045,0.3928663730621338,0.7603011131286621,0.5505062341690063,-0.7477600574493408,0.8769930005073547
<http://data.kasabi.com/dataset/cheese/formai-de-mut-dellalta-valle-brembana>,-0.1411200761795044,0.18373049795627594,0.24665100872516632,-0.6244412064552307,1.3420418500900269,0.8198673129081726,0.28407615423202515,0.6853922605514526,-0.5612038969993591,-0.009987130761146545
<http://data.kasabi.com/dataset/italy/laquila>,0.3720206022262573,0.25609922409057617,0.9168061017990112,-0.035230204463005066,1.0532933473587036,0.22364145517349243,0.6459509134292603,0.6251853704452515,-0.9461430311203003,0.7060329914093018
<http://data.kasabi.com/dataset/italy/nuoro>,0.24557457864284515,0.11766054481267929,0.6886083483695984,-0.24578356742858887,0.7508718967437744,0.4733656346797943,0.7495054006576538,0.6882240772247314,-0.6665478348731995,0.9040549397468567
<http://data.kasabi.com/dataset/italy/bologna>,0.22075143456459045,0.17460913956165314,0.680956244468689,-0.1739184558391571,0.6319108009338379,0.1431674063205719,0.6826421022415161,0.5369629263877869,-0.6490867733955383,0.609857439994812
<http://data.kasabi.com/dataset/italy/taranto>,0.27840089797973633,0.27653980255126953,0.792231559753418,-0.2753254771232605,1.15306556224823,0.516086220741272,0.7730298638343811,0.804957389831543,-1.062280535697937,0.6153569221496582
<http://data.kasabi.com/dataset/italy/lodi>,0.10325362533330917,0.22478140890598297,0.6394832134246826,-0.17942413687705994,0.9921106100082397,0.2953091859817505,0.83439701795578,0.6086581349372864,-0.8144291043281555,0.7237704992294312
<http://data.kasabi.com/dataset/italy/torino>,0.3182985186576843,0.3386136591434479,0.7740669250488281,-0.19357351958751678,1.2139711380004883,0.43339237570762634,0.8477285504341125,0.5788054466247559,-0.8100825548171997,0.8158108592033386
<http://data.kasabi.com/dataset/italy/bari>,0.2696405351161957,0.17051075398921967,0.9364853501319885,-0.14867888391017914,1.0396578311920166,0.24959316849708557,0.7588831782341003,0.5794336795806885,-0.6137810945510864,0.6885178089141846
<http://data.kasabi.com/dataset/italy/pavia>,0.2721746861934662,0.3344101011753082,0.863332211971283,-0.1259208470582962,1.0310463905334473,0.4695838987827301,0.8480665683746338,0.8709225058555603,-0.7206138372421265,0.929215133190155
<http://data.kasabi.com/dataset/italy/reggio-calabria>,0.5810285210609436,0.3109176754951477,0.8779121041297913,-0.013110073283314705,1.1461960077285767,0.5356919765472412,0.6960174441337585,0.3457387685775757,-0.963508129119873,0.7113586068153381
<http://data.kasabi.com/dataset/italy/olbia-tempio>,0.3171830177307129,0.1583842784166336,0.859631359577179,-0.15947452187538147,1.1743093729019165,0.41821280121803284,0.7908093333244324,0.5283995270729065,-0.8215624690055847,0.5260360836982727
<http://data.kasabi.com/dataset/italy/firenze>,0.4671458601951599,0.22837406396865845,0.592474639415741,-0.1281602382659912,1.041092872619629,0.2649401128292084,0.6055040955543518,0.5611763596534729,-0.6918128132820129,0.781666100025177
<http://data.kasabi.com/dataset/italy/imperia>,0.38927286863327026,0.10297569632530212,0.7532289028167725,-0.09522072970867157,1.1093530654907227,0.2030184417963028,0.8616622090339661,0.29038888216018677,-0.7712028622627258,0.3778236210346222
<http://data.kasabi.com/dataset/italy/varese>,0.3366980254650116,0.3446613550186157,0.7235686779022217,-0.33775004744529724,1.0130982398986816,0.458549827337265,0.4968675374984741,0.7580131888389587,-0.7328386306762695,0.770581066608429
<http://data.kasabi.com/dataset/cheese/schema/milkSource>,-0.2997981309890747,0.5540624260902405,0.09668350964784622,-0.7293206453323364,0.9814345836639404,1.0146162509918213,0.6400418877601624,0.5156827569007874,-0.8688242435455322,0.030009090900421143
<http://data.kasabi.com/dataset/italy/asti>,0.18382081389427185,0.24656954407691956,0.7701016664505005,0.01658501848578453,0.8774088025093079,0.34233447909355164,0.6377377510070801,0.6097840070724487,-0.7200080752372742,0.8356132507324219
<http://ec.europa.eu/eurostat/ramon/rdfdata/nuts2008/IT>,0.36705195903778076,0.027672259137034416,-0.2713107764720917,-1.2697421312332153,0.6280395984649658,-0.2532365322113037,0.40760964155197144,-0.4253436028957367,-1.1468132734298706,-0.4185197055339813
<http://www.geonames.org/ontology#A.ADM2>,0.5464190244674683,0.0489702932536602,1.479235053062439,-0.1697259098291397,1.5192961692810059,-0.09002280235290527,1.1375486850738525,0.25877100229263306,-1.014629602432251,0.9282592535018921
<http://data.kasabi.com/dataset/italy/vercelli>,0.188177227973938,0.23605884611606598,0.7146990895271301,-0.1612439751625061,1.1303834915161133,0.3435715138912201,0.5787917375564575,0.6064850091934204,-0.9077715873718262,0.6578641533851624
<http://data.kasabi.com/dataset/cheese/gioddu>,-0.06143680214881897,0.09615722298622131,0.7580515742301941,-0.6809105277061462,1.3226250410079956,0.6694351434707642,0.328728049993515,0.5718404650688171,-0.963314414024353,-0.08215583115816116
<http://data.kasabi.com/dataset/italy/pesaro-e-urbino>,0.27237483859062195,0.12480366230010986,0.6633540987968445,-0.24787162244319916,1.1695588827133179,0.35524678230285645,0.5601316094398499,0.5631118416786194,-0.8657751083374023,0.6620534062385559
<http://data.kasabi.com/dataset/italy/parma>,0.4782804846763611,0.32939741015434265,0.8757478594779968,-0.05157919600605965,0.9396721720695496,0.44902125000953674,0.8506546020507812,0.7511369585990906,-0.9042791724205017,0.8473093509674072
<http://data.kasabi.com/dataset/italy/milano>,0.06499982625246048,0.13824543356895447,0.8301801085472107,-0.20640642940998077,0.965187132358551,0.3257443904876709,0.5603941082954407,0.877616286277771,-0.8275555372238159,0.8543387651443481
<http://data.kasabi.com/dataset/cheese/bra-duro>,-0.19882939755916595,0.13728328049182892,0.25933459401130676,-0.3707529306411743,1.1259392499923706,0.780958890914917,0.33097320795059204,0.5185023546218872,-0.7224937081336975,0.17370422184467316
<http://data.kasabi.com/dataset/italy/como>,0.20410065352916718,0.3142129182815552,0.8014732003211975,-0.05209081992506981,0.781494140625,0.31564778089523315,0.735442578792572,0.5453786253929138,-0.6132515072822571,0.664023756980896
<http://data.kasabi.com/dataset/cheese/bra>,-0.08671431243419647,0.046106912195682526,0.35952070355415344,-0.5779821872711182,1.0788370370864868,0.8617738485336304,0.1354699283838272,0.6515586972236633,-0.5789578557014465,0.09542331099510193
<http://data.kasabi.com/dataset/italy/fermo>,0.5125119686126709,0.4400256276130676,1.1292328834533691,0.21964773535728455,1.17034912109375,0.5383278727531433,0.8122646808624268,0.6146959662437439,-0.8268184065818787,0.6992515325546265
<http://data.kasabi.com/dataset/italy/PaoloCastagna>,-0.13060542941093445,-0.47428977489471436,-0.21369396150112152,-1.2926818132400513,2.1201207637786865,0.35739967226982117,1.152023196220398,0.8162278532981873,-1.1905736923217773,0.645430862903595
<http://data.kasabi.com/dataset/italy/novara>,0.20573624968528748,0.24764986336231232,0.5900102853775024,-0.20428724586963654,0.8929025530815125,0.5184531807899475,0.6209945678710938,0.5879303812980652,-0.8170060515403748,0.653577983379364
<http://rdfs.org/ns/void#feature>,-0.7986801266670227,-0.6664344072341919,-0.3359336853027344,-1.4626725912094116,1.2893638610839844,0.0759187787771225,0.7303277850151062,1.090253233909607,-1.2315279245376587,0.5008735656738281
<http://data.kasabi.com/dataset/italy/reggio-emilia>,0.2696593701839447,0.16795510053634644,0.7615308165550232,-0.3362146317958832,1.1308718919754028,0.30494797229766846,0.7496932148933411,0.6767048835754395,-0.9136125445365906,0.7959118485450745
<http://data.kasabi.com/dataset/italy/alessandria>,0.31480076909065247,0.34494414925575256,0.8047935962677002,0.10866249352693558,0.9354794025421143,0.19492827355861664,0.6306285858154297,0.7692258358001709,-0.6169013977050781,0.7792559862136841
<http://data.kasabi.com/dataset/italy/genova>,0.5450109839439392,0.129360169172287,0.8005657196044922,-0.27613040804862976,1.0066938400268555,0.19787101447582245,0.8313411474227905,0.4817117750644684,-0.770165741443634,0.5654734969139099
<http://data.kasabi.com/dataset/italy/messina>,0.40565893054008484,0.34076690673828125,0.7297043204307556,-0.22408342361450195,1.2313728332519531,0.3672715425491333,0.7392483949661255,0.35144463181495667,-0.7331398725509644,0.6014782190322876
<http://data.kasabi.com/dataset/cheese/peretta>,0.06750638037919998,-0.017156073823571205,0.3962084650993347,-0.5185551047325134,1.3917045593261719,0.7621552348136902,0.4245477616786957,0.586418867111206,-0.7940834164619446,0.2503034174442291
<http://data.kasabi.com/dataset/cheese/semicotto-caprino>,-0.1344873011112213,0.29178422689437866,0.4313431978225708,-0.5240681171417236,1.4119353294372559,0.7615945339202881,0.20367920398712158,0.6398036479949951,-0.8467547297477722,0.1232524961233139
<http://data.kasabi.com/dataset/italy/brindisi>,0.4184109568595886,0.18916253745555878,0.7030528783798218,-0.11044199764728546,0.8178526163101196,0.15391981601715088,0.6304571032524109,0.6138170957565308,-0.5218261480331421,0.48099061846733093
<http://data.kasabi.com/dataset/italy/pisa>,0.260390967130661,0.16470514237880707,0.6809238195419312,-0.25627654790878296,1.086729645729065,0.4360066056251526,0.5779535174369812,0.6294279098510742,-0.8287811279296875,0.8074222207069397
<http://data.kasabi.com/dataset/italy/rovigo>,0.28100910782814026,0.0537448450922966,0.8484178781509399,-0.2259494662284851,1.138388752937317,0.4812789261341095,0.8259869813919067,0.631770133972168,-0.8813467025756836,0.8569093346595764
<http://data.kasabi.com/dataset/italy/arezzo>,0.2971727252006531,0.08437148481607437,0.7812116146087646,-0.06466507911682129,0.8094632625579834,0.2754804491996765,0.5152804851531982,0.5583010911941528,-0.6863645315170288,0.7200515270233154
<http://data.kasabi.com/dataset/italy/ferrara>,0.3380107581615448,0.2850291132926941,0.8541601896286011,-0.09700056910514832,0.9233000874519348,0.25190648436546326,0.583969235420227,0.4710110127925873,-0.8029351830482483,0.5509669780731201
<http://purl.org/dc/terms/subject>,-1.3079320192337036,-0.5286689400672913,-0.0890219584107399,-1.4555960893630981,1.9081597328186035,-0.24461615085601807,0.7732486724853516,1.544543981552124,-0.9124171137809753,0.20886442065238953
<http://data.kasabi.com/dataset/italy/trapani>,0.2991434931755066,0.22622281312942505,0.7806903123855591,-0.2293413281440735,1.0977702140808105,0.4905933439731598,0.7227080464363098,0.5885969996452332,-0.9471531510353088,0.5016943216323853
<http://data.kasabi.com/dataset/italy/monza-e-brianza>,0.5274467468261719,0.40223997831344604,0.965207576751709,-0.010982240550220013,1.2900383472442627,0.704289436340332,0.9417450428009033,0.47500675916671753,-0.7823919057846069,0.735601544380188
<http://data.kasabi.com/dataset/cheese/casu-axedu>,-0.08948390185832977,0.13320979475975037,0.49786093831062317,-0.48998281359672546,1.2417420148849487,1.012551188468933,0.40925759077072144,0.5406181216239929,-0.6643057465553284,0.05600288137793541
<http://data.kasabi.com/dataset/italy/macerata>,0.4589361548423767,0.22531013190746307,0.9038159251213074,-0.04629062861204147,1.1495797634124756,0.3058564066886902,0.760597288608551,0.611367404460907,-0.8205692172050476,0.7367575168609619
<http://data.kasabi.com/dataset/italy/barletta-andria-trani>,0.5499644875526428,0.44701749086380005,1.1054221391677856,-0.053858138620853424,0.9885208010673523,0.4866921901702881,0.805262565612793,0.4112809896469116,-0.6912757754325867,0.5371503233909607
<http://data.kasabi.com/dataset/italy/la-spezia>,0.2992134392261505,0.3859277665615082,0.8423416614532471,-0.2496478408575058,1.0661287307739258,0.3770914375782013,0.630351722240448,0.3464915454387665,-0.7516530156135559,0.5892078280448914
<http://data.kasabi.com/dataset/italy/vicenza>,0.04224260896444321,0.16011978685855865,0.5573559403419495,-0.21466486155986786,0.9465269446372986,0.3546411693096161,0.6287174820899963,0.6781548261642456,-0.8314842581748962,0.839581310749054
<http://data.kasabi.com/dataset/cheese/torta>,0.15344905853271484,0.031136993318796158,0.31489816308021545,-0.6137843132019043,1.3198591470718384,0.5653893947601318,0.29368630051612854,0.4947352707386017,-0.6695917844772339,0.3829294741153717
<http://ec.europa.eu/eurostat/ramon/rdfdata/nuts2008/ITF>,0.3600647747516632,-0.02930012345314026,0.04351107031106949,-1.1241103410720825,0.9585594534873962,-0.27438291907310486,0.3951748311519623,-0.21473011374473572,-1.335400104522705,-0.02110867202281952
<http://data.kasabi.com/dataset/italy/ancona>,0.2945406436920166,0.12430769950151443,0.5831813812255859,-0.025816263630986214,0.870712399482727,0.3252997100353241,0.69878751039505,0.5467720627784729,-0.6993257999420166,0.5864786505699158
<http://data.kasabi.com/dataset/italy/massa-carrara>,0.3035619258880615,0.2933869957923889,0.6269561648368835,-0.31638848781585693,0.973415195941925,0.2784973978996277,0.5388465523719788,0.40062007308006287,-0.698013424873352,0.7449350953102112
<http://data.kasabi.com/dataset/italy/pistoia>,0.31066450476646423,0.11473207920789719,0.768916666507721,-0.1697615534067154,1.112381100654602,0.36444467306137085,0.5651318430900574,0.4677911102771759,-0.8777292370796204,0.6915741562843323
<http://data.kasabi.com/dataset/italy/modena>,0.24326129257678986,0.1869441419839859,0.7959789037704468,-0.18937672674655914,1.1225301027297974,0.3104892671108246,0.7372778654098511,0.35732704401016235,-0.9612564444541931,0.49254512786865234
<http://data.kasabi.com/dataset/cheese/piave>,0.06761224567890167,0.06990973651409149,0.2638193666934967,-0.47225916385650635,1.295851707458496,0.5998902320861816,0.3717830777168274,0.6994338035583496,-0.7463219165802002,0.2990055978298187
<http://data.kasabi.com/dataset/italy/italy>,-0.04559748247265816,-0.4975094497203827,-1.3399604558944702,-0.8154968619346619,1.001652479171753,0.6301127672195435,-0.49688780307769775,0.3037473261356354,-0.4495604634284973,0.9501550793647766
<http://data.kasabi.com/dataset/italy/agrigento>,0.20700059831142426,0.13116072118282318,0.813473641872406,-0.03204835578799248,0.8029177784919739,0.23071099817752838,0.4480430781841278,0.625522792339325,-0.7076213359832764,0.5447819232940674
<http://data.kasabi.com/dataset/italy/matera>,0.2745895981788635,0.15403500199317932,0.6569375395774841,-0.06364993005990982,0.9450538754463196,0.3192056119441986,0.8461291193962097,0.7435365915298462,-0.6472200751304626,0.7256022095680237
<http://data.kasabi.com/dataset/italy/sondrio>,0.23449984192848206,0.09668007493019104,0.6709392666816711,-0.19839715957641602,1.0352054834365845,0.39692190289497375,0.6337376832962036,0.6390194892883301,-0.8636006116867065,0.7644707560539246
<http://data.kasabi.com/dataset/cheese/scamorza>,0.11921509355306625,0.2820624113082886,0.1767999231815338,-0.7615431547164917,1.2003724575042725,0.47636061906814575,0.40783894062042236,0.5964900255203247,-0.7729656100273132,0.2987067699432373
<http://purl.org/dc/terms/contributor>,-0.635443389415741,-0.23870530724525452,-0.3109930157661438,-1.0142980813980103,1.721101999282837,0.6155889630317688,0.8201315402984619,1.3213804960250854,-1.1335861682891846,0.4546566903591156
<http://ec.europa.eu/eurostat/ramon/rdfdata/nuts2008/ITD>,0.23629429936408997,0.16750666499137878,-0.09241725504398346,-1.0552775859832764,0.8009337186813354,-0.21365539729595184,0.2698780596256256,-0.44235512614250183,-1.2502626180648804,-0.13152776658535004
<http://data.kasabi.com/dataset/cheese/stracchino>,0.052638810127973557,0.1480758935213089,0.42065465450286865,-0.39645999670028687,1.2702348232269287,0.6287258863449097,0.5393499135971069,0.6252584457397461,-0.7988656759262085,0.22982856631278992
<http://www.geonames.org/ontology#A>,0.35795462131500244,-0.21470323204994202,1.333850383758545,-0.5438041687011719,1.5391088724136353,-0.10599827021360397,0.9915427565574646,0.3514288365840912,-0.5061936378479004,0.6299798488616943
<http://ec.europa.eu/eurostat/ramon/rdfdata/nuts2008/ITG>,0.3993510603904724,-0.027623794972896576,-0.1013285219669342,-1.127295732498169,0.8177134990692139,-0.14915819466114044,0.3248557150363922,-0.2968663275241852,-1.2794053554534912,-0.2350044697523117
<http://ec.europa.eu/eurostat/ramon/rdfdata/nuts2008/ITE>,0.31154927611351013,0.06258226186037064,-0.017091354355216026,-1.115889549255371,0.872363805770874,-0.2763327658176422,0.3721056282520294,-0.1664852499961853,-1.1426430940628052,0.01758483052253723
<http://data.kasabi.com/dataset/cheese/pecorino-di-picinisco>,-0.11641193181276321,0.0436888262629509,0.24188397824764252,-0.649195671081543,1.1399669647216797,0.6220213770866394,0.46377837657928467,0.5013957023620605,-0.781644880771637,0.2142615020275116
<http://data.kasabi.com/dataset/cheese/ricotta-romana>,0.09485185146331787,0.1813991665840149,0.3718966841697693,-0.4745733141899109,1.121808648109436,0.5422564744949341,0.4515921473503113,0.32960259914398193,-0.8714540600776672,0.3789982795715332
<http://data.kasabi.com/dataset/cheese/hessischer-handkase>,0.17237575352191925,0.06027369201183319,0.2481413632631302,-0.7704873085021973,1.176154613494873,0.5638386011123657,0.12099430710077286,0.5205298066139221,-0.6500070691108704,0.1003512591123581
<http://data.kasabi.com/dataset/cheese/xygalo-siteias>,0.05294002965092659,0.09270644932985306,0.2932493984699249,-0.7709421515464783,1.3495835065841675,0.5895633101463318,0.12196455150842667,0.567137598991394,-0.6392609477043152,0.1923864483833313
<http://data.kasabi.com/dataset/cheese/salva-cremasco>,0.015452184714376926,0.0732477530837059,0.3010190427303314,-0.4120525121688843,1.0377569198608398,0.47467175126075745,0.46773383021354675,0.5294671058654785,-0.5807015895843506,0.3179871141910553
<http://data.kasabi.com/dataset/cheese/brocciu-corse>,-0.0012455395190045238,0.15585407614707947,0.23844444751739502,-0.49787575006484985,1.1055980920791626,0.5224151015281677,0.0025165448896586895,0.30061036348342896,-0.6023479700088501,0.04819047823548317
<http://ec.europa.eu/eurostat/ramon/rdfdata/nuts2008/ITE2>,0.17551064491271973,-0.13191741704940796,0.03355516120791435,-1.2396607398986816,1.0122414827346802,-0.12055189907550812,0.2549574673175812,-0.3587041199207306,-1.1869261264801025,-0.05247924104332924
<http://ec.europa.eu/eurostat/ramon/rdfdata/nuts2008/ITC>,0.24399730563163757,-0.029233163222670555,0.023478612303733826,-1.121901273727417,0.8877328038215637,-0.14493542909622192,0.32567012310028076,-0.26821863651275635,-1.113161563873291,0.0018332399195060134
<http://data.kasabi.com/dataset/cheese/tiroler-almkase>,0.03864278644323349,0.15055961906909943,0.1861327886581421,-0.8698883056640625,1.3708863258361816,0.5649799704551697,0.0409550666809082,0.5755056142807007,-0.6678870320320129,0.337104856967926
<http://data.kasabi.com/dataset/cheese/reblochon>,0.026480477303266525,0.25232598185539246,0.28460320830345154,-0.7780218124389648,1.1383652687072754,0.6785882711410522,0.2790045440196991,0.37749695777893066,-0.6943429708480835,0.2270367294549942
<http://data.kasabi.com/dataset/cheese/squacquerone-di-romagna>,0.14650650322437286,0.0036122933961451054,0.4593546688556671,-0.395883709192276,1.1176704168319702,0.5648276209831238,0.30053406953811646,0.5166069269180298,-0.639599084854126,0.28756770491600037
<http://ec.europa.eu/eurostat/ramon/rdfdata/nuts2008/ITF2>,0.2988322675228119,0.18924158811569214,0.047507185488939285,-1.2036662101745605,0.8662633299827576,0.012897489592432976,0.21338123083114624,-0.07334728538990021,-1.1094435453414917,0.006725264247506857
<http://ec.europa.eu/eurostat/ramon/rdfdata/nuts2008/ITZ>,0.2665780186653137,0.08096069097518921,-0.1108490601181984,-0.9951732754707336,0.9748287200927734,-0.19352294504642487,0.28569069504737854,-0.26410144567489624,-1.0120874643325806,0.12144408375024796
<http://data.kasabi.com/dataset/cheese/pont-leveque>,-0.040533725172281265,0.21260975301265717,0.18037590384483337,-0.6640994548797607,1.3522412776947021,0.6197929978370667,0.19563379883766174,0.4117891192436218,-0.5409567356109619,0.3363111913204193
<http://data.kasabi.com/dataset/cheese/crottin-de-chavignol>,0.14937995374202728,0.09831534326076508,0.20289194583892822,-0.855647623538971,1.1157599687576294,0.59071946144104,0.13560757040977478,0.32568833231925964,-0.5110366940498352,0.29624179005622864
<http://data.kasabi.com/dataset/cheese/callu-de-cabreddu>,0.1119726374745369,0.18741805851459503,0.18962301313877106,-0.6589975357055664,1.1265722513198853,0.4544295072555542,0.11560364067554474,0.5014298558235168,-0.6247355341911316,-0.033572591841220856
<http://ec.europa.eu/eurostat/ramon/rdfdata/nuts2008/ITF5>,0.30675390362739563,-0.09630917757749557,-0.1775476634502411,-1.150197982788086,1.0308598279953003,-0.18266591429710388,0.3324924111366272,-0.08418165892362595,-1.1480553150177002,-0.1618165820837021
<http://data.kasabi.com/dataset/cheese/mont-dor>,0.21463793516159058,0.27071547508239746,0.1047225371003151,-0.7374545335769653,1.2427177429199219,0.6390083432197571,0.22679923474788666,0.28965795040130615,-0.5792794823646545,0.04859643429517746
<http://data.kasabi.com/dataset/cheese/bleu-de-gex-haut-jura>,-0.058595217764377594,0.13743719458580017,0.3089119493961334,-0.7490777969360352,1.1119364500045776,0.47063541412353516,0.25808659195899963,0.472045361995697,-0.5193490982055664,0.2373722344636917
<http://data.kasabi.com/dataset/cheese/maroilles>,0.008458673022687435,-0.008664648979902267,0.3787345886230469,-0.8478809595108032,1.3313684463500977,0.5184360146522522,0.11028054356575012,0.35717400908470154,-0.6140572428703308,0.18842297792434692
<http://data.kasabi.com/dataset/cheese/pressato>,0.14237160980701447,-0.0469350703060627,0.1939019113779068,-0.5291503667831421,1.177932620048523,0.40001121163368225,0.4863479733467102,0.405305951833725,-0.6726468801498413,0.430397629737854
<http://data.kasabi.com/dataset/cheese/schema/Province>,0.4733200967311859,-0.7492550611495972,-0.3334956765174866,-0.2745169997215271,0.2669273316860199,0.34208551049232483,1.1221331357955933,0.49870485067367554,-1.0095771551132202,1.243257999420166
<http://data.kasabi.com/dataset/cheese/piacentinu-ennese>,-0.0019048823742195964,0.1299583613872528,0.29335829615592957,-0.4943377673625946,0.9820019006729126,0.6036933064460754,0.4445454180240631,0.5693061351776123,-0.768779993057251,0.4000539481639862
<http://data.kasabi.com/dataset/cheese/pecorino-di-filiano>,0.19162818789482117,0.10253757983446121,0.49761030077934265,-0.5941805839538574,1.1708810329437256,0.48668166995048523,0.32451796531677246,0.4554066061973572,-0.8062610626220703,0.11921051144599915
<http://ec.europa.eu/eurostat/ramon/rdfdata/nuts2008/ITD1>,0.25238296389579773,0.05605198070406914,-0.127447709441185,-0.8512037396430969,0.951140820980072,-0.05395599827170372,0.29082179069519043,-0.1825324147939682,-0.9785268306732178,0.04182734340429306
<http://data.kasabi.com/dataset/cheese/provolone>,0.01361070666462183,0.12552060186862946,0.3422286808490753,-0.6974526047706604,1.193440318107605,0.5854552388191223,0.47829192876815796,0.4651049077510834,-0.5727778077125549,0.1470309942960739
<http://ec.europa.eu/eurostat/ramon/rdfdata/nuts2008/ITD2>,0.20465795695781708,-0.038812339305877686,-0.24373987317085266,-1.040248155593872,0.801972508430481,-0.10188906639814377,0.3588919937610626,-0.06498055160045624,-1.1294392347335815,-0.11317761987447739
<http://data.kasabi.com/dataset/cheese/caciocavallo-ragusano>,-0.00933647621423006,0.225833922624588,0.02248535118997097,-0.4636891782283783,1.0185586214065552,0.5346073508262634,0.2521649897098541,0.2735237181186676,-0.5789353251457214,0.3077302873134613
<http://ec.europa.eu/eurostat/ramon/rdfdata/nuts2008/ITZZ>,0.09102442860603333,0.016910754144191742,-0.08506568521261215,-0.9201558232307434,0.8272697925567627,-0.07069429755210876,0.3876536190509796,-0.2587231695652008,-0.9707397818565369,0.04709489643573761
<http://data.kasabi.com/dataset/cheese/nostrano-valtrompia>,-0.009409925900399685,0.09547441452741623,0.12556317448616028,-0.7706198692321777,1.0891897678375244,0.8151589035987854,0.23063386976718903,0.5066514015197754,-0.610761821269989,0.03346836566925049
<http://data.kasabi.com/dataset/europe/spain>,0.04323594644665718,-0.4362529516220093,-0.9489096403121948,-0.7772631645202637,1.026981234550476,0.5589036345481873,-0.38966473937034607,0.32623204588890076,-0.6556294560432434,0.781550407409668
<http://data.kasabi.com/dataset/italy/etags>,-0.3462037146091461,-0.302932471036911,-0.4690697193145752,-1.2905861139297485,0.8855136036872864,0.2572973668575287,0.44788646697998047,0.5200101137161255,-0.9730322957038879,0.5242666006088257
<http://ec.europa.eu/eurostat/ramon/rdfdata/nuts2008/ITF12>,0.06652920693159103,0.06128106638789177,-0.009587575681507587,-0.6891736388206482,0.9446076154708862,0.10063009709119797,0.31991755962371826,-0.15871460735797882,-0.85553377866745,0.19090580940246582
<http://data.kasabi.com/dataset/europe/united-kingdom>,0.17913012206554413,-0.37002962827682495,-0.8446448445320129,-0.8356241583824158,1.2039680480957031,0.5342569351196289,-0.31954315304756165,0.32437407970428467,-0.5014849305152893,0.6740734577178955
<http://ec.europa.eu/eurostat/ramon/rdfdata/nuts2008/ITE31>,0.3214591443538666,-0.003589354455471039,0.20193804800510406,-0.8380157351493835,0.9107409715652466,-0.03054823726415634,0.3792664408683777,-0.14897003769874573,-0.7850978970527649,0.14493198692798615
<http://ec.europa.eu/eurostat/ramon/rdfdata/nuts2008/ITC13>,0.05995156243443489,0.009651590138673782,0.19533786177635193,-0.794107973575592,0.6651201844215393,-0.043418217450380325,0.2698541283607483,-0.26215648651123047,-0.757800281047821,0.0263548344373703
<http://data.kasabi.com/dataset/europe/greece>,0.13335192203521729,-0.4184236228466034,-0.8606113195419312,-0.8854753375053406,0.9887210130691528,0.5451847314834595,-0.3886795938014984,0.40773460268974304,-0.5529559254646301,0.7590710520744324
<http://ec.europa.eu/eurostat/ramon/rdfdata/nuts2008/ITE33>,0.24742083251476288,0.00421614944934845,0.17656883597373962,-0.75826495885849,0.9989323616027832,-0.1234491616487503,0.3554946184158325,-0.03111848793923855,-1.0688878297805786,0.1734468936920166
<http://ec.europa.eu/eurostat/ramon/rdfdata/nuts2008/ITC33>,0.23812244832515717,0.16738487780094147,-0.016634376719594002,-0.7584559917449951,0.8541166186332703,-0.09837659448385239,0.4058113992214203,-0.21234022080898285,-0.8785347938537598,0.06967466324567795
<http://data.kasabi.com/dataset/cheese/fromage-de-herve>,-0.05366300418972969,0.026039456948637962,0.10505496710538864,-0.789776086807251,1.0420960187911987,0.635052502155304,0.04450339823961258,0.27439096570014954,-0.6022018790245056,0.3299656808376312
<http://ec.europa.eu/eurostat/ramon/rdfdata/nuts2008/ITF52>,0.21887250244617462,0.09186623245477676,0.12523970007896423,-0.9413397312164307,0.9620160460472107,0.1683150678873062,0.338031530380249,-0.10064579546451569,-0.9089669585227966,0.09758821874856949
<http://data.kasabi.com/dataset/cheese/schema/milkType>,-0.1868002712726593,0.0373469777405262,0.1478428840637207,-0.7078378796577454,1.3004798889160156,0.7294163703918457,0.5272417068481445,0.28498145937919617,-0.4669184684753418,0.05125165358185768
<http://ec.europa.eu/eurostat/ramon/rdfdata/nuts2008/ITC42>,0.1444561928510666,0.13147063553333282,0.07837504893541336,-0.8175458908081055,0.7428639531135559,0.08134420216083527,0.30053117871284485,-0.08756514638662338,-0.9949713349342346,0.08232343941926956
<http://data.kasabi.com/dataset/cheese/schema/texture>,0.102193184196949,0.20037993788719177,0.2889387309551239,-0.6401282548904419,1.1745152473449707,0.8382515907287598,0.435917466878891,0.23185153305530548,-0.7680118680000305,0.36498022079467773
<http://ec.europa.eu/eurostat/ramon/rdfdata/nuts2008/ITE22>,0.13661408424377441,0.11216820031404495,-0.04473663121461868,-0.7351537346839905,0.9439308643341064,-0.010185628198087215,0.3382859230041504,-0.06596286594867706,-0.9282149076461792,0.17436513304710388
<http://ec.europa.eu/eurostat/ramon/rdfdata/nuts2008/ITG13>,0.16505354642868042,0.10047879815101624,0.14337646961212158,-0.8362089991569519,1.0026564598083496,0.23111703991889954,0.3122877776622772,-0.0713215321302414,-0.9750931262969971,0.22679951786994934
<http://ec.europa.eu/eurostat/ramon/rdfdata/nuts2008/ITC2>,0.23679344356060028,0.015070284716784954,0.1260487288236618,-0.7833859920501709,0.7216908931732178,-0.12312092632055283,0.32395318150520325,-0.15794309973716736,-0.9665825366973877,-0.08046398311853409
<http://ec.europa.eu/eurostat/ramon/rdfdata/nuts2008/ITF33>,0.24536313116550446,0.21232260763645172,0.093630850315094,-0.8212147951126099,0.944879412651062,0.01467654574662447,0.3565201163291931,0.01811772771179676,-0.9731283187866211,0.2266547977924347
<http://ec.europa.eu/eurostat/ramon/rdfdata/nuts2008/ITF43>,0.1986299604177475,0.14041556417942047,0.05189250409603119,-0.8483952283859253,0.8458091616630554,0.004236194770783186,0.37171387672424316,0.006463225465267897,-0.9080999493598938,0.13959169387817383
<http://ec.europa.eu/eurostat/ramon/rdfdata/nuts2008/ITE41>,0.27047988772392273,0.15929105877876282,0.18063558638095856,-0.6682034134864807,0.9910885691642761,-0.07648838311433792,0.28977033495903015,-0.049155738204717636,-0.8369709253311157,0.12675069272518158
<http://ec.europa.eu/eurostat/ramon/rdfdata/nuts2008/ITE15>,0.06576284766197205,0.13658085465431213,0.047425948083400726,-0.7688174247741699,0.9496772289276123,0.02486013062298298,0.370177298784256,-0.12424533814191818,-0.768310010433197,0.1242455542087555
<http://ec.europa.eu/eurostat/ramon/rdfdata/nuts2008/ITF45>,0.2520718276500702,0.19069960713386536,0.026348818093538284,-0.7596905827522278,0.9975153207778931,0.10880216956138611,0.37575793266296387,0.08006463944911957,-0.8959195613861084,0.11305155605077744
<http://ec.europa.eu/eurostat/ramon/rdfdata/nuts2008/ITF65>,0.07371429353952408,0.20635353028774261,0.049531951546669006,-0.8404325246810913,0.9378692507743835,0.203868106007576,0.42814338207244873,-0.06504247337579727,-0.9707881808280945,0.16249771416187286
<http://ec.europa.eu/eurostat/ramon/rdfdata/nuts2008/ITG14>,0.10348781198263168,0.07056478410959244,0.07103326916694641,-0.7332379221916199,0.847111165523529,0.15955126285552979,0.39077380299568176,-0.18494956195354462,-0.9499924182891846,0.2139652520418167
<http://ec.europa.eu/eurostat/ramon/rdfdata/nuts2008/ITD52>,0.08812718838453293,0.07070770859718323,-0.089129239320755,-0.7226915955543518,0.9488067626953125,0.06970559805631638,0.341488242149353,-0.09599880874156952,-0.8408243060112,0.3350623548030853
<http://data.kasabi.com/dataset/cheese/boulette-de-nivelles>,0.04423224925994873,0.06577172875404358,0.09957603365182877,-0.6440296769142151,0.9586523175239563,0.5629002451896667,0.21013695001602173,0.45236268639564514,-0.6607120633125305,0.144358292222023
<http://ec.europa.eu/eurostat/ramon/rdfdata/nuts2008/ITF13>,0.235166534781456,0.17214836180210114,-0.0657343789935112,-0.7327445149421692,0.7814753651618958,0.1797858625650406,0.42959144711494446,-0.06895261257886887,-0.826092004776001,0.21363842487335205
<http://ec.europa.eu/eurostat/ramon/rdfdata/nuts2008/ITE16>,0.19535137712955475,0.0006672760937362909,0.033810678869485855,-0.8282740712165833,0.8543461561203003,0.07895620912313461,0.2688104808330536,-0.031162995845079422,-0.9417608976364136,0.08312776684761047
<http://ec.europa.eu/eurostat/ramon/rdfdata/nuts2008/ITD54>,0.15977662801742554,-0.02167275734245777,-0.07757812738418579,-0.749171793460846,0.8080459237098694,0.05520264059305191,0.412494957447052,-0.2118115872144699,-0.9748870134353638,0.06508901715278625
<http://ec.europa.eu/eurostat/ramon/rdfdata/nuts2008/ITD42>,0.05268625542521477,0.12337001413106918,0.18178310990333557,-0.8260290622711182,0.759770929813385,0.1452137529850006,0.3918079733848572,0.00069463811814785,-1.0163302421569824,0.18467506766319275
<http://ec.europa.eu/eurostat/ramon/rdfdata/nuts2008/ITC32>,0.03158752620220184,0.16931504011154175,0.1230774074792862,-0.7285546064376831,0.851635217666626,-0.09249183535575867,0.37202802300453186,-0.03518084064126015,-0.6925809979438782,0.15475454926490784
<http://ec.europa.eu/eurostat/ramon/rdfdata/nuts2008/ITF22>,0.1318640261888504,0.16267968714237213,0.05433054640889168,-0.7556138634681702,0.9570928812026978,0.0432584211230278,0.3607427477836609,0.03429051861166954,-0.736353874206543,0.04204290732741356
<http://ec.europa.eu/eurostat/ramon/rdfdata/nuts2008/ITG29>,0.09706732630729675,0.09395626187324524,0.03308922424912453,-0.7892376184463501,1.0220813751220703,0.0982666164636612,0.3105517029762268,0.08204957842826843,-0.9207243919372559,0.027282999828457832
<http://ec.europa.eu/eurostat/ramon/rdfdata/nuts2008/ITF64>,0.2938176095485687,0.07476429641246796,0.00842482503503561,-0.6201586723327637,0.9115839600563049,0.07375989109277725,0.4125590920448303,-0.06284575164318085,-0.7499971985816956,0.18920716643333435
<http://ec.europa.eu/eurostat/ramon/rdfdata/nuts2008/ITD43>,0.10150483250617981,0.03284068778157234,0.07874847948551178,-0.9156352877616882,0.9036442041397095,-0.06800045818090439,0.3271510601043701,-0.0481589138507843,-0.9302375316619873,0.13860489428043365
<http://ec.europa.eu/eurostat/ramon/rdfdata/nuts2008/ITF21>,0.058199696242809296,0.14113780856132507,0.09281305968761444,-0.7367947101593018,0.9591507315635681,0.09675652533769608,0.36880800127983093,-0.010482681915163994,-0.9036900997161865,0.06342880427837372
<http://ec.europa.eu/eurostat/ramon/rdfdata/nuts2008/ITF11>,0.21020221710205078,0.016862288117408752,0.162917822599411,-0.7523179054260254,0.8110133409500122,0.04004431888461113,0.4230385720729828,-0.027885591611266136,-0.8263201713562012,0.10760199278593063
<http://ec.europa.eu/eurostat/ramon/rdfdata/nuts2008/ITC34>,0.10668085515499115,0.10946811735630035,-0.04023437201976776,-0.7634212374687195,0.7739304304122925,0.06189520284533501,0.37291252613067627,-0.07334697246551514,-0.8097279667854309,0.06831831485033035
<http://ec.europa.eu/eurostat/ramon/rdfdata/nuts2008/ITC4A>,0.02262076921761036,0.1880464255809784,0.08305317908525467,-0.7390257716178894,0.7967944741249084,0.13087151944637299,0.17719680070877075,-0.18173915147781372,-0.8864213824272156,0.1758306473493576
<http://ec.europa.eu/eurostat/ramon/rdfdata/nuts2008/ITF34>,0.10191305726766586,0.10616270452737808,0.19432930648326874,-0.8600348830223083,0.7462074756622314,0.08524421602487564,0.266822874546051,-0.05790344998240471,-0.9543055295944214,0.15200653672218323
<http://ec.europa.eu/eurostat/ramon/rdfdata/nuts2008/ITG11>,0.10577703267335892,0.15510651469230652,0.02139405719935894,-0.730695366859436,1.095931887626648,0.08214938640594482,0.4591387212276459,-0.1359187513589859,-0.9689780473709106,0.16091981530189514
<http://ec.europa.eu/eurostat/ramon/rdfdata/nuts2008/ITD31>,0.15782347321510315,0.05516940355300903,0.04962418973445892,-0.7555807828903198,0.8454708456993103,0.08202003687620163,0.262707382440567,0.004073786549270153,-0.8972766995429993,0.12500031292438507
<http://ec.europa.eu/eurostat/ramon/rdfdata/nuts2008/ITD41>,0.1846652776002884,0.12275061011314392,0.1165415495634079,-0.7110804915428162,0.8157268762588501,0.14502882957458496,0.19078980386257172,-0.10228922218084335,-0.9927920699119568,0.10535670816898346
<http://ec.europa.eu/eurostat/ramon/rdfdata/nuts2008/ITF51>,0.08891108632087708,0.21099931001663208,0.15666602551937103,-0.8319514393806458,0.9382472038269043,0.13452406227588654,0.2477847933769226,-0.011385666206479073,-0.9315175414085388,0.23666022717952728
<http://ec.europa.eu/eurostat/ramon/rdfdata/nuts2008/ITC18>,0.1342698037624359,0.1084437146782875,-0.1151992604136467,-0.7476717829704285,0.7469096779823303,-0.08984173089265823,0.30782052874565125,-0.24147266149520874,-0.8735218048095703,-0.10343029350042343
<http://ec.europa.eu/eurostat/ramon/rdfdata/nuts2008/ITZZZ>,0.12758374214172363,0.0612587109208107,0.006739427335560322,-0.8067083954811096,0.8975712060928345,-0.00028000029851682484,0.3878993093967438,-0.007887423038482666,-0.9277321100234985,0.01231344137340784
<http://ec.europa.eu/eurostat/ramon/rdfdata/nuts2008/ITC31>,0.05044140666723251,0.0367417074739933,0.058076437562704086,-0.6238623261451721,0.8284547924995422,0.13890016078948975,0.37178871035575867,-0.1486636996269226,-0.790181040763855,0.1730707734823227
<http://ec.europa.eu/eurostat/ramon/rdfdata/nuts2008/ITE45>,0.13622988760471344,0.09263084083795547,0.009395265020430088,-0.703760027885437,0.83834308385849,-0.03046644665300846,0.2649265229701996,0.07836048305034637,-0.8510858416557312,0.17623375356197357
<http://ec.europa.eu/eurostat/ramon/rdfdata/nuts2008/ITG17>,0.26318684220314026,0.024460583925247192,0.1520865261554718,-0.6406951546669006,1.0382649898529053,0.15941013395786285,0.4612881541252136,-0.041827548295259476,-0.7658168077468872,0.24882806837558746
<http://ec.europa.eu/eurostat/ramon/rdfdata/nuts2008/ITE42>,0.15134191513061523,0.1589575707912445,0.09151887893676758,-0.7081809043884277,0.8898070454597473,0.013306928798556328,0.3211289942264557,-0.016544124111533165,-0.7873538136482239,0.046228259801864624
<http://data.kasabi.com/dataset/cheese/queso-de-murcia>,0.10201999545097351,0.07035361230373383,0.1979343295097351,-0.7411932349205017,1.0716774463653564,0.535912811756134,0.3126048445701599,0.24822942912578583,-0.5516844987869263,0.2613157331943512
<http://ec.europa.eu/eurostat/ramon/rdfdata/nuts2008/ITE14>,0.1988079994916916,0.12434763461351395,0.10913533717393875,-0.7500707507133484,0.7268710732460022,-0.014737537130713463,0.31172850728034973,0.010082034394145012,-0.8654573559761047,0.13786494731903076
<http://ec.europa.eu/eurostat/ramon/rdfdata/nuts2008/ITF31>,0.10615354031324387,0.118777796626091,0.08952628076076508,-0.7888116240501404,0.8652806282043457,-0.0019187270663678646,0.34005874395370483,0.03659787401556969,-0.8909639716148376,0.257340669631958
<http://ec.europa.eu/eurostat/ramon/rdfdata/nuts2008/ITE18>,0.15068301558494568,0.019755631685256958,-0.013508143834769726,-0.7478896379470825,0.7441765666007996,0.02273813635110855,0.35651615262031555,-0.002793294843286276,-0.7830973267555237,0.09709445387125015
<http://data.kasabi.com/dataset/cheese/giacobin-de-zena>,-0.023373130708932877,0.01516907662153244,0.26368746161460876,-0.7273774147033691,1.0133607387542725,0.4714292883872986,0.32592421770095825,0.2562867999076843,-0.568710446357727,0.23540818691253662
<http://data.kasabi.com/dataset/cheese/halloumi>,0.046978600323200226,-0.056002840399742126,-0.13425001502037048,-0.7416202425956726,1.0896389484405518,0.6002105474472046,-0.035271186381578445,0.2076062113046646,-0.6494417190551758,0.43008723855018616
<http://purl.org/dc/terms/source>,-0.7277864813804626,-0.18932364881038666,-0.08700190484523773,-1.2907662391662598,1.5935664176940918,0.16411535441875458,0.6505715847015381,1.0023590326309204,-1.0798436403274536,0.25733286142349243
<http://ec.europa.eu/eurostat/ramon/rdfdata/nuts2008/ITD59>,0.1802896112203598,-0.029076751321554184,-0.07828160375356674,-0.7345569133758545,0.8202718496322632,-0.08056319504976273,0.3875329792499542,-0.1730794906616211,-0.7653787732124329,0.20930299162864685
<http://ec.europa.eu/eurostat/ramon/rdfdata/nuts2008/ITE43>,0.22500492632389069,0.18763932585716248,0.1516827493906021,-0.7649582028388977,0.8387777805328369,0.09124104678630829,0.24854961037635803,-0.10883182287216187,-0.7996971607208252,0.0054498519748449326
<http://data.kasabi.com/dataset/cheese/torta-del-casar>,-0.033724091947078705,0.0971943736076355,0.22523264586925507,-0.5973398089408875,1.1220604181289673,0.570464015007019,0.2532542943954468,0.41980069875717163,-0.7381017208099365,0.21369215846061707
<http://data.kasabi.com/dataset/cheese/cebreiro>,-0.11705093085765839,0.08013097941875458,0.18305101990699768,-0.5560823082923889,0.9305322766304016,0.5271455645561218,0.31835460662841797,0.29443424940109253,-0.6307787299156189,0.18867425620555878
<http://ec.europa.eu/eurostat/ramon/rdfdata/nuts2008/ITD34>,0.10363401472568512,0.23195227980613708,0.14078086614608765,-0.6820175647735596,1.0680729150772095,0.003991154953837395,0.35592004656791687,-0.15030084550380707,-0.9929375052452087,0.0028112749569118023
<http://ec.europa.eu/eurostat/ramon/rdfdata/nuts2008/ITE21>,0.16735169291496277,0.0389699712395668,-0.08666056394577026,-0.6523781418800354,0.8354067802429199,0.07025697827339172,0.34139299392700195,-0.030716978013515472,-0.9072473645210266,0.2746511399745941
<http://data.kasabi.com/dataset/cheese/picon-bejes-tresviso>,0.11905963718891144,0.050898678600788116,0.22416430711746216,-0.6742184162139893,1.1020458936691284,0.5894361138343811,0.1592532843351364,0.4382888972759247,-0.6966769099235535,0.1570887416601181
<http://ec.europa.eu/eurostat/ramon/rdfdata/nuts2008/ITD20>,0.0021149725653231144,0.019788311794400215,-0.11656403541564941,-0.872771143913269,0.8758683800697327,0.1380491852760315,0.27221161127090454,-0.08168647438287735,-0.9667057991027832,0.09197817742824554
<http://data.kasabi.com/dataset/cheese/queso-majorero>,0.03304442763328552,0.04963246360421181,0.10068193823099136,-0.7187473177909851,1.0909507274627686,0.5316283106803894,0.15968945622444153,0.47135230898857117,-0.6793525218963623,0.19775892794132233
<http://data.kasabi.com/dataset/cheese/queso-los-beyos>,0.025936605408787727,0.026494575664401054,0.049571067094802856,-0.9000926613807678,1.1939446926116943,0.40787607431411743,0.1889103651046753,0.25203466415405273,-0.557338297367096,0.3128030598163605
<http://data.kasabi.com/dataset/cheese/queso-ibores>,-0.045189034193754196,0.21863050758838654,0.09439942985773087,-0.7236445546150208,1.2003284692764282,0.4298880696296692,0.16055426001548767,0.30887892842292786,-0.5449010729789734,0.35326287150382996
