<http://www.w3.org/2000/01/rdf-schema#label>,1.0551761388778687,0.6586245894432068,-0.6608335375785828,0.19896727800369263,-0.289546936750412,0.6643041372299194,-0.44627276062965393,0.18771503865718842,-1.6198405027389526,1.044355034828186
<http://ec.europa.eu/eurostat/ramon/ontologies/geographic.rdf#hasSubRegion>,3.5956368446350098,0.9131176471710205,-1.5350226163864136,5.635075569152832,1.7984687089920044,1.1218791007995605,-1.8757858276367188,-2.386308431625366,-1.8778936862945557,0.2798284888267517
<http://www.w3.org/2000/01/rdf-schema#seeAlso>,0.1353231817483902,2.6893928050994873,-0.36821383237838745,-1.5521310567855835,2.486196994781494,0.8341454863548279,0.6213250160217285,-1.4745922088623047,-1.2255933284759521,1.005139946937561
<http://www.w3.org/2004/02/skos/core#altLabel>,0.3731749355792999,-0.41404852271080017,-1.39292573928833,-0.042271215468645096,-1.2597593069076538,0.6716166138648987,-0.26526299118995667,-1.2833192348480225,-1.7852416038513184,1.7579257488250732
<http://www.w3.org/2004/02/skos/core#prefLabel>,0.4069250822067261,-0.22772879898548126,-1.6392927169799805,0.06912213563919067,-1.2019739151000977,0.6104791164398193,-0.7311862111091614,-0.8397638201713562,-1.8666812181472778,1.8547741174697876
<http://data.kasabi.com/dataset/cheese/schema/province>,0.06897345185279846,3.152693748474121,0.34615305066108704,-2.7940781116485596,3.2557451725006104,1.6479425430297852,2.1252236366271973,-1.4141087532043457,-1.1277951002120972,2.6014976501464844
<http://data.kasabi.com/dataset/italy/schema/contains>,-0.504770040512085,3.2877798080444336,1.1709414720535278,-3.1783885955810547,2.9114925861358643,1.5661689043045044,1.9480959177017212,-1.6281768083572388,-2.255629301071167,1.5832929611206055
<http://www.w3.org/2002/07/owl#sameAs>,0.7120795249938965,1.3617148399353027,0.9289905428886414,-1.8660948276519775,1.1986863613128662,1.0844556093215942,1.7539767026901245,-1.5699567794799805,-1.3864688873291016,1.2136017084121704
<http://ec.europa.eu/eurostat/ramon/ontologies/geographic.rdf#hasParentRegion>,3.4983410835266113,1.0158272981643677,-1.7324930429458618,5.913241386413574,2.3140008449554443,1.2784520387649536,-2.545999050140381,-2.7336959838867188,-2.52044677734375,0.6390925049781799
<http://www.w3.org/1999/02/22-rdf-syntax-ns#type>,0.5793114304542542,-0.7960059642791748,0.6316381692886353,-0.9219604730606079,1.7722651958465576,1.2473514080047607,-3.631326913833618,-0.28134459257125854,-1.1733784675598145,3.2175705432891846
<http://ec.europa.eu/eurostat/ramon/ontologies/geographic.rdf#regionCode>,1.2973268032073975,2.028071165084839,0.013550731353461742,1.168322205543518,3.0313568115234375,0.25719398260116577,0.03068617917597294,-2.277186632156372,-0.6778514981269836,-0.3668489456176758
<http://data.kasabi.com/dataset/cheese/schema/municipality>,0.7710425853729248,-1.8346834182739258,-1.824691653251648,1.9613052606582642,-0.540955662727356,2.032748222351074,-0.18440867960453033,2.148376226425171,-3.9857752323150635,1.5790444612503052
<http://ec.europa.eu/eurostat/ramon/ontologies/geographic.rdf#name>,2.816340446472168,0.08892446756362915,-1.3617826700210571,3.5921573638916016,2.1251628398895264,0.6286152005195618,-2.2268989086151123,-1.717220664024353,-1.9350475072860718,0.7667239308357239
<http://data.kasabi.com/dataset/italy/schema/iso3166-2>,0.5744892358779907,1.381807565689087,1.698028802871704,-1.9890704154968262,2.0628907680511475,1.3666234016418457,2.2273826599121094,-1.8564294576644897,-1.1300075054168701,1.6753462553024292
<http://www.geonames.org/ontology#population>,0.9554662704467773,1.9139596223831177,1.4256744384765625,-1.7514350414276123,2.5327084064483643,1.5661909580230713,2.6837658882141113,-2.0363669395446777,-0.8876191973686218,1.3563376665115356
<http://www.w3.org/2003/01/geo/wgs84_pos#lat>,0.8018066883087158,1.8329743146896362,1.3889479637145996,-1.5986616611480713,2.549161911010742,1.6433908939361572,2.6955020427703857,-1.9579716920852661,-0.7784987092018127,1.3632012605667114
<http://www.w3.org/2003/01/geo/wgs84_pos#long>,0.7447299957275391,2.0397789478302,1.2229728698730469,-1.5943892002105713,2.6168060302734375,1.6226164102554321,2.689646005630493,-2.2365832328796387,-0.797756552696228,1.470435380935669
<http://data.kasabi.com/dataset/italy/schema/isContained>,-1.4157817363739014,2.1769192218780518,2.927210569381714,-2.1343748569488525,2.7967474460601807,0.158586323261261,1.9913424253463745,-2.215529203414917,-2.918766736984253,1.8277281522750854
<http://data.kasabi.com/dataset/cheese/schema/region>,-1.5685752630233765,1.9100515842437744,2.430562973022461,-2.051095962524414,1.9706207513809204,-0.014014733023941517,1.628993272781372,-1.9651658535003662,-3.3864729404449463,1.7546881437301636
<http://xmlns.com/foaf/0.1/page>,-0.33311429619789124,0.05124637112021446,1.5447133779525757,-1.7187974452972412,0.5495762825012207,-0.3540748059749603,2.006683111190796,-0.986362874507904,-3.6251304149627686,0.9093174338340759
<http://data.kasabi.com/dataset/cheese/schema/country>,1.3861496448516846,0.0390344113111496,-1.4109883308410645,0.20679320394992828,-0.9869640469551086,0.5937608480453491,-1.9372930526733398,1.6634926795959473,-2.8444132804870605,2.2652082443237305
<http://data.kasabi.com/dataset/italy>,0.35503527522087097,-1.8442683219909668,2.5130667686462402,1.0943567752838135,3.277862548828125,-2.6155364513397217,2.5609917640686035,1.8382326364517212,-7.050468444824219,1.0755704641342163
<http://rdfs.org/ns/void#inDataset>,0.16618499159812927,-2.537250280380249,0.7411700487136841,-0.19093966484069824,3.2259774208068848,-2.2194855213165283,3.260927200317383,1.4804381132125854,-6.595697402954102,2.3060083389282227
<http://data.kasabi.com/dataset/cheese/schema/weight>,0.707515299320221,-1.253463864326477,-1.4803636074066162,-0.2504902184009552,-0.7008258700370789,0.9700180292129517,1.0497926473617554,-1.051684021949768,-2.41709303855896,2.064368963241577
<http://data.kasabi.com/dataset/cheese/schema/aging>,0.21397727727890015,-0.7960481643676758,-0.8960385918617249,0.45933327078819275,-0.836451530456543,1.3651349544525146,1.1156586408615112,-0.9477487206459045,-2.4927103519439697,1.851206660270691
<http://data.kasabi.com/dataset/cheese/schema/Municipality>,1.825183391571045,-1.6352399587631226,-0.5365504026412964,1.382666826248169,-1.9426515102386475,0.17051203548908234,0.8591123819351196,0.8722270131111145,-3.5408055782318115,1.2115051746368408
<http://www.w3.org/2004/02/skos/core#hiddenLabel>,1.4803235530853271,-0.6716185212135315,0.5111333131790161,0.643943727016449,-2.068645715713501,1.7983286380767822,0.4557645320892334,-0.6780128479003906,-2.371640920639038,1.9396915435791016
<http://data.kasabi.com/dataset/cheese/schema/location>,1.338222622871399,-0.6565892696380615,0.047322265803813934,1.3899316787719727,-1.2840380668640137,1.4911280870437622,0.6577022075653076,0.357424259185791,-2.0312860012054443,1.8099809885025024
<http://data.kasabi.com/dataset/cheese/schema/height>,0.7490586638450623,-1.4130154848098755,-1.4965393543243408,0.0086049260571599,-0.21504846215248108,0.7942959070205688,0.7953702211380005,-1.5048497915267944,-2.2404637336730957,1.9715821743011475
<http://data.kasabi.com/dataset/cheese/grana-padano>,0.8485161066055298,0.2243260145187378,1.6549856662750244,0.11396659910678864,0.7943271994590759,1.6347764730453491,1.367990255355835,-0.4816957712173462,-0.5497913956642151,0.9097891449928284
<http://xmlns.com/foaf/0.1/primaryTopic>,-1.2174983024597168,1.4406285285949707,2.2507424354553223,-1.5256506204605103,2.1098997592926025,-0.31542226672172546,1.9195603132247925,-1.2291237115859985,-3.4173972606658936,1.3922542333602905
<http://data.kasabi.com/dataset/cheese/schema/diameter>,0.6713632941246033,-0.7237814664840698,-0.7880945205688477,-0.3739618957042694,-0.07292432337999344,0.6615017056465149,1.0434857606887817,-1.2812212705612183,-2.095493793487549,1.776421308517456
<http://data.kasabi.com/dataset/cheese/schema/Cheese>,1.3325132131576538,-0.8784776926040649,-0.6064168810844421,0.7074621915817261,-2.022404909133911,-0.48930174112319946,0.8503862619400024,0.012645100243389606,-2.1962332725524902,0.8565264940261841
<http://data.kasabi.com/dataset/cheese/schema/certification>,-0.360283762216568,-1.8796730041503906,-3.3488423824310303,-0.5150036215782166,-0.5443640351295471,2.1304237842559814,1.677245855331421,-1.3434679508209229,-1.3150888681411743,2.170581340789795
<http://data.kasabi.com/dataset/cheese/casu-marzu>,0.45326152443885803,0.07450147718191147,1.7614136934280396,0.9213905930519104,0.48512643575668335,1.428430199623108,0.7030027508735657,-0.08290722221136093,-1.637611985206604,0.6240495443344116
<http://open.vocab.org/terms/defines>,0.4558793306350708,-1.066620111465454,0.05064227804541588,-1.7495251893997192,-1.6105023622512817,0.6199121475219727,-0.4099481403827667,-0.5304552912712097,-4.041988372802734,1.1401125192642212
<http://www.geonames.org/ontology#parentFeature>,0.4864633083343506,1.764334797859192,1.200126051902771,-1.2880291938781738,1.9680277109146118,1.1666133403778076,1.5150680541992188,-1.6413745880126953,-0.9100340604782104,1.1801605224609375
<http://rdfs.org/ns/void#rootResource>,-1.047611951828003,0.722106397151947,2.086104154586792,-1.4861135482788086,2.1654763221740723,-0.7593085169792175,2.171186685562134,-0.5266488790512085,-3.4865152835845947,1.2181800603866577
<http://data.kasabi.com/dataset/cheese/parmigiano-reggiano>,0.2797636389732361,0.3176997900009155,1.1422910690307617,0.5198251008987427,0.6045640707015991,1.0025460720062256,0.8184138536453247,-0.2211698591709137,-1.4743496179580688,0.5603228807449341
<http://ec.europa.eu/eurostat/ramon/ontologies/geographic.rdf#level>,0.9360311031341553,0.1209256500005722,-1.7692455053329468,2.3524696826934814,3.037079095840454,0.2530754506587982,-0.5585619211196899,-2.40028715133667,-2.2460122108459473,-0.4664759635925293
<http://data.kasabi.com/dataset/cheese/ragusano>,0.2903977334499359,-0.8681790232658386,0.3368615508079529,0.5538761615753174,-0.040410272777080536,1.3786834478378296,0.70863938331604,1.0789111852645874,-2.05855393409729,1.1936887502670288
<http://data.kasabi.com/dataset/cheese/fontina>,0.3738132417201996,-0.1004650667309761,0.7048094272613525,0.6721062660217285,0.311644971370697,0.7870864272117615,0.5289313793182373,-0.20315204560756683,-1.400789499282837,0.8662288784980774
<http://data.kasabi.com/dataset/cheese/bitto>,0.7498753070831299,-1.3023087978363037,1.3704909086227417,1.2284106016159058,-0.09248924255371094,1.461930274963379,0.8995481133460999,0.8360826373100281,-2.1088807582855225,1.2033880949020386
<http://purl.org/dc/terms/identifier>,-0.2818256616592407,1.027489185333252,2.273808717727661,-1.1637303829193115,1.3948241472244263,-0.04727762192487717,1.7937145233154297,-2.0752696990966797,-3.9516420364379883,0.3627368211746216
<http://ec.europa.eu/eurostat/ramon/ontologies/geographic.rdf#NUTSRegion>,2.240344285964966,-0.5350943207740784,-1.141519546508789,2.3384249210357666,-0.5438941717147827,-0.8938218355178833,-0.04408545047044754,-0.3717058598995209,-2.250657558441162,0.06509041041135788
<http://data.kasabi.com/dataset/cheese/schema/PDO>,1.797611951828003,0.8188014626502991,1.5531724691390991,-0.30513063073158264,-0.3079718053340912,-0.7203165888786316,-1.9946695566177368,-2.939246654510498,-1.9136648178100586,0.019312847405672073
<http://data.kasabi.com/dataset/cheese/provolone-del-monaco>,0.9000357985496521,-1.2671623229980469,0.5389192700386047,1.2221729755401611,-0.15624482929706573,1.3000245094299316,0.7387713193893433,1.1657304763793945,-2.0941810607910156,1.3980454206466675
<http://data.kasabi.com/dataset/cheese/castelmagno>,0.5575385689735413,-0.4282303750514984,1.010726809501648,0.917309045791626,0.1749284565448761,1.3516662120819092,0.7314075827598572,0.4887683391571045,-1.6661099195480347,0.7972584366798401
<http://data.kasabi.com/dataset/italy/schema/Province>,1.1405547857284546,-0.5556644201278687,0.0799623429775238,-0.1502184122800827,-1.596318244934082,-0.8409771919250488,1.5227277278900146,0.03697623685002327,-2.502838134765625,0.616066575050354
<http://data.kasabi.com/dataset/cheese/pecorino-romano>,0.7311734557151794,-0.37879329919815063,1.2241535186767578,0.4704415500164032,0.41610822081565857,0.708427369594574,0.8361700773239136,-0.01684076525270939,-1.4455245733261108,0.827865719795227
<http://data.kasabi.com/dataset/italy/emilia-romagna>,-0.14820384979248047,0.765357494354248,1.3749619722366333,-0.9108723998069763,0.03469237685203552,0.6556472778320312,1.8570711612701416,-1.4930278062820435,-2.6342008113861084,-0.4394954442977905
<http://ec.europa.eu/eurostat/ramon/rdfdata/nuts2008/ITC4>,1.3841229677200317,0.22241412103176117,-1.0149621963500977,1.5615217685699463,1.8028193712234497,-0.320385605096817,-1.2411398887634277,-0.7570529580116272,-1.6616337299346924,0.40930888056755066
<http://data.kasabi.com/dataset/cheese/casciotta-durbino>,0.4264342486858368,-0.3453010320663452,1.1460739374160767,0.6319607496261597,0.2165454775094986,0.7347705960273743,0.7951325178146362,-0.5761685967445374,-1.0803933143615723,1.1078864336013794
<http://data.kasabi.com/dataset/cheese/burrata>,0.7860833406448364,-0.42236387729644775,0.6354737877845764,0.16444718837738037,0.11673327535390854,0.9218265414237976,0.5898895263671875,-0.15769891440868378,-1.334918737411499,0.6757724285125732
<http://ec.europa.eu/eurostat/ramon/rdfdata/nuts2008/ITE1>,1.416704535484314,0.19953380525112152,-0.8673292398452759,1.4461160898208618,1.8089655637741089,-0.16977667808532715,-0.9896146655082703,-0.4506891965866089,-1.2765012979507446,0.22703278064727783
<http://data.kasabi.com/dataset/italy/sardegna>,0.11204464733600616,0.6269521117210388,1.421829342842102,-0.5237086415290833,-0.47001826763153076,0.7636831402778625,1.611249566078186,-1.8194258213043213,-2.580631732940674,-0.4940885901451111
<http://data.kasabi.com/dataset/cheese/montasio>,0.5899845361709595,0.10769285261631012,0.8883599042892456,-0.22524882853031158,0.49168747663497925,0.7336414456367493,0.6032622456550598,-0.37831664085388184,-1.2301689386367798,0.4276565909385681
<http://data.kasabi.com/dataset/italy/sicilia>,0.018662191927433014,0.8829489946365356,1.4595316648483276,-0.6756733655929565,-0.037773486226797104,0.6516157388687134,1.5461039543151855,-1.5740619897842407,-2.3614084720611572,-0.5372259616851807
<http://data.kasabi.com/dataset/cheese/bel-paese>,0.860579788684845,-0.24441294372081757,0.742621660232544,-0.08698014914989471,0.3724810481071472,0.2862788736820221,0.19310584664344788,0.26403412222862244,-1.5968283414840698,0.9515997171401978
"3",2.63034987449646,1.528611660003662,-1.6234102249145508,0.9513479471206665,2.1384100914001465,1.206375241279602,-0.8933035731315613,-2.2800989151000977,-1.3344781398773193,-0.019351689144968987
<http://data.kasabi.com/dataset/italy/lombardia>,0.159055694937706,0.49190086126327515,1.1614079475402832,-0.7505356669425964,-0.4334529638290405,0.5409213304519653,1.489663004875183,-1.4433506727218628,-2.0957014560699463,-0.46352261304855347
<http://data.kasabi.com/dataset/italy/schema/Region>,1.0360207557678223,-0.8009370565414429,0.18146710097789764,0.42660313844680786,-1.3712067604064941,-0.6439282298088074,0.9314634203910828,-0.04923352599143982,-2.8999996185302734,0.5336020588874817
<http://ec.europa.eu/eurostat/ramon/rdfdata/nuts2008/ITG1>,1.3679664134979248,0.2829382121562958,-0.6180438995361328,1.4446879625320435,1.9578102827072144,-0.12117702513933182,-0.9731422066688538,-0.6367621421813965,-1.4145218133926392,0.3417108356952667
<http://data.kasabi.com/dataset/italy/puglia>,0.11816493421792984,0.8315139412879944,1.227141261100769,-0.6186231970787048,-0.02773990109562874,0.5686010718345642,1.4551301002502441,-1.5796127319335938,-2.448176860809326,-0.4871426820755005
<http://data.kasabi.com/dataset/italy/toscana>,0.044295307248830795,0.611247718334198,1.3980621099472046,-1.0486332178115845,0.03668047860264778,0.5858683586120605,1.6065517663955688,-1.5863916873931885,-2.3216712474823,-0.6019812226295471
<http://data.kasabi.com/dataset/italy/marche>,-0.02161754108965397,0.48751312494277954,1.116687536239624,-0.7818894386291504,0.023857248947024345,0.40922054648399353,1.5225529670715332,-1.5329947471618652,-2.5533480644226074,-0.36371392011642456
<http://data.kasabi.com/dataset/italy/piemonte>,-0.078855499625206,0.5279455780982971,1.4826630353927612,-0.6359044313430786,-0.1302669197320938,0.6487137079238892,1.4439234733581543,-1.4707322120666504,-2.465623378753662,-0.39780378341674805
<http://data.kasabi.com/dataset/cheese/mozzarella-di-bufala-campana>,0.4311419129371643,0.23696494102478027,0.6283121109008789,0.08920654654502869,0.5927661061286926,0.5099777579307556,0.7077254056930542,-0.3900810182094574,-1.0893503427505493,0.8002083897590637
<http://data.kasabi.com/dataset/cheese/pecorino-di-osilo>,0.8998336791992188,-1.021764874458313,0.6701464653015137,1.1000945568084717,0.1398266702890396,1.0356736183166504,0.7875521779060364,0.19497443735599518,-1.7352254390716553,1.14296293258667
<http://data.kasabi.com/dataset/italy/campania>,-0.11489855498075485,0.599361777305603,1.1707998514175415,-0.8099187612533569,0.15383335947990417,0.38880103826522827,1.5545778274536133,-1.3399312496185303,-2.1335513591766357,-0.23431366682052612
<http://data.kasabi.com/dataset/cheese/gorgonzola>,0.7084840536117554,-0.271385133266449,0.9451819062232971,0.44385406374931335,0.31861111521720886,0.7847989797592163,0.6784213185310364,-0.38521093130111694,-1.1527942419052124,0.7393643856048584
<http://ec.europa.eu/eurostat/ramon/rdfdata/nuts2008/ITD5>,1.1454696655273438,0.2765052616596222,-0.6091976165771484,1.3834871053695679,1.6419265270233154,-0.16989615559577942,-0.8566831350326538,-0.561329185962677,-1.2278801202774048,0.07438569515943527
<http://data.kasabi.com/dataset/italy/veneto>,0.023385370150208473,0.8312402963638306,1.4755843877792358,-0.771170437335968,-0.39432287216186523,0.7941441535949707,1.45122492313385,-1.5451786518096924,-2.495645046234131,-0.2645995020866394
<http://data.kasabi.com/dataset/cheese/asiago-mezzano>,0.4111330807209015,-0.3504710793495178,1.0707345008850098,0.7891637086868286,0.14047719538211823,1.08538818359375,0.4578576982021332,-0.24580726027488708,-1.5134390592575073,0.9961602091789246
<http://data.kasabi.com/dataset/cheese/stelvio>,1.1504467725753784,-0.48532310128211975,0.9513440728187561,0.8965936899185181,0.5743383765220642,0.6961486339569092,0.4873103201389313,-0.5278173685073853,-1.3295632600784302,1.0137569904327393
<http://data.kasabi.com/dataset/cheese/casizolu>,0.5249337553977966,-0.817793607711792,0.7421185970306396,0.8141242861747742,-0.08436383306980133,1.3213613033294678,0.2641967535018921,0.4743861258029938,-1.4646797180175781,1.1200112104415894
<http://ec.europa.eu/eurostat/ramon/rdfdata/nuts2008/ITG2>,1.4029148817062378,0.177103653550148,-0.7101247310638428,1.4705318212509155,1.6261687278747559,-0.07988782972097397,-0.9974417090415955,-0.4178445637226105,-1.5301772356033325,0.3472335934638977
<http://data.kasabi.com/dataset/italy/abruzzo>,-0.08897491544485092,0.5721297860145569,1.0349146127700806,-0.8049089908599854,0.37496328353881836,0.2571570575237274,1.4493526220321655,-1.174201250076294,-2.087920904159546,-0.5197691917419434
<http://data.kasabi.com/dataset/cheese/toma-piemontese>,0.6178738474845886,-0.3408714532852173,0.9108337163925171,0.5417962670326233,0.6358200311660767,0.7517176866531372,0.908706545829773,-0.47667601704597473,-1.229179859161377,1.0217195749282837
<http://ec.europa.eu/eurostat/ramon/rdfdata/nuts2008/ITC1>,1.3027169704437256,0.1183319017291069,-0.9434985518455505,1.5771242380142212,1.5803744792938232,-0.2465420812368393,-0.8747143149375916,-0.6877155900001526,-1.381127953529358,0.2587534487247467
<http://data.kasabi.com/dataset/italy/lazio>,-0.23265373706817627,0.7617636919021606,1.2232112884521484,-0.5383656024932861,0.1415979415178299,0.4274899363517761,1.4509369134902954,-1.3111852407455444,-2.0961408615112305,-0.3978123962879181
<http://data.kasabi.com/dataset/cheese/pecorino-sardo>,0.43114447593688965,-0.07053209841251373,0.8330907225608826,0.09200524538755417,0.6083757281303406,0.6133912801742554,0.3187997341156006,-0.496965229511261,-1.406895637512207,0.484393447637558
<http://data.kasabi.com/dataset/cheese/taleggio>,0.8274280428886414,-0.13748958706855774,1.2584071159362793,0.427320271730423,0.5399629473686218,0.9157859086990356,0.6601287126541138,-0.5896013379096985,-1.3828095197677612,0.8287272453308105
<http://data.kasabi.com/dataset/italy/umbria>,0.10993686318397522,0.45137110352516174,1.424818515777588,-0.46878692507743835,0.25627657771110535,0.4184282422065735,1.5108745098114014,-1.2779401540756226,-2.6432809829711914,-0.5101533532142639
<http://data.kasabi.com/dataset/cheese/ziger>,0.7974177598953247,-0.20065079629421234,1.1498273611068726,0.9655340313911438,0.3424549698829651,1.237644076347351,0.5490900874137878,-0.42484012246131897,-1.8087717294692993,1.038788080215454
<http://data.kasabi.com/dataset/italy/calabria>,0.02990718185901642,0.7347294688224792,1.0698031187057495,-0.8453831076622009,0.2931711971759796,0.5429298877716064,1.3964213132858276,-1.37409508228302,-1.914454460144043,-0.3527442216873169
<http://www.w3.org/2000/01/rdf-schema#comment>,0.3256750702857971,-0.9301143884658813,0.637764036655426,-0.5641956925392151,-0.18053214251995087,0.4168417155742645,-0.9103261232376099,-0.8497855067253113,-2.954439401626587,1.7165682315826416
<http://data.kasabi.com/dataset/italy/friuli-venezia-giulia>,-0.08248337358236313,0.5566070079803467,1.4430021047592163,-0.6554815173149109,-0.03115115687251091,0.34170082211494446,1.456399917602539,-1.4834493398666382,-2.783390998840332,-0.3025415241718292
<http://data.kasabi.com/dataset/cheese/dolcelatte>,0.45578983426094055,-0.3969220221042633,1.202846646308899,0.6226722002029419,0.4968724548816681,0.9153377413749695,0.46853524446487427,-0.58509361743927,-1.6142008304595947,0.9189687371253967
<http://data.kasabi.com/dataset/italy/trentino-alto-adige>,0.06840426474809647,0.5096831917762756,1.4488369226455688,-0.40788429975509644,-0.1730630248785019,0.7476897239685059,1.3628416061401367,-1.350246548652649,-2.5187416076660156,-0.35117122530937195
<http://data.kasabi.com/dataset/italy/liguria>,-0.17337726056575775,0.5831784009933472,1.093082070350647,-0.6784980893135071,0.3404048681259155,0.3150876760482788,1.4347132444381714,-1.222414493560791,-2.25518536567688,-0.29066145420074463
<http://data.kasabi.com/dataset/cheese/monte-veronese>,0.5653131604194641,-0.2389393448829651,0.743628978729248,0.34675174951553345,0.16369189321994781,0.8893877863883972,0.539275586605072,-0.48937174677848816,-1.2983800172805786,0.5578627586364746
<http://data.kasabi.com/dataset/cheese/fresa>,0.6514073014259338,-0.5285945534706116,0.4086049199104309,0.741805911064148,0.2883898913860321,0.8318643569946289,0.2537378668785095,0.38613978028297424,-1.3745605945587158,0.8503312468528748
<http://data.kasabi.com/dataset/cheese/spressa-delle-giudicarie>,0.9101959466934204,-0.5392534732818604,0.8530458807945251,0.9802898168563843,0.05309506878256798,1.0589228868484497,0.6418965458869934,0.21729472279548645,-1.4828917980194092,1.0748051404953003
<http://data.kasabi.com/dataset/cheese/ircano>,0.8382459282875061,-0.32892367243766785,0.5066533088684082,0.5033391118049622,0.22652222216129303,0.9597964286804199,0.5002589225769043,0.14384235441684723,-1.2712217569351196,1.1839919090270996
<http://ec.europa.eu/eurostat/ramon/rdfdata/nuts2008/ITD3>,1.2389589548110962,0.45274415612220764,-0.6068301796913147,1.4712201356887817,1.7765564918518066,-0.2452193945646286,-0.8680895566940308,-0.6380519866943359,-1.3400161266326904,0.40666234493255615
<http://data.kasabi.com/dataset/cheese/valle-daosta-fromadzo>,0.608383297920227,-0.17354559898376465,1.1084595918655396,0.5370919704437256,0.36336657404899597,0.6174265146255493,0.6498615741729736,-0.756051242351532,-1.6282095909118652,0.8899810910224915
<http://data.kasabi.com/dataset/cheese/murutzulu>,0.8710886240005493,-0.503184974193573,1.0680079460144043,0.9757128357887268,0.4108250141143799,1.1401360034942627,0.6550430059432983,-0.31815072894096375,-1.5793004035949707,1.3039075136184692
<http://data.kasabi.com/dataset/cheese/pecorino-siciliano>,0.5146971940994263,-0.08238527178764343,0.7855165004730225,0.3716924786567688,0.41119903326034546,0.499581515789032,0.33296337723731995,-0.3671928346157074,-1.3729745149612427,0.7523424029350281
<http://data.kasabi.com/dataset/italy/valle-daosta>,-0.007032766472548246,0.580886960029602,1.1255277395248413,-0.22835621237754822,0.07263455539941788,0.3802301585674286,1.0421242713928223,-1.1681839227676392,-1.8007087707519531,-0.2034195214509964
<http://data.kasabi.com/dataset/italy/basilicata>,0.1674458086490631,0.4925785958766937,1.39075767993927,-0.6882275938987732,-0.06044479459524155,0.351563036441803,1.3189070224761963,-1.150235652923584,-2.4354724884033203,-0.3701885938644409
<http://data.kasabi.com/dataset/cheese/carnia>,1.0022789239883423,-0.7546508312225342,0.9242300987243652,0.7971527576446533,0.24020591378211975,0.9761615991592407,0.4953996241092682,-0.11831068992614746,-1.1122419834136963,0.7961335778236389
<http://data.kasabi.com/dataset/italy/molise>,-0.08315127342939377,0.3846438229084015,1.3921058177947998,-0.6493571996688843,0.2743098735809326,0.23269446194171906,1.4871963262557983,-1.0561854839324951,-2.5717177391052246,-0.22040659189224243
<http://data.kasabi.com/dataset/italy/schema/Comune>,-0.10324378311634064,-1.3384699821472168,0.933647632598877,0.38338416814804077,-0.7975801825523376,0.927821934223175,-0.72658371925354,-0.9800313115119934,-3.1032376289367676,1.2090826034545898
<http://data.kasabi.com/dataset/cheese/formaggio-di-fossa-di-sogliano>,0.5837984681129456,-0.15054960548877716,0.35224151611328125,0.29593634605407715,0.26431727409362793,0.6794719696044922,0.4084712266921997,-0.42684289813041687,-0.9626649022102356,0.8232023119926453
<http://data.kasabi.com/dataset/cheese/fiore-sardo>,0.5291380286216736,-0.30864161252975464,0.6128829121589661,0.4641285538673401,0.37552610039711,0.6236478090286255,0.41891083121299744,-0.4744877219200134,-1.1171677112579346,0.8668615818023682
<http://data.kasabi.com/dataset/italy/schema/>,-0.1476391702890396,-1.4074327945709229,0.4708002805709839,0.4298962950706482,-1.129343032836914,0.8283460736274719,-1.3209718465805054,-1.4969425201416016,-2.6792237758636475,1.072393536567688
<http://data.kasabi.com/dataset/cheese/bastardo-del-grappa>,0.9076814651489258,-0.4077189564704895,0.7550030946731567,0.9501107931137085,0.19839400053024292,0.9364520907402039,0.6354552507400513,-0.3707284927368164,-1.127802848815918,0.9633902311325073
<http://www.geonames.org/ontology#featureClass>,0.7177030444145203,1.7834621667861938,1.2816760540008545,0.04732872173190117,-0.09298218786716461,1.1420559883117676,0.7713060975074768,-1.0621801614761353,-0.513227641582489,1.3429533243179321
<http://data.kasabi.com/dataset/cheese/bagoss>,0.9652289152145386,-0.632743239402771,0.7913121581077576,1.043915033340454,0.13136743009090424,0.874011754989624,0.6785682439804077,-0.13273732364177704,-1.2186088562011719,0.8083944916725159
<http://data.kasabi.com/dataset/cheese/asiago-dallevo>,0.6734623908996582,0.014609232544898987,0.6258187890052795,0.5095755457878113,0.429231196641922,0.557043731212616,0.37739965319633484,-0.2481488734483719,-1.2015373706817627,0.5730550289154053
<http://data.kasabi.com/dataset/cheese/schema/Country>,1.3371068239212036,-0.4024433493614197,-0.2927960753440857,0.4325389862060547,-0.6121861338615417,-0.20929494500160217,-0.020427821204066277,0.425503134727478,-2.1558640003204346,0.932995080947876
<http://www.w3.org/2000/01/rdf-schema#isDefinedBy>,0.4599367380142212,-1.4665087461471558,0.2479514330625534,-0.2361534833908081,-0.6849315762519836,0.30999159812927246,-1.1415942907333374,-0.5696694254875183,-2.7683191299438477,1.2492328882217407
<http://data.kasabi.com/dataset/italy/cagliari>,0.2870672643184662,0.33407244086265564,0.6244149804115295,-0.6062148809432983,0.4831344485282898,0.7780405879020691,0.7433711886405945,-0.7877660989761353,-0.7492765784263611,0.5276881456375122
<http://data.kasabi.com/dataset/cheese/crescenza>,0.48041874170303345,-0.2635202705860138,0.9193318486213684,0.5772082805633545,0.25132879614830017,0.6818543672561646,0.8770408034324646,-0.5081955790519714,-1.473982572555542,0.9090107083320618
<http://data.kasabi.com/dataset/cheese/raschera>,0.7424914240837097,-0.3200101852416992,0.8802845478057861,0.6538233160972595,0.4357345402240753,0.6983819603919983,0.49619677662849426,-0.43451830744743347,-1.489043951034546,0.8807538151741028
<http://data.kasabi.com/dataset/cheese/branzi>,0.65279221534729,-0.4336494505405426,0.5680742859840393,0.7141464352607727,0.15407516062259674,0.7278217077255249,0.5522004961967468,-0.1299811750650406,-1.1164424419403076,0.8349343538284302
<http://data.kasabi.com/dataset/cheese/bettelmatt>,0.8537882566452026,-0.4192960858345032,0.8294591307640076,0.9052338600158691,0.1410536766052246,1.0665881633758545,0.47215256094932556,0.1565212458372116,-1.4578982591629028,0.9153076410293579
<http://www.geonames.org/ontology#parentCountry>,0.15048746764659882,1.5737605094909668,0.36610037088394165,-0.7447782158851624,1.4245338439941406,0.8445136547088623,0.5045057535171509,-1.7261159420013428,-0.6292255520820618,1.2807031869888306
<http://data.kasabi.com/dataset/cheese/raschera-dalpeggio>,0.6059678792953491,-0.22008754312992096,0.6029560565948486,0.4499811828136444,0.4940180480480194,0.47542381286621094,0.3818865418434143,-0.4419150948524475,-1.4319008588790894,0.7162268757820129
<http://data.kasabi.com/dataset/italy/grosseto>,0.41575464606285095,0.3524492681026459,0.7851621508598328,-0.6816098690032959,0.6097972989082336,0.7843109369277954,0.8013832569122314,-0.692918062210083,-0.8549937009811401,0.636658787727356
<http://data.kasabi.com/dataset/italy/gorizia>,0.22574792802333832,0.45676353573799133,0.5575295686721802,-0.600673496723175,0.46073004603385925,0.5978893637657166,0.8389112949371338,-0.9017214179039001,-0.9273372292518616,0.5434510707855225
<http://data.kasabi.com/dataset/cheese/puzzone-di-moena>,0.694571852684021,-0.4896661937236786,0.7706328630447388,0.9605464935302734,0.4383842349052429,0.9804947376251221,0.4306625425815582,-0.07849347591400146,-1.4045683145523071,1.089089274406433
<http://ec.europa.eu/eurostat/ramon/rdfdata/nuts2008/ITE4>,0.9611215591430664,0.23561984300613403,-0.6053392887115479,1.1906918287277222,1.229774832725525,-0.290274053812027,-0.732293963432312,-0.6235960721969604,-1.164313554763794,0.2816762924194336
<http://data.kasabi.com/dataset/italy/verbano-cusio-ossola>,0.26319974660873413,0.5514349937438965,0.6078089475631714,-0.32545459270477295,0.3939020037651062,0.6688761115074158,0.9706645011901855,-1.2020595073699951,-1.3985998630523682,0.7588469982147217
<http://data.kasabi.com/dataset/cheese/caciocavallo-silano>,0.5870468616485596,0.0013635486830025911,0.6909237504005432,-0.24228817224502563,0.28330138325691223,0.5051662921905518,0.6911501288414001,-0.5865746140480042,-0.8887782692909241,0.6751394271850586
<http://data.kasabi.com/dataset/cheese/agri-di-valtorta>,0.46018630266189575,-0.6616107225418091,0.6612560153007507,0.8223267197608948,0.17841264605522156,0.7471291422843933,0.6200481653213501,-0.09604723751544952,-1.1895043849945068,0.8925403952598572
<http://data.kasabi.com/dataset/cheese/pecorino-toscano>,0.6776618361473083,0.189922496676445,0.6099694967269897,-0.126661479473114,0.4904646575450897,0.6809229850769043,0.5098949074745178,-0.643566370010376,-0.6885377764701843,0.6904239058494568
<http://data.kasabi.com/dataset/cheese/dobbiaco>,0.7124547958374023,-0.29664143919944763,0.6111280918121338,0.7822919487953186,0.27329176664352417,0.8216621279716492,0.6678518056869507,-0.37622758746147156,-1.2746188640594482,0.9686228632926941
<http://www.geonames.org/ontology#countryCode>,0.48113560676574707,0.465510755777359,1.109541416168213,-1.1845996379852295,0.9685492515563965,0.7321698069572449,1.772799015045166,-0.7179125547409058,-0.6240562200546265,1.3219889402389526
<http://data.kasabi.com/dataset/cheese/schema/use>,0.219891756772995,0.07089046388864517,-0.20539504289627075,0.24125993251800537,-0.08130978792905807,0.5264530777931213,0.05166615545749664,-0.9926725625991821,-1.6580787897109985,0.9924347400665283
<http://data.kasabi.com/dataset/italy/isernia>,0.15340353548526764,0.5004631280899048,0.39028099179267883,-0.34462770819664,0.6418213844299316,0.5748139023780823,0.8318747282028198,-0.7830146551132202,-1.1562283039093018,0.3032289147377014
<http://data.kasabi.com/dataset/cheese/bruss>,0.6421324014663696,-0.2424890697002411,0.6686393618583679,0.7026262283325195,0.3952656090259552,0.7953219413757324,0.121743343770504,-0.4544042944908142,-0.9526475667953491,0.8318784832954407
<http://ec.europa.eu/eurostat/ramon/rdfdata/nuts2008/ITF4>,1.1379618644714355,0.32286641001701355,-0.43154624104499817,1.068170189857483,1.5187541246414185,-0.0682956799864769,-0.7846963405609131,-0.42304643988609314,-1.2945373058319092,0.3227168917655945
<http://data.kasabi.com/dataset/cheese/vastedda-della-valle-del-belice>,0.6374433636665344,-0.06777359545230865,0.5242838263511658,0.24054168164730072,0.4452904760837555,0.40584596991539,0.24672318994998932,-0.5648521780967712,-1.0515843629837036,0.7676827311515808
<http://data.kasabi.com/dataset/cheese/formaggella-del-luinese>,0.61087566614151,-0.35524076223373413,0.3969959616661072,0.6303048729896545,0.24213621020317078,0.6884928345680237,0.5105152726173401,-0.24988073110580444,-1.0548112392425537,0.9612216353416443
<http://data.kasabi.com/dataset/cheese/asiago-pressato>,0.5934664011001587,-0.0021339154336601496,0.5809034109115601,0.47587865591049194,0.446291983127594,0.6362252235412598,0.5349487662315369,-0.29720616340637207,-1.1360085010528564,0.6468077898025513
<http://data.kasabi.com/dataset/cheese/schema/shape>,0.6344038844108582,-0.3053608238697052,-0.2854745388031006,0.3764652907848358,0.5350457429885864,0.9496150612831116,0.395528644323349,-0.5067847967147827,-1.626041054725647,0.9119893312454224
<http://rdfs.org/ns/void#vocabulary>,0.4456942081451416,-0.9466736912727356,0.7503799200057983,0.35488736629486084,1.4536304473876953,-0.6577736735343933,1.3832807540893555,0.5626760721206665,-3.106232166290283,0.9558455944061279
<http://data.kasabi.com/dataset/cheese/casatella-trevigiana>,0.799268901348114,-0.35079076886177063,0.7575201988220215,0.6892257332801819,0.2090609222650528,0.6099569797515869,0.6942917108535767,-0.39068037271499634,-1.1557525396347046,0.990235447883606
<http://data.kasabi.com/dataset/cheese/canestrato-di-moliterno>,0.7663101553916931,-0.1849263608455658,0.6127182841300964,0.36594894528388977,0.4073665142059326,0.7006140351295471,0.5412862300872803,-0.25590965151786804,-0.8157272934913635,0.6554794907569885
<http://data.kasabi.com/dataset/italy/verona>,0.6467183232307434,0.11176420003175735,0.5712570548057556,-0.4672330319881439,0.3649406433105469,0.8617525100708008,0.9154089093208313,-0.8917694687843323,-1.2423105239868164,0.7205391526222229
<http://sws.geonames.org/3175395/>,0.7792613506317139,1.178245186805725,0.8259247541427612,-0.871171772480011,0.5577630996704102,1.1244690418243408,1.1323730945587158,-1.2159183025360107,-0.9308702945709229,0.5776227712631226
<http://data.kasabi.com/dataset/cheese/kanterkaas>,0.5234030485153198,-0.19657136499881744,0.3742161989212036,0.3181944787502289,0.3018484115600586,0.37360578775405884,0.3761170506477356,-0.2636663317680359,-1.3310434818267822,0.8950269222259521
<http://data.kasabi.com/dataset/cheese/cantal>,0.7308077812194824,-0.2513831555843353,0.4302622079849243,0.4343176782131195,0.2845515012741089,0.5352928042411804,0.08428385853767395,-0.3253265917301178,-1.0730953216552734,0.6990435123443604
<http://ec.europa.eu/eurostat/ramon/rdfdata/nuts2008/ITF3>,0.9803038239479065,0.30507534742355347,-0.5109860301017761,0.9268419742584229,1.4794412851333618,-0.2615615427494049,-0.6208820939064026,-0.4016970992088318,-1.1181211471557617,0.3958533704280853
<http://data.kasabi.com/dataset/cheese/munster>,0.48601454496383667,-0.24912597239017487,0.37149879336357117,0.4739731550216675,0.4819227159023285,0.5976455211639404,0.16314415633678436,-0.5059342980384827,-1.2439849376678467,0.6607694625854492
<http://ec.europa.eu/eurostat/ramon/rdfdata/nuts2008/ITF6>,0.9363520741462708,0.04999352619051933,-0.4139639139175415,1.1152762174606323,1.36898934841156,-0.16183464229106903,-0.5721251964569092,-0.5236942172050476,-1.234881043434143,0.44507265090942383
<http://data.kasabi.com/dataset/cheese/bra-tenero>,0.5255064368247986,-0.2276526689529419,0.5951107740402222,0.3489309251308441,0.3524465262889862,0.6287655234336853,0.47712817788124084,-0.22144198417663574,-1.2626242637634277,0.6661619544029236
<http://data.kasabi.com/dataset/cheese/quartirolo-lombardo>,0.8700088858604431,-0.2697302997112274,0.7535151839256287,0.5455376505851746,0.5036813020706177,0.6188707947731018,0.6694282293319702,-0.3266547918319702,-1.1177648305892944,1.1211081743240356
<http://ec.europa.eu/eurostat/ramon/rdfdata/nuts2008/ITC3>,0.8397796750068665,0.3083348870277405,-0.4637124836444855,1.1883031129837036,1.306283712387085,-0.13447022438049316,-0.7587254643440247,-0.40513721108436584,-1.1602983474731445,0.4931405186653137
<http://data.kasabi.com/dataset/cheese/robiola-di-roccaverano>,0.7169040441513062,-0.35485321283340454,0.5681790113449097,0.6433749198913574,0.5363212823867798,0.6361728310585022,0.4359497129917145,-0.5689452886581421,-1.2510480880737305,1.04715096950531
<http://data.kasabi.com/dataset/italy/perugia>,0.2030186504125595,0.5715568661689758,0.4096950590610504,-0.35883796215057373,0.4147185683250427,0.6477652788162231,0.7892934083938599,-0.9706620573997498,-1.2439501285552979,0.34291523694992065
<http://data.kasabi.com/dataset/cheese/bonassai>,0.6666408181190491,-0.591377317905426,0.7899786233901978,0.8534330129623413,0.240444615483284,0.8148969411849976,0.747177004814148,-0.440652996301651,-1.359982967376709,1.093467116355896
<http://data.kasabi.com/dataset/cheese/murazzano>,0.8514735102653503,-0.4016641676425934,0.4869285225868225,0.7582617402076721,0.482724130153656,0.8430789113044739,0.36119481921195984,-0.6039438843727112,-1.2397736310958862,0.7296766638755798
<http://www.geonames.org/ontology#featureCode>,0.04254693165421486,0.5966218113899231,1.0512089729309082,-0.1688760668039322,0.8134076595306396,0.9732996821403503,1.3342002630233765,-1.1556038856506348,-0.4486199617385864,1.0861270427703857
<http://data.kasabi.com/dataset/cheese/gransardo>,0.805801510810852,-0.5288975834846497,0.6787600517272949,0.7269476056098938,0.5483645796775818,0.7353094816207886,0.4176529347896576,-0.31418153643608093,-1.3722333908081055,1.0841825008392334
<http://data.kasabi.com/dataset/italy/rimini>,0.3743453919887543,0.3491687774658203,0.4834847152233124,-0.4448219835758209,0.6082631945610046,0.9345239400863647,0.6373738050460815,-0.9301928281784058,-0.9514284729957581,0.6348334550857544
<http://data.kasabi.com/dataset/cheese/ricotta-gentile>,0.5608057379722595,-0.16143473982810974,0.7241345047950745,0.5725371837615967,0.44291242957115173,0.8411067128181458,0.48784133791923523,-0.7101122736930847,-1.1773303747177124,1.0875324010849
<http://data.kasabi.com/dataset/cheese/triza>,0.6728284358978271,-0.2096419781446457,0.7242766618728638,0.6179943084716797,0.4016913175582886,1.0547597408294678,0.5707249045372009,-0.398864209651947,-1.553070306777954,1.1046533584594727
<http://data.kasabi.com/dataset/cheese/canestrato-pugliese>,0.6867546439170837,-0.47181203961372375,0.6730998158454895,0.5877202749252319,0.45502138137817383,0.676884114742279,0.42094722390174866,-0.2180694341659546,-1.042340874671936,0.8604195713996887
<http://data.kasabi.com/dataset/italy/udine>,0.41536009311676025,0.13255158066749573,0.4788205623626709,-0.10272235423326492,0.31534436345100403,0.8536242246627808,0.5898017287254333,-0.8863613605499268,-1.249273419380188,0.5637696981430054
<http://data.kasabi.com/dataset/italy/pescara>,0.3558836579322815,0.5830166339874268,0.4080743193626404,-0.2387932389974594,0.5180887579917908,0.7977210283279419,0.8037914633750916,-1.0509027242660522,-1.0868537425994873,0.5520192384719849
<http://data.kasabi.com/dataset/italy/trento>,0.6663784384727478,0.24032051861286163,0.4054711163043976,-0.47858601808547974,0.5333002805709839,0.861775815486908,0.6965517997741699,-0.8622841238975525,-0.899401068687439,0.6880906224250793
<http://data.kasabi.com/dataset/italy/trieste>,0.4896336495876312,0.30917486548423767,0.3983330726623535,-0.34086909890174866,0.626593828201294,0.870434045791626,0.6469509601593018,-1.058260440826416,-0.7552060484886169,0.7989322543144226
<http://data.kasabi.com/dataset/italy/frosinone>,0.20807726681232452,0.3259996473789215,0.4275487959384918,-0.45757991075515747,0.4165668785572052,0.6844486594200134,0.6127355098724365,-0.9602757692337036,-0.8645578026771545,0.6125627160072327
<http://data.kasabi.com/dataset/italy/salerno>,0.4807072877883911,0.47656914591789246,0.43763166666030884,-0.22174029052257538,0.5263042449951172,0.7591924667358398,0.46329134702682495,-0.8369221687316895,-1.0299406051635742,0.7872883677482605
<http://data.kasabi.com/dataset/italy/torino>,0.7260847091674805,0.48840588331222534,0.3934233784675598,-0.3052714467048645,0.6732540726661682,0.7230316996574402,0.7139888405799866,-0.9567047953605652,-0.8825762867927551,0.8274470567703247
<http://data.kasabi.com/dataset/italy/bari>,0.31056076288223267,0.3893512785434723,0.29351162910461426,-0.5336841940879822,0.4062134623527527,0.7597499489784241,0.5832318067550659,-1.01100492477417,-0.9821929931640625,0.5411518812179565
<http://data.kasabi.com/dataset/italy/bolzano>,0.37806522846221924,0.5301374197006226,0.37737900018692017,-0.2048969566822052,0.3398715853691101,0.6177905201911926,0.3720681965351105,-0.7393062114715576,-0.6439774036407471,0.5261298418045044
<http://data.kasabi.com/dataset/cheese/greviera>,0.7168658375740051,-0.3438243865966797,0.654192328453064,0.5720804333686829,0.40246450901031494,0.6786300539970398,0.6404542326927185,-0.13717928528785706,-1.316019058227539,0.7941341400146484
<http://data.kasabi.com/dataset/cheese/provolone-valpadana>,0.6947538256645203,-0.15947793424129486,0.7536861300468445,0.2885638177394867,0.6827853918075562,0.6466231346130371,0.6500952243804932,-0.5876337289810181,-1.0161017179489136,0.7732182145118713
<http://data.kasabi.com/dataset/italy/nuoro>,0.5694889426231384,0.25331756472587585,0.343131959438324,-0.4316137135028839,0.40666690468788147,0.7183484435081482,0.49112147092819214,-0.896385669708252,-0.762804388999939,0.7080825567245483
<http://data.kasabi.com/dataset/italy/venezia>,0.536023736000061,0.442594051361084,0.3657582998275757,-0.5267484784126282,0.5658759474754333,1.0630277395248413,0.6443732976913452,-0.880385160446167,-0.840222179889679,0.8622329831123352
<http://data.kasabi.com/dataset/italy/reggio-calabria>,0.4390338659286499,0.30988529324531555,0.49293267726898193,-0.1811925768852234,0.5618492364883423,0.577846109867096,0.5852813124656677,-1.122654676437378,-1.0526877641677856,0.5844264030456543
<http://data.kasabi.com/dataset/italy/benevento>,0.4928767681121826,0.5778003334999084,0.658070981502533,-0.6175336837768555,0.557409942150116,0.6662148237228394,0.8846750855445862,-0.7865809202194214,-0.8610053658485413,0.6430948376655579
<http://ec.europa.eu/eurostat/ramon/rdfdata/nuts2008/ITD4>,0.9696819186210632,0.12138979882001877,-0.6215696930885315,1.1646041870117188,1.4779497385025024,-0.1177968680858612,-0.6140201091766357,-0.438863605260849,-1.3076313734054565,0.3353385627269745
<http://data.kasabi.com/dataset/cheese/valtellina-casera>,0.6829656958580017,-0.24537399411201477,0.6248743534088135,0.5674612522125244,0.58924400806427,0.7141522765159607,0.5870881676673889,-0.3902963101863861,-1.2128169536590576,0.9770547747612
<http://data.kasabi.com/dataset/italy/pesaro-e-urbino>,0.1973860263824463,0.6266103386878967,0.492770791053772,-0.2321111410856247,0.7240280508995056,0.7696171402931213,0.8318212032318115,-0.9597516655921936,-1.0281226634979248,0.5749446749687195
<http://data.kasabi.com/dataset/italy/lucca>,0.48629942536354065,0.47774356603622437,0.5505124926567078,-0.4934919476509094,0.5449646711349487,0.7818154692649841,0.6389540433883667,-0.9100772142410278,-0.885316014289856,0.5358097553253174
<http://data.kasabi.com/dataset/cheese/ricotta-mustia>,0.9078828692436218,-0.4145923852920532,0.5761198401451111,0.6903290152549744,0.5835573077201843,0.6984608769416809,0.5946036577224731,-0.4136923849582672,-1.5144360065460205,0.897756040096283
<http://data.kasabi.com/dataset/cheese/almkase->,0.5608922243118286,-0.4029424488544464,0.6025260090827942,0.7797848582267761,0.5211741328239441,0.7199435830116272,0.4363517761230469,-0.2363547831773758,-1.0947937965393066,0.9426558613777161
<http://data.kasabi.com/dataset/italy/catanzaro>,0.45128676295280457,0.3145068883895874,0.4736928939819336,-0.4516058564186096,0.5799612402915955,0.6710058450698853,0.6223194599151611,-0.8415233492851257,-0.848066508769989,0.5667937397956848
<http://data.kasabi.com/dataset/italy/caserta>,0.43365517258644104,0.4665719270706177,0.4589669406414032,-0.450363427400589,0.4756348133087158,0.6915570497512817,0.7452322244644165,-0.8788028359413147,-0.8107641935348511,0.46861201524734497
<http://ec.europa.eu/eurostat/ramon/rdfdata/nuts2008/ITF>,0.949280321598053,0.19319862127304077,-0.3581375777721405,1.0940897464752197,1.2142794132232666,0.02046920917928219,-0.6176990866661072,-0.5786288976669312,-1.0372189283370972,0.31847071647644043
<http://www.geonames.org/ontology#A>,-0.2662150263786316,0.19708077609539032,0.2634180188179016,-0.768686830997467,1.160812258720398,1.680345892906189,0.9703827500343323,-0.9682556390762329,-0.8831441402435303,1.0499247312545776
<http://data.kasabi.com/dataset/cheese/semicotto-caprino>,0.7104561924934387,-0.0893789678812027,0.7317602634429932,0.594290018081665,0.39284268021583557,0.8323045969009399,0.5728622674942017,-0.37390822172164917,-1.267554521560669,0.9259099364280701
<http://data.kasabi.com/dataset/cheese/queso-palmero>,0.7563127875328064,-0.1252567023038864,0.43195974826812744,0.3724919855594635,0.5970231890678406,0.38914984464645386,0.13352756202220917,-0.2801629602909088,-1.4175456762313843,0.5523571968078613
<http://data.kasabi.com/dataset/italy/ragusa>,0.2341584861278534,0.16151095926761627,0.3872353136539459,0.0392281748354435,0.5492354035377502,0.9251325130462646,0.6966303586959839,-0.4145094156265259,-1.1507799625396729,0.5975826978683472
<http://data.kasabi.com/dataset/cheese/caprino-a-latte-crudo>,0.6682761907577515,-0.43405815958976746,0.7437648773193359,0.8407242298126221,0.34675276279449463,0.8088117837905884,0.48895055055618286,-0.38571298122406006,-1.0938118696212769,0.8371461033821106
<http://data.kasabi.com/dataset/italy/terni>,0.4814465045928955,0.4407254755496979,0.45671218633651733,-0.08454187214374542,0.36636555194854736,0.8176459670066833,0.8075228333473206,-0.9905776977539062,-1.2079646587371826,0.6080945134162903
<http://ec.europa.eu/eurostat/ramon/rdfdata/nuts2008/ITE3>,0.900990903377533,0.24989640712738037,-0.42302486300468445,1.0552936792373657,1.281901240348816,-0.07259361445903778,-0.521735429763794,-0.5268948078155518,-1.0166159868240356,0.09998022764921188
<http://data.kasabi.com/dataset/italy/matera>,0.26738086342811584,0.517361044883728,0.4046018719673157,-0.5365928411483765,0.3307048976421356,0.8861277103424072,0.7515092492103577,-1.0204097032546997,-0.9438544511795044,0.8316335678100586
<http://data.kasabi.com/dataset/cheese/gamoneu>,0.5132033824920654,-0.23180578649044037,0.29947495460510254,0.3486851751804352,0.18709604442119598,0.617631733417511,0.043936099857091904,-0.5116505026817322,-1.243999719619751,0.5874122381210327
<http://data.kasabi.com/dataset/italy/brescia>,0.4249363839626312,0.4981638193130493,0.36348703503608704,-0.41337496042251587,0.3716335594654083,0.6356102228164673,0.5799000263214111,-0.7895079851150513,-0.4587245285511017,0.6156746745109558
<http://data.kasabi.com/dataset/italy/caltanissetta>,0.03448799252510071,0.4247820973396301,0.2836459279060364,-0.39763540029525757,0.42399051785469055,0.6938409805297852,0.6744113564491272,-0.8578895330429077,-0.8550493121147156,0.39204224944114685
<http://data.kasabi.com/dataset/italy/crotone>,0.22145701944828033,0.3873666226863861,0.4783112406730652,-0.5427294969558716,0.5757076740264893,0.8545917272567749,0.6599213480949402,-1.0164376497268677,-0.9194725751876831,0.5593172907829285
<http://data.kasabi.com/dataset/italy/palermo>,0.41890600323677063,0.4107964336872101,0.4621300995349884,-0.36118054389953613,0.4783821403980255,0.741402268409729,0.6372306942939758,-0.7792643904685974,-0.9766817688941956,0.6697357296943665
<http://data.kasabi.com/dataset/italy/padova>,0.34350335597991943,0.2875393033027649,0.5535589456558228,-0.43712738156318665,0.5421572923660278,0.7267174124717712,0.6972978115081787,-0.8599997758865356,-0.9202572703361511,0.6469630002975464
<http://data.kasabi.com/dataset/italy/carbonia-iglesias>,0.121243417263031,0.6119198799133301,0.2695586681365967,-0.3533952236175537,0.33791688084602356,0.5201279520988464,0.5739762783050537,-0.9240741729736328,-0.8396614789962769,0.6350845694541931
<http://www.geonames.org/ontology#Feature>,0.8680790066719055,0.011014258489012718,0.09920185059309006,-0.1253202259540558,-0.7385661005973816,-0.3666788637638092,1.151251196861267,-0.06661394238471985,-1.2370768785476685,0.48651206493377686
<http://data.kasabi.com/dataset/italy/reggio-emilia>,0.48735368251800537,0.41236555576324463,0.4439551532268524,-0.22384873032569885,0.5567573308944702,0.616447925567627,0.5669368505477905,-0.7855867743492126,-1.019290804862976,0.6094754934310913
<http://data.kasabi.com/dataset/italy/aosta>,-0.010386231355369091,0.6150209903717041,0.3216984272003174,-0.4100896716117859,0.2386402040719986,0.5295754075050354,0.8674870729446411,-1.0104070901870728,-1.0890504121780396,0.32403120398521423
<http://data.kasabi.com/dataset/italy/vercelli>,0.5544796586036682,0.22198311984539032,0.4082309305667877,-0.20475944876670837,0.5128579139709473,0.7850373387336731,0.6542161703109741,-0.705400288105011,-1.0396801233291626,0.8568459749221802
<http://data.kasabi.com/dataset/italy/oristano>,0.542283833026886,0.2824481427669525,0.2994900047779083,-0.23228216171264648,0.27955472469329834,0.576757550239563,0.4888075292110443,-0.7766644954681396,-0.8071450591087341,0.7255534529685974
<http://data.kasabi.com/dataset/italy/rieti>,0.4127458333969116,0.35332250595092773,0.4491957724094391,-0.2969903349876404,0.38843977451324463,0.7696750164031982,0.7635851502418518,-1.074467420578003,-1.3816806077957153,0.5090008974075317
<http://data.kasabi.com/dataset/italy/ogliastra>,0.4224039316177368,0.475193053483963,0.3299887478351593,-0.25096744298934937,0.44999009370803833,0.7973343729972839,0.43122678995132446,-0.894041895866394,-0.8278504610061646,0.593502938747406
<http://data.kasabi.com/dataset/italy/cuneo>,0.4444316029548645,0.35625937581062317,0.3527681827545166,-0.5836894512176514,0.5736408829689026,0.8900552988052368,0.7285445332527161,-0.6764567494392395,-0.7173766493797302,0.7031229138374329
<http://data.kasabi.com/dataset/italy/sassari>,0.46058979630470276,0.32384178042411804,0.37477919459342957,-0.44428980350494385,0.35049957036972046,0.8639950156211853,0.6958446502685547,-0.8426260948181152,-1.0142722129821777,0.9161766767501831
<http://data.kasabi.com/dataset/italy/vibo-valentia>,0.35604628920555115,0.3105218708515167,0.3067331612110138,-0.03564665839076042,0.4532608091831207,0.5717995166778564,0.6125777363777161,-0.9599724411964417,-1.248465657234192,0.6491978168487549
<http://data.kasabi.com/dataset/italy/enna>,0.3361808955669403,0.5618886351585388,0.6469875574111938,-0.3414347767829895,0.393447607755661,0.8379116654396057,0.5869737863540649,-0.9014062285423279,-0.8276228308677673,0.7229585647583008
<http://data.kasabi.com/dataset/italy/prato>,0.47951775789260864,0.48214977979660034,0.5460492372512817,-0.2941893935203552,0.43391212821006775,0.6485239863395691,0.7691752910614014,-1.0007150173187256,-1.0553127527236938,0.7554305195808411
<http://data.kasabi.com/dataset/italy/napoli>,0.5119380354881287,0.2713128924369812,0.4545479714870453,-0.3541383445262909,0.6000980138778687,0.8918156623840332,0.6133127212524414,-0.7891690731048584,-0.9258910417556763,0.8448740839958191
<http://data.kasabi.com/dataset/italy/novara>,0.4701713025569916,0.2924221456050873,0.4754980206489563,-0.5216374397277832,0.4999854564666748,0.5860370397567749,0.6057045459747314,-0.8877345323562622,-0.8591391444206238,0.6435511708259583
<http://data.kasabi.com/dataset/italy/ravenna>,0.46661898493766785,0.3538622558116913,0.42036303877830505,-0.29235994815826416,0.4176645576953888,0.7270683646202087,0.6321533918380737,-0.9009132385253906,-1.0885833501815796,0.804817795753479
<http://data.kasabi.com/dataset/europe/france>,1.427477240562439,-0.19385869801044464,-0.22283124923706055,-0.07631034404039383,-0.22667358815670013,-0.5062534213066101,-0.2284918576478958,0.4006630480289459,-1.2598971128463745,1.2430815696716309
<http://data.kasabi.com/dataset/italy/mantova>,0.4449128210544586,0.45392605662345886,0.4027223289012909,-0.3386254906654358,0.31442686915397644,0.6718431711196899,0.8995113968849182,-0.7128592133522034,-1.0042579174041748,0.7384451627731323
<http://data.kasabi.com/dataset/italy/bergamo>,0.4483928084373474,0.31463518738746643,0.282710462808609,-0.5018188953399658,0.27251797914505005,0.5616214871406555,0.5976038575172424,-0.5725151300430298,-0.5126843452453613,0.7407914996147156
<http://data.kasabi.com/dataset/italy/catania>,0.07592479884624481,0.44487464427948,0.47448858618736267,-0.3257825970649719,0.43825873732566833,0.6352708339691162,0.6724730730056763,-0.9636350870132446,-1.0453535318374634,0.5766666531562805
<http://data.kasabi.com/dataset/cheese/bra-duro>,0.6446694731712341,-0.2271328866481781,0.5639039874076843,0.31371650099754333,0.23050488531589508,0.51871258020401,0.3024466931819916,-0.24699150025844574,-1.2973419427871704,0.7424443960189819
<http://data.kasabi.com/dataset/cheese/formai-de-mut-dellalta-valle-brembana>,0.6589184403419495,-0.19900797307491302,0.5291404128074646,0.6446807384490967,0.27605172991752625,0.5899267792701721,0.39166805148124695,-0.3119010627269745,-1.2234667539596558,0.6750862002372742
<http://data.kasabi.com/dataset/italy/cremona>,0.3825555145740509,0.34432747960090637,0.5394055843353271,-0.4566238820552826,0.674614429473877,0.876712441444397,0.6090173125267029,-0.7932079434394836,-0.6353530287742615,0.768779993057251
<http://data.kasabi.com/dataset/italy/teramo>,0.38938161730766296,0.42055994272232056,0.2965255081653595,-0.13367736339569092,0.4810888171195984,0.7707703709602356,0.601227343082428,-0.9209307432174683,-1.2192801237106323,0.5981005430221558
<http://data.kasabi.com/dataset/italy/savona>,0.15917500853538513,0.4832823872566223,0.31543973088264465,-0.3427971303462982,0.4892464280128479,0.7223606109619141,0.7629908919334412,-0.9896937012672424,-1.191609263420105,0.6178765892982483
<http://data.kasabi.com/dataset/italy/avellino>,0.4019194543361664,0.43377289175987244,0.4113483428955078,-0.49602052569389343,0.3725416362285614,0.6782125234603882,0.7748319506645203,-0.8621253371238708,-0.9073116779327393,0.5039558410644531
<http://data.kasabi.com/dataset/italy/pavia>,0.5462352633476257,0.2757200598716736,0.2983727753162384,-0.39675968885421753,0.5227228403091431,0.8679057955741882,0.5097252130508423,-0.9099428057670593,-0.6871970295906067,0.6927624344825745
<http://ec.europa.eu/eurostat/ramon/rdfdata/nuts2008/ITF1>,0.6916141510009766,0.19134925305843353,-0.4544384777545929,0.9897888898849487,1.292145848274231,0.0036402842961251736,-0.5330338478088379,-0.4603273570537567,-1.0362634658813477,0.3306705951690674
<http://data.kasabi.com/dataset/italy/chieti>,0.06185697019100189,0.537875235080719,0.39563828706741333,-0.4365293085575104,0.43121337890625,0.6329754590988159,0.5011616945266724,-0.9093750715255737,-0.9886868596076965,0.6077401638031006
<http://data.kasabi.com/dataset/italy/livorno>,0.38488343358039856,0.43108323216438293,0.5513355135917664,-0.4305800199508667,0.47096601128578186,0.8156794905662537,0.7456341981887817,-0.8814762234687805,-0.8888922929763794,0.7832092642784119
<http://data.kasabi.com/dataset/italy/vicenza>,0.5356090068817139,0.36881688237190247,0.32429492473602295,-0.27695295214653015,0.5221738219261169,0.6594202518463135,0.6869933009147644,-0.8867253065109253,-0.8469374179840088,0.8097500801086426
<http://data.kasabi.com/dataset/italy/siena>,0.45757073163986206,0.2866021692752838,0.5688782930374146,-0.44938185811042786,0.3599291443824768,0.7551413178443909,0.619645357131958,-0.9961097836494446,-1.0843344926834106,0.7442736625671387
<http://data.kasabi.com/dataset/italy/viterbo>,0.30749258399009705,0.3979945480823517,0.39836394786834717,-0.23255060613155365,0.6171954870223999,0.7871025800704956,0.8309350609779358,-1.1469287872314453,-1.263438105583191,0.7461153268814087
<http://data.kasabi.com/dataset/italy/lodi>,0.5664977431297302,0.40254515409469604,0.43838074803352356,-0.5317695736885071,0.3812739849090576,0.8321096301078796,0.5571721792221069,-0.7500109672546387,-0.8537848591804504,0.7498167753219604
<http://data.kasabi.com/dataset/italy/biella>,0.29325512051582336,0.35859835147857666,0.21624182164669037,-0.4981306195259094,0.2264692336320877,0.29517021775245667,0.6685904264450073,-0.6250693798065186,-0.8652564883232117,0.5221291780471802
<http://data.kasabi.com/dataset/italy/bologna>,0.42592108249664307,0.4531189799308777,0.4790326952934265,-0.5977253913879395,0.35451290011405945,0.5067453980445862,0.5361101031303406,-0.675586462020874,-0.6318684220314026,0.6273744702339172
<http://ec.europa.eu/eurostat/ramon/rdfdata/nuts2008/ITD>,0.9158787131309509,0.29178109765052795,-0.4539646506309509,1.1151901483535767,0.997972846031189,0.12641751766204834,-0.45178067684173584,-0.43300172686576843,-0.915532112121582,0.18991397321224213
<http://data.kasabi.com/dataset/italy/lecce>,0.15086336433887482,0.4633021354675293,0.412358820438385,-0.20845450460910797,0.46265551447868347,0.6980046033859253,0.7463470697402954,-1.0392175912857056,-0.9204797148704529,0.6126869916915894
<http://data.kasabi.com/dataset/italy/pordenone>,0.33594170212745667,0.4330824017524719,0.34889382123947144,-0.4099859893321991,0.5965003967285156,0.6739150881767273,0.7090132236480713,-0.9007306098937988,-1.0390185117721558,0.6904968023300171
<http://data.kasabi.com/dataset/italy/parma>,0.2180504947900772,0.48838895559310913,0.5340266227722168,-0.3862781226634979,0.4515838921070099,0.7500243186950684,0.549283504486084,-0.910060465335846,-1.0834009647369385,0.6426506042480469
<http://data.kasabi.com/dataset/italy/massa-carrara>,0.45676228404045105,0.30685898661613464,0.41437220573425293,-0.3514646887779236,0.4046729803085327,0.7932049036026001,0.7444217801094055,-0.7623068690299988,-0.9648041725158691,0.7049350738525391
<http://data.kasabi.com/dataset/italy/olbia-tempio>,0.25974708795547485,0.43550363183021545,0.4712064862251282,-0.31656891107559204,0.3798089623451233,0.5900503396987915,0.7713619470596313,-0.9433320760726929,-1.2145626544952393,0.5509411692619324
<http://data.kasabi.com/dataset/italy/macerata>,0.38394540548324585,0.5003848075866699,0.4306752681732178,-0.3421105146408081,0.4886060953140259,0.7771178483963013,0.6398122906684875,-0.7147618532180786,-0.9343556761741638,0.5665367245674133
<http://data.kasabi.com/dataset/italy/laquila>,0.15043745934963226,0.4124944508075714,0.23236505687236786,-0.17330226302146912,0.46575435996055603,0.47136780619621277,0.6229223608970642,-0.9933954477310181,-0.9602457880973816,0.43001705408096313
<http://data.kasabi.com/dataset/italy/belluno>,0.5624286532402039,0.4900847375392914,0.4084215760231018,-0.3483736217021942,0.4890037477016449,0.5948973298072815,0.7471997737884521,-0.9016000032424927,-0.6408239006996155,0.7474626302719116
<http://data.kasabi.com/dataset/italy/la-spezia>,0.2030194252729416,0.3870784640312195,0.5088320374488831,-0.3228456676006317,0.6349444389343262,0.4832560122013092,0.6390212178230286,-0.8740903735160828,-0.9622097611427307,0.5044289231300354
<http://data.kasabi.com/dataset/italy/treviso>,0.549331545829773,0.44241058826446533,0.4376571774482727,-0.42305007576942444,0.4533233940601349,0.8067672252655029,0.7080674171447754,-0.7347988486289978,-0.8153709769248962,0.8705539107322693
<http://data.kasabi.com/dataset/italy/forli-cesena>,0.5041859149932861,0.4074039161205292,0.38669341802597046,-0.4194774329662323,0.49361833930015564,0.7462169528007507,0.5011944770812988,-0.8709649443626404,-0.8197950124740601,0.8516120910644531
<http://data.kasabi.com/dataset/italy/rovigo>,0.43547895550727844,0.28626689314842224,0.4637609124183655,-0.34520232677459717,0.5813643932342529,0.7569059133529663,0.6331459283828735,-0.790285587310791,-0.9678652286529541,0.7331026792526245
<http://data.kasabi.com/dataset/italy/piacenza>,0.5799533128738403,0.46411067247390747,0.3539530634880066,-0.3170367479324341,0.6544946432113647,0.8289760947227478,0.6330772042274475,-0.8154494166374207,-0.8018243908882141,0.8875496983528137
<http://data.kasabi.com/dataset/italy/asti>,0.43444767594337463,0.25457385182380676,0.36600953340530396,-0.36941805481910706,0.5460218191146851,0.5908265709877014,0.7713930010795593,-0.843436598777771,-0.7152801752090454,0.5772047638893127
<http://data.kasabi.com/dataset/italy/roma>,0.5758721232414246,0.32980021834373474,0.44696658849716187,-0.3329237997531891,0.5767653584480286,0.5089703798294067,0.6233810186386108,-0.5712788701057434,-1.1355290412902832,0.773804247379303
<http://data.kasabi.com/dataset/italy/como>,0.3654508590698242,0.44388115406036377,0.46325430274009705,-0.548180878162384,0.3826518952846527,0.8343139886856079,0.7550690770149231,-0.6637901067733765,-0.804011344909668,0.6814594864845276
<http://data.kasabi.com/dataset/italy/ferrara>,0.36247286200523376,0.43141281604766846,0.39198482036590576,-0.570244550704956,0.5042434334754944,0.885461151599884,0.6606429219245911,-0.9829314351081848,-0.8452299237251282,0.8041555285453796
<http://data.kasabi.com/dataset/italy/varese>,0.5596104264259338,0.2985433042049408,0.3495543301105499,-0.4199356138706207,0.49009227752685547,1.0137078762054443,0.7343583106994629,-0.8758419752120972,-0.8446364402770996,0.7420368194580078
<http://data.kasabi.com/dataset/italy/ascoli-piceno>,0.2921701669692993,0.4008110463619232,0.47143328189849854,-0.3964451551437378,0.5007397532463074,0.5129354596138,0.6146258115768433,-0.9233386516571045,-0.8518736362457275,0.5609023571014404
<http://data.kasabi.com/dataset/cheese/casu-axedu>,0.654403805732727,-0.37834933400154114,0.41330501437187195,0.5362424254417419,0.4045261740684509,0.54576176404953,0.3250606656074524,-0.38722822070121765,-1.280862808227539,0.8563888669013977
<http://data.kasabi.com/dataset/cheese/schema/milkSource>,0.5847136378288269,-0.22583942115306854,0.1246563270688057,0.3425595760345459,0.3601652979850769,0.6617680788040161,0.5047126412391663,-0.8093892931938171,-1.3793134689331055,0.5282089114189148
<http://data.kasabi.com/dataset/italy/lecco>,0.19335320591926575,0.3767688274383545,0.4123934805393219,-0.5518808364868164,0.5950594544410706,0.7251935601234436,0.5432047247886658,-0.8466730713844299,-0.9205657839775085,0.7801617980003357
<http://data.kasabi.com/dataset/italy/taranto>,0.5429823398590088,0.5129367113113403,0.4129400849342346,-0.29474979639053345,0.4815337657928467,0.7890544533729553,0.7039145231246948,-0.811642587184906,-1.1423530578613281,0.7743447422981262
<http://data.kasabi.com/dataset/cheese/bra-dalpeggio>,0.5202611088752747,-0.29908931255340576,0.8159233331680298,0.45665663480758667,0.3847200274467468,0.5380972623825073,0.38093096017837524,-0.2855514585971832,-1.442001223564148,0.8917516469955444
<http://data.kasabi.com/dataset/italy/potenza>,0.39745768904685974,0.29174917936325073,0.313625305891037,-0.30220121145248413,0.4740033447742462,0.8330370187759399,0.7908035516738892,-0.7889086604118347,-0.8787776827812195,0.8793386816978455
<http://data.kasabi.com/dataset/italy/barletta-andria-trani>,0.12089065462350845,0.6813852787017822,0.6339606642723083,-0.6306127905845642,0.31661751866340637,0.7283327579498291,1.0253757238388062,-1.2433127164840698,-1.4172121286392212,0.5098093748092651
<http://data.kasabi.com/dataset/italy/medio-campidano>,0.5429443120956421,0.32014650106430054,0.5180913209915161,-0.3848026394844055,0.3482555150985718,0.6653566956520081,0.5290528535842896,-0.8887559771537781,-1.028295874595642,0.8694266676902771
<http://data.kasabi.com/dataset/italy/PaoloCastagna>,0.7998327612876892,-0.26153698563575745,0.8007732629776001,0.5295592546463013,0.7086407542228699,0.14450617134571075,0.2517024874687195,-0.050345659255981445,-2.716038227081299,0.9677019715309143
<http://data.kasabi.com/dataset/italy/pistoia>,0.5302631855010986,0.31141912937164307,0.3874002993106842,-0.2660911977291107,0.5759328007698059,0.6706380248069763,0.683868944644928,-0.9062097668647766,-0.9563574194908142,0.7283386588096619
<http://data.kasabi.com/dataset/italy/modena>,0.39915576577186584,0.4706360697746277,0.5253098011016846,-0.43505585193634033,0.35393235087394714,0.738952100276947,0.6986222863197327,-0.8700085878372192,-1.1246000528335571,0.5099160671234131
<http://data.kasabi.com/dataset/italy/fermo>,0.10705282539129257,0.4433116018772125,0.5403767228126526,-0.6578699946403503,0.18318861722946167,0.6280179619789124,1.0489054918289185,-1.0816991329193115,-1.4623624086380005,0.5745145678520203
<http://data.kasabi.com/dataset/cheese/casolet>,0.6856293082237244,-0.3961348831653595,0.543024480342865,0.5801686644554138,0.34640103578567505,0.4868469834327698,0.543720006942749,-0.35929301381111145,-1.2076233625411987,0.9575108885765076
<http://data.kasabi.com/dataset/italy/siracusa>,0.536774218082428,0.39701786637306213,0.38287055492401123,-0.11306806653738022,0.5107114315032959,0.770883321762085,0.610321044921875,-0.7267792224884033,-1.0598740577697754,0.8130350708961487
<http://rdfs.org/ns/void#feature>,0.6376804709434509,-0.8947144150733948,0.2800601124763489,0.15301066637039185,0.6793246865272522,-0.729404628276825,0.7004231214523315,0.3284001350402832,-2.4875576496124268,1.0277653932571411
<http://data.kasabi.com/dataset/italy/trapani>,0.5059179663658142,0.4080740511417389,0.34767332673072815,-0.2928680181503296,0.5195780992507935,0.7372004985809326,0.708732545375824,-0.974058985710144,-1.0115162134170532,0.8204905986785889
<http://data.kasabi.com/dataset/cheese/schema/Location>,1.2129451036453247,-0.5762637853622437,0.12590616941452026,0.6705027222633362,-0.8249908685684204,0.03417336940765381,0.7376432418823242,-0.08688446134328842,-1.9005959033966064,0.7984710931777954
<http://data.kasabi.com/dataset/italy/alessandria>,0.2528115510940552,0.5392741560935974,0.46732422709465027,-0.42575371265411377,0.44050973653793335,0.6262080669403076,0.5423495173454285,-0.7890008091926575,-0.7640506625175476,0.6238783001899719
<http://data.kasabi.com/dataset/italy/campobasso>,0.2958875596523285,0.3530074656009674,0.33561742305755615,-0.4786897897720337,0.3816118538379669,0.5087343454360962,0.6913547515869141,-0.8188162446022034,-0.9892693161964417,0.4933944642543793
<http://data.kasabi.com/dataset/cheese/torta>,0.5392141938209534,-0.07945830374956131,0.21620149910449982,0.1944226175546646,0.3567328453063965,0.6052512526512146,0.2311384081840515,-0.5373340249061584,-1.2119699716567993,0.8263726830482483
<http://data.kasabi.com/dataset/italy/firenze>,0.31515151262283325,0.31271952390670776,0.5421522259712219,-0.5338766574859619,0.5464844107627869,0.7547912001609802,0.8384891748428345,-0.874720573425293,-0.9291296601295471,0.7561978101730347
<http://data.kasabi.com/dataset/italy/genova>,0.12435603141784668,0.328335165977478,0.45889464020729065,-0.2887175679206848,0.40833789110183716,0.48762890696525574,0.4588455259799957,-0.8091244697570801,-1.0540560483932495,0.4433215260505676
<http://data.kasabi.com/dataset/italy/sondrio>,0.5935216546058655,0.40859755873680115,0.4565640985965729,-0.4697366952896118,0.5177732110023499,0.6709674000740051,0.47074422240257263,-0.9223096966743469,-1.0669403076171875,0.746658980846405
<http://data.kasabi.com/dataset/italy/cosenza>,0.2431086152791977,0.4524722397327423,0.5562883615493774,-0.3205590844154358,0.7087711691856384,0.5689629912376404,0.6145817637443542,-0.8951187133789062,-0.8622639775276184,0.6173944473266602
<http://data.kasabi.com/dataset/italy/brindisi>,0.2676074206829071,0.46614909172058105,0.3866077959537506,-0.5094947218894958,0.4444529712200165,0.6518985033035278,0.6458926200866699,-0.6052064895629883,-0.748314619064331,0.42005282640457153
<http://data.kasabi.com/dataset/italy/ancona>,0.254317045211792,0.46837857365608215,0.3505385220050812,-0.4552001953125,0.30584633350372314,0.7098897099494934,0.8077162504196167,-0.871412456035614,-0.8001655340194702,0.539426326751709
<http://data.kasabi.com/dataset/cheese/gioddu>,0.5354928970336914,-0.25976642966270447,0.6190502643585205,0.7113628387451172,0.20294533669948578,0.7811478972434998,0.4298522174358368,-0.47151392698287964,-1.2886438369750977,0.7812211513519287
<http://data.kasabi.com/dataset/italy/pisa>,0.4698161482810974,0.4065040349960327,0.5387906432151794,-0.1510360836982727,0.5101302862167358,0.6097202301025391,0.6190858483314514,-0.841575026512146,-0.8463935852050781,0.6461490988731384
<http://data.kasabi.com/dataset/cheese/stracchino>,0.644280195236206,0.0051679532043635845,0.6800439357757568,0.10791845619678497,0.3360263705253601,0.5606223940849304,0.4488345682621002,-0.5927954912185669,-1.4598466157913208,0.6165152788162231
<http://data.kasabi.com/dataset/italy/latina>,0.2501333951950073,0.5275403261184692,0.4116424024105072,-0.40800201892852783,0.4845936596393585,0.6296734809875488,0.45244207978248596,-0.8116418123245239,-0.8178583383560181,0.6748756766319275
<http://data.kasabi.com/dataset/italy/foggia>,0.1997753530740738,0.3626982569694519,0.4019923806190491,-0.35234880447387695,0.4874196946620941,0.6880059838294983,0.6415801644325256,-0.8465613722801208,-1.0182300806045532,0.7484192848205566
<http://data.kasabi.com/dataset/cheese/scamorza>,0.7414893507957458,-0.16514119505882263,0.39132124185562134,0.4086799621582031,0.4319067597389221,0.49046948552131653,0.1920354664325714,-0.731977641582489,-1.1410865783691406,0.8646314740180969
<http://data.kasabi.com/dataset/cheese/bra>,0.5987380743026733,-0.44743603467941284,0.6891780495643616,0.6007158756256104,0.30449190735816956,0.5528635382652283,0.4012720286846161,-0.22997255623340607,-1.3003342151641846,0.8612411618232727
<http://data.kasabi.com/dataset/cheese/piave>,0.5078227519989014,-0.11175411194562912,0.4548559784889221,0.25776445865631104,0.30374714732170105,0.4043821692466736,0.49995890259742737,-0.5653331875801086,-1.4959214925765991,0.5318624377250671
<http://data.kasabi.com/dataset/italy/monza-e-brianza>,0.18392673134803772,0.5735025405883789,0.4930931627750397,-0.625468909740448,0.32955098152160645,0.7241064310073853,0.8423811197280884,-1.2596659660339355,-1.3242751359939575,0.7680196166038513
<http://data.kasabi.com/dataset/italy/milano>,0.3244869112968445,0.24388456344604492,0.3757973909378052,-0.4826025068759918,0.630556046962738,0.7839479446411133,0.5143957138061523,-0.8029199838638306,-0.9835948348045349,0.8037715554237366
<http://data.kasabi.com/dataset/cheese/peretta>,0.6245359182357788,-0.2846193313598633,0.6475951671600342,0.6688138842582703,0.5301825404167175,0.5905578136444092,0.4716733992099762,-0.6417161822319031,-1.3492622375488281,0.6933301687240601
<http://data.kasabi.com/dataset/italy/arezzo>,0.27050286531448364,0.3440602421760559,0.23982034623622894,-0.25476697087287903,0.48051324486732483,0.5804902911186218,0.529866099357605,-0.5424277782440186,-0.8944600820541382,0.4899389445781708
<http://data.kasabi.com/dataset/italy/imperia>,0.16326604783535004,0.43934503197669983,0.2874097228050232,-0.19468429684638977,0.5062487125396729,0.486618310213089,0.5685216784477234,-0.8638521432876587,-0.8964332938194275,0.5680269002914429
<http://data.kasabi.com/dataset/italy/messina>,0.17808528244495392,0.4032852053642273,0.4634091258049011,-0.1684844046831131,0.5458395481109619,0.7250252366065979,0.45399394631385803,-0.7839872241020203,-1.0252596139907837,0.5804228186607361
<http://purl.org/dc/terms/subject>,0.3689241111278534,-0.7177527546882629,0.415269136428833,0.3259602189064026,1.2051771879196167,-0.6278157234191895,1.0830576419830322,0.40991315245628357,-2.449160575866699,0.9094914793968201
<http://ec.europa.eu/eurostat/ramon/rdfdata/nuts2008/ITE>,0.7840004563331604,0.08841320127248764,-0.3233960270881653,0.9939107894897461,0.9740284085273743,-2.893457713071257e-05,-0.4397331774234772,-0.4480550289154053,-0.9722387194633484,0.34322118759155273
<http://ec.europa.eu/eurostat/ramon/rdfdata/nuts2008/IT>,0.9652500152587891,0.35453328490257263,-0.592267632484436,0.8589093685150146,1.1364375352859497,-0.04475698620080948,-0.49902400374412537,-0.46899616718292236,-0.9153411388397217,0.3139607608318329
<http://data.kasabi.com/dataset/italy/agrigento>,0.13553807139396667,0.34436240792274475,0.21408258378505707,-0.3059813976287842,0.2981017529964447,0.7223012447357178,0.50468909740448,-0.6430959701538086,-0.7338797450065613,0.5893455147743225
"IT",0.13007168471813202,1.1088895797729492,0.6611760258674622,-0.10842403024435043,0.7320089340209961,0.9097987413406372,0.9013314247131348,-1.221940279006958,-1.0528945922851562,0.5597556233406067
<http://ec.europa.eu/eurostat/ramon/rdfdata/nuts2008/ITC>,0.8466518521308899,0.2628137469291687,-0.386687308549881,1.0776783227920532,1.1020179986953735,0.04566001519560814,-0.471221387386322,-0.47422322630882263,-0.953976571559906,0.4191291332244873
<http://data.kasabi.com/dataset/cheese/pecorino-di-picinisco>,0.7297616004943848,-0.2906540334224701,0.5501416921615601,0.2665608823299408,0.267688512802124,0.49923068284988403,0.2940329611301422,-0.5701063275337219,-1.226668357849121,0.7170875668525696
<http://ec.europa.eu/eurostat/ramon/rdfdata/nuts2008/ITF2>,0.9226040244102478,0.04479775205254555,-0.47641608119010925,0.9451469779014587,0.9676019549369812,0.05519868806004524,-0.42574453353881836,-0.4195077419281006,-1.0730541944503784,0.15930776298046112
<http://purl.org/dc/terms/contributor>,0.7789125442504883,-0.33353787660598755,0.7371753454208374,-0.03252898156642914,1.0056402683258057,-0.5371137857437134,0.6405051946640015,0.09974488615989685,-2.4386141300201416,0.9573049545288086
<http://data.kasabi.com/dataset/cheese/schema/Province>,0.8113144040107727,-0.12037485092878342,0.062000349164009094,0.014688068069517612,-0.6583730578422546,-0.3403068780899048,1.0823429822921753,-0.08853448182344437,-1.2408264875411987,0.5437315702438354
<http://ec.europa.eu/eurostat/ramon/rdfdata/nuts2008/ITE2>,0.5826658010482788,0.28688010573387146,-0.40703335404396057,0.8809564709663391,1.0040292739868164,-0.022408444434404373,-0.3397095203399658,-0.5202993750572205,-0.8827053904533386,0.19469453394412994
<http://data.kasabi.com/dataset/cheese/squacquerone-di-romagna>,0.6770790815353394,-0.0020735645666718483,0.48410359025001526,0.10027161240577698,0.39234641194343567,0.541378378868103,0.35838761925697327,-0.48498430848121643,-1.0571635961532593,0.610025942325592
<http://data.kasabi.com/dataset/cheese/tiroler-almkase>,0.6856909990310669,-0.1076461598277092,0.44263485074043274,0.2702234387397766,0.5783774256706238,0.46468567848205566,0.1414758265018463,-0.30751508474349976,-1.226775050163269,0.7083407640457153
<http://data.kasabi.com/dataset/cheese/callu-de-cabreddu>,0.5061658024787903,-0.2391059249639511,0.28924959897994995,0.4836757183074951,0.2820644974708557,0.49123236536979675,0.3500901460647583,-0.4716304540634155,-1.0665640830993652,0.722700834274292
<http://data.kasabi.com/dataset/cheese/hessischer-handkase>,0.5808941125869751,-0.051245443522930145,0.3461477756500244,0.2869344651699066,0.468759685754776,0.44294238090515137,-0.0024916527327150106,-0.39279869198799133,-1.2102365493774414,0.5326739549636841
<http://ec.europa.eu/eurostat/ramon/rdfdata/nuts2008/ITF5>,0.7506182789802551,0.09581923484802246,-0.1749235987663269,0.7802887558937073,1.0383461713790894,0.019982710480690002,-0.5516110062599182,-0.6292620301246643,-0.9697656631469727,0.36625754833221436
<http://data.kasabi.com/dataset/cheese/brocciu-corse>,0.626954972743988,-0.22968481481075287,0.39988747239112854,0.35969972610473633,0.26547369360923767,0.3119853734970093,0.19501274824142456,-0.35842472314834595,-0.8763498663902283,0.7167076468467712
<http://data.kasabi.com/dataset/cheese/xygalo-siteias>,0.6014622449874878,0.024076320230960846,0.3330855369567871,0.15386617183685303,0.5860743522644043,0.48477333784103394,0.12572811543941498,-0.34126943349838257,-1.278668999671936,0.8286231756210327
<http://data.kasabi.com/dataset/cheese/mont-dor>,0.5373417139053345,-0.02052060328423977,0.25710806250572205,0.27636411786079407,0.2526645064353943,0.5603694319725037,0.16722750663757324,-0.5151689648628235,-1.092724084854126,0.5958137512207031
<http://data.kasabi.com/dataset/cheese/crottin-de-chavignol>,0.6298518776893616,-0.23697172105312347,0.417778879404068,0.36308586597442627,0.4924030601978302,0.5161802768707275,0.05368981510400772,-0.36018967628479004,-1.1505804061889648,0.5227208137512207
<http://data.kasabi.com/dataset/cheese/pont-leveque>,0.7178160548210144,0.07761464267969131,0.47335588932037354,0.2985481917858124,0.2727868854999542,0.5404499173164368,0.10960257053375244,-0.24863256514072418,-1.2233985662460327,0.7639617323875427
<http://data.kasabi.com/dataset/cheese/bleu-de-gex-haut-jura>,0.651887059211731,-0.09646555036306381,0.3130185902118683,0.35780006647109985,0.5409246683120728,0.3755362629890442,0.20843005180358887,-0.44450634717941284,-1.0698931217193604,0.7764231562614441
<http://data.kasabi.com/dataset/cheese/ricotta-romana>,0.4755195379257202,0.07441353052854538,0.29089775681495667,0.2924432158470154,0.5481904745101929,0.5387462973594666,0.28482216596603394,-0.5992059111595154,-0.9610399007797241,0.7865540981292725
<http://data.kasabi.com/dataset/cheese/pecorino-di-filiano>,0.6697903275489807,-0.09642160683870316,0.3519285023212433,0.16293452680110931,0.2989940941333771,0.5810659527778625,0.21044261753559113,-0.6950713992118835,-1.0556806325912476,0.7928493022918701
<http://data.kasabi.com/dataset/cheese/maroilles>,0.7582160830497742,-0.09467505663633347,0.18588648736476898,0.23523883521556854,0.4241524934768677,0.39291656017303467,0.05183722823858261,-0.39545556902885437,-1.2809510231018066,0.5965346097946167
<http://data.kasabi.com/dataset/cheese/reblochon>,0.7445693016052246,-0.21151591837406158,0.19678838551044464,0.3093908727169037,0.46993908286094666,0.4870251417160034,0.13867488503456116,-0.4164140224456787,-1.213326096534729,0.6290748715400696
<http://ec.europa.eu/eurostat/ramon/rdfdata/nuts2008/ITG>,0.7958852648735046,0.21334916353225708,-0.37941569089889526,0.7437794208526611,0.8948687314987183,0.08707436919212341,-0.3655196726322174,-0.48524144291877747,-0.8527820110321045,0.16445453464984894
<http://data.kasabi.com/dataset/europe/greece>,1.1096223592758179,-0.21239811182022095,-0.013848742470145226,-0.10047504305839539,-0.05001111701130867,-0.2935723662376404,-0.15654662251472473,0.4056941568851471,-1.0489801168441772,1.2155718803405762
<http://data.kasabi.com/dataset/cheese/salva-cremasco>,0.620927631855011,-0.14923326671123505,0.49877965450286865,0.11827056854963303,0.5043611526489258,0.4305647611618042,0.20967009663581848,-0.5830332040786743,-1.002795696258545,0.7025275826454163
<http://data.kasabi.com/dataset/italy/italy>,1.1646374464035034,-0.3368481993675232,-0.14800946414470673,-0.13028913736343384,-0.054690636694431305,-0.45602282881736755,-0.07242172211408615,0.37845924496650696,-1.0496132373809814,1.1877777576446533
<http://ec.europa.eu/eurostat/ramon/rdfdata/nuts2008/ITZZ>,0.6011759638786316,0.1568797379732132,-0.34568092226982117,0.7764570116996765,1.081032395362854,-0.029676245525479317,-0.4212624132633209,-0.3131405711174011,-0.8197623491287231,0.27370011806488037
<http://data.kasabi.com/dataset/cheese/piacentinu-ennese>,0.5086817145347595,0.01600470580160618,0.3375404179096222,0.2898174226284027,0.2682740092277527,0.5156252384185791,0.3896404802799225,-0.34025588631629944,-1.1564455032348633,0.745300829410553
<http://data.kasabi.com/dataset/cheese/pressato>,0.6390437483787537,-0.036297041922807693,0.48669570684432983,0.16400356590747833,0.3801212012767792,0.3986983895301819,0.27000463008880615,-0.5171498656272888,-1.244179368019104,0.5653009414672852
<http://www.geonames.org/ontology#A.ADM2>,0.3744603395462036,0.24709177017211914,0.2556307911872864,-0.18777762353420258,1.103408694267273,0.7698841691017151,0.7725839614868164,-0.6916961073875427,-0.8019669651985168,0.8546052575111389
<http://data.kasabi.com/dataset/cheese/provolone>,0.5460048317909241,-0.05347675085067749,0.42712509632110596,0.2816338539123535,0.44551220536231995,0.5671302676200867,0.46560439467430115,-0.5371431112289429,-1.095574975013733,0.6148514151573181
<http://ec.europa.eu/eurostat/ramon/rdfdata/nuts2008/ITZ>,0.6890444159507751,0.16733232140541077,-0.3267554044723511,0.6592707633972168,0.875217616558075,0.012477743439376354,-0.2829962372779846,-0.3485625088214874,-0.8808407783508301,0.16557659208774567
<http://data.kasabi.com/dataset/cheese/schema/PGI>,1.1066219806671143,0.6984618902206421,0.906788170337677,0.005206040572375059,0.026282094419002533,-0.42770394682884216,-1.2868770360946655,-1.8703625202178955,-1.1430493593215942,0.023758597671985626
<http://ec.europa.eu/eurostat/ramon/rdfdata/nuts2008/ITD1>,0.6435681581497192,0.17130795121192932,-0.29547908902168274,0.8255000710487366,0.9482212662696838,-0.005714720115065575,-0.29666775465011597,-0.4660000503063202,-0.9181658029556274,0.41804835200309753
<http://data.kasabi.com/dataset/cheese/caciocavallo-ragusano>,0.6231557130813599,-0.2156510204076767,0.21905872225761414,0.10268381237983704,0.37042227387428284,0.5402401089668274,0.08523259311914444,-0.3563576638698578,-0.9183303117752075,0.6117098331451416
<http://data.kasabi.com/dataset/cheese/schema/texture>,0.40388745069503784,-0.15294988453388214,0.028766298666596413,0.3154135048389435,0.3968527317047119,0.5978452563285828,0.3169650435447693,-0.5285800099372864,-1.494892954826355,0.743203341960907
<http://data.kasabi.com/dataset/italy/etags>,0.4129166007041931,-0.45171019434928894,0.059168145060539246,0.0786806270480156,0.3226621150970459,-0.4646885395050049,0.3338671624660492,0.17869098484516144,-2.070685863494873,0.5770571827888489
<http://data.kasabi.com/dataset/cheese/nostrano-valtrompia>,0.4986668825149536,-0.18556798994541168,0.33290961384773254,0.43423399329185486,0.2647795081138611,0.5515199303627014,0.21981748938560486,-0.41333261132240295,-1.168165683746338,0.659839928150177
<http://ec.europa.eu/eurostat/ramon/rdfdata/nuts2008/ITE31>,0.6354631185531616,0.1790679395198822,-0.30379554629325867,0.6030818819999695,0.918899655342102,0.14748746156692505,-0.2958041727542877,-0.44748690724372864,-0.694908857345581,0.32274967432022095
<http://ec.europa.eu/eurostat/ramon/rdfdata/nuts2008/ITZZZ>,0.6681498885154724,0.09407352656126022,-0.14794766902923584,0.4955731928348541,0.9219561815261841,0.1287977546453476,-0.21889568865299225,-0.4821423590183258,-0.6848085522651672,0.3450058400630951
<http://ec.europa.eu/eurostat/ramon/rdfdata/nuts2008/ITF11>,0.4192677438259125,0.1050015240907669,-0.03652527555823326,0.39827513694763184,0.7303972244262695,0.21652594208717346,-0.29639124870300293,-0.5233935713768005,-0.6714159250259399,0.34500882029533386
<http://ec.europa.eu/eurostat/ramon/rdfdata/nuts2008/ITF64>,0.5831080079078674,0.16604244709014893,-0.165664941072464,0.4223000407218933,0.7966219186782837,0.21872617304325104,-0.2425546944141388,-0.42257556319236755,-0.8588867783546448,0.47987601161003113
<http://ec.europa.eu/eurostat/ramon/rdfdata/nuts2008/ITD2>,0.6834985613822937,0.14920847117900848,-0.12623585760593414,0.739414632320404,1.0165821313858032,0.00576105946674943,-0.3210010230541229,-0.37873777747154236,-1.0363940000534058,0.4088604748249054
<http://data.kasabi.com/dataset/cheese/schema/milkType>,0.6967867016792297,-0.050649307668209076,-0.024520615115761757,0.29691314697265625,0.16022658348083496,0.25033318996429443,0.4564032256603241,-0.7449682950973511,-1.1978449821472168,0.7164182066917419
<http://data.kasabi.com/dataset/cheese/fromage-de-herve>,0.5123974680900574,-0.11060900241136551,0.25971895456314087,0.1142486110329628,0.2528974115848541,0.37011605501174927,0.01950843073427677,-0.40029361844062805,-1.0732089281082153,0.7227258682250977
<http://ec.europa.eu/eurostat/ramon/rdfdata/nuts2008/ITD10>,0.6918633580207825,0.1992775797843933,-0.1343287229537964,0.4717761278152466,0.811516523361206,0.21106281876564026,-0.23439514636993408,-0.4696131944656372,-0.8201383352279663,0.28503769636154175
<http://ec.europa.eu/eurostat/ramon/rdfdata/nuts2008/ITC34>,0.47467830777168274,0.1337282657623291,-0.11711902916431427,0.4871521294116974,0.9595246911048889,0.1909162402153015,-0.07888287305831909,-0.4832817018032074,-0.7619134783744812,0.2924605906009674
<http://ec.europa.eu/eurostat/ramon/rdfdata/nuts2008/ITE44>,0.5020384788513184,0.22155433893203735,-0.1645042449235916,0.5592498779296875,0.6898664236068726,0.24940018355846405,-0.23082490265369415,-0.37620440125465393,-0.7399739027023315,0.3389160931110382
<http://ec.europa.eu/eurostat/ramon/rdfdata/nuts2008/ITF22>,0.5852910280227661,0.18147726356983185,-0.0997290313243866,0.5190825462341309,0.828941822052002,0.22448505461215973,-0.27324745059013367,-0.3888031542301178,-0.8047751188278198,0.3435046970844269
<http://ec.europa.eu/eurostat/ramon/rdfdata/nuts2008/ITF41>,0.5433130860328674,0.1909572184085846,-0.20358726382255554,0.6735422611236572,0.8259729146957397,0.18235436081886292,-0.1659928560256958,-0.3418782353401184,-0.8883431553840637,0.46552035212516785
<http://ec.europa.eu/eurostat/ramon/rdfdata/nuts2008/ITF14>,0.43976452946662903,0.1515437215566635,-0.08921284973621368,0.3630601167678833,0.658696711063385,0.27114027738571167,-0.3266395628452301,-0.42596209049224854,-0.7473252415657043,0.36618292331695557
<http://ec.europa.eu/eurostat/ramon/rdfdata/nuts2008/ITG13>,0.6957057118415833,0.15929877758026123,-0.07916121929883957,0.556755542755127,0.7535910606384277,0.19895082712173462,-0.24871662259101868,-0.549950361251831,-0.8827756643295288,0.3349587619304657
<http://ec.europa.eu/eurostat/ramon/rdfdata/nuts2008/ITD42>,0.7375759482383728,0.32526978850364685,-0.20394864678382874,0.5959035754203796,0.8925361037254333,0.23740926384925842,-0.29111912846565247,-0.47530806064605713,-1.0150706768035889,0.5676365494728088
<http://data.kasabi.com/dataset/europe/spain>,1.1421936750411987,-0.1834290623664856,-0.02619008906185627,-0.03333371505141258,-0.11823994666337967,-0.33400505781173706,-0.04554641619324684,0.3863133192062378,-1.136539101600647,0.9998847842216492
<http://ec.europa.eu/eurostat/ramon/rdfdata/nuts2008/ITF33>,0.6200078129768372,0.21150505542755127,-0.17328837513923645,0.4625103175640106,0.9290434122085571,0.11208568513393402,-0.2816258668899536,-0.5075721740722656,-0.9051079750061035,0.29809972643852234
<http://ec.europa.eu/eurostat/ramon/rdfdata/nuts2008/ITD43>,0.48895493149757385,0.22310808300971985,-0.18306118249893188,0.5180703997612,0.9065610766410828,0.2515925168991089,-0.17260515689849854,-0.44460275769233704,-0.8426064848899841,0.4541454315185547
<http://ec.europa.eu/eurostat/ramon/rdfdata/nuts2008/ITG14>,0.6094649434089661,0.3110446631908417,-0.209769144654274,0.36260148882865906,0.8255731463432312,0.2717335820198059,-0.13942435383796692,-0.44032734632492065,-0.8860622644424438,0.2997053265571594
<http://data.kasabi.com/dataset/cheese/boulette-de-nivelles>,0.4904670715332031,0.033753540366888046,0.1541868895292282,0.1268073320388794,0.3025909960269928,0.43953588604927063,0.03902125358581543,-0.5091238617897034,-1.1509146690368652,0.6623436808586121
<http://ec.europa.eu/eurostat/ramon/rdfdata/nuts2008/ITD53>,0.46647369861602783,0.2911582887172699,-0.10632485151290894,0.43294474482536316,0.7681718468666077,0.3431023359298706,-0.014683469198644161,-0.6680611371994019,-0.9049026966094971,0.49632230401039124
<http://ec.europa.eu/eurostat/ramon/rdfdata/nuts2008/ITF42>,0.42104315757751465,0.27534809708595276,-0.21073773503303528,0.6489585041999817,0.7366191148757935,0.22553594410419464,-0.2085067629814148,-0.4973539710044861,-0.8558692336082458,0.592841386795044
<http://ec.europa.eu/eurostat/ramon/rdfdata/nuts2008/ITC32>,0.5786119699478149,0.21627277135849,-0.13919009268283844,0.6514192223548889,0.7604736089706421,0.14659172296524048,-0.26903367042541504,-0.3153023421764374,-0.8768993020057678,0.2717530131340027
<http://ec.europa.eu/eurostat/ramon/rdfdata/nuts2008/ITD20>,0.6169924736022949,0.4061436355113983,-0.26873770356178284,0.5479371547698975,0.8630058169364929,0.29894372820854187,-0.1315162032842636,-0.4730795919895172,-0.7553213238716125,0.47388726472854614
<http://ec.europa.eu/eurostat/ramon/rdfdata/nuts2008/ITE22>,0.5864278674125671,0.10953737795352936,-0.09224645793437958,0.4926970303058624,0.7914201021194458,0.29228857159614563,-0.21163064241409302,-0.3103362023830414,-0.8200589418411255,0.33546537160873413
<http://ec.europa.eu/eurostat/ramon/rdfdata/nuts2008/ITG17>,0.569954514503479,0.15755654871463776,-0.21678544580936432,0.5470086336135864,0.7158148288726807,0.30662673711776733,-0.07727055251598358,-0.6630697846412659,-0.9448815584182739,0.3316875994205475
<http://ec.europa.eu/eurostat/ramon/rdfdata/nuts2008/ITF43>,0.41346701979637146,0.22572901844978333,-0.03440726548433304,0.4185543358325958,0.7105448246002197,0.30480271577835083,-0.09726153314113617,-0.28122109174728394,-0.9095250368118286,0.4526618421077728
<http://ec.europa.eu/eurostat/ramon/rdfdata/nuts2008/ITE45>,0.40669018030166626,0.2533208131790161,-0.06562431901693344,0.3646541237831116,0.7627037167549133,0.11495573818683624,-0.07278146594762802,-0.35887637734413147,-0.7082251906394958,0.43971824645996094
<http://ec.europa.eu/eurostat/ramon/rdfdata/nuts2008/ITE16>,0.5087442994117737,0.20855925977230072,-0.1887248456478119,0.4295816123485565,0.776917576789856,0.09945537894964218,-0.15153872966766357,-0.40320560336112976,-0.8290572762489319,0.3004356324672699
<http://ec.europa.eu/eurostat/ramon/rdfdata/nuts2008/ITG2C>,0.5162031650543213,0.20942121744155884,-0.16956694424152374,0.4546441435813904,0.8577588796615601,0.18552082777023315,-0.20103247463703156,-0.40029770135879517,-0.8522964119911194,0.33226707577705383
<http://ec.europa.eu/eurostat/ramon/rdfdata/nuts2008/ITC2>,0.6521947383880615,0.22251512110233307,-0.1981801688671112,0.6506221890449524,0.9749681353569031,0.1313101053237915,-0.18155549466609955,-0.4223429560661316,-0.7367476224899292,0.37488940358161926
<http://ec.europa.eu/eurostat/ramon/rdfdata/nuts2008/ITE41>,0.4970549941062927,0.07412642240524292,-0.15918076038360596,0.4209963083267212,0.7036656737327576,0.12482243776321411,-0.15042780339717865,-0.3625621497631073,-0.7991564869880676,0.43098241090774536
<http://data.kasabi.com/dataset/cheese/queso-de-valdeon>,0.4473876655101776,0.015255315229296684,0.3037073016166687,0.30496615171432495,0.4732036888599396,0.4363406002521515,0.24363727867603302,-0.2880878746509552,-1.1685688495635986,0.6626653075218201
<http://data.kasabi.com/dataset/cheese/queso-zamorano>,0.5900980830192566,-0.16446234285831451,0.33668482303619385,0.18260447680950165,0.3475882112979889,0.37205982208251953,0.28900712728500366,-0.4131543040275574,-1.1578773260116577,0.6367586255073547
<http://ec.europa.eu/eurostat/ramon/rdfdata/nuts2008/ITE33>,0.5443329811096191,0.1641935557126999,-0.2193361222743988,0.42832788825035095,0.744474470615387,0.3061562776565552,-0.20395874977111816,-0.37522777915000916,-0.8223654627799988,0.3960513770580292
<http://ec.europa.eu/eurostat/ramon/rdfdata/nuts2008/ITG2A>,0.4293835163116455,0.27112820744514465,0.0015753895277157426,0.3998335003852844,0.7169842720031738,0.36572128534317017,-0.15745171904563904,-0.4944869875907898,-0.8760285377502441,0.4226926267147064
<http://ec.europa.eu/eurostat/ramon/rdfdata/nuts2008/ITF21>,0.49541765451431274,0.21586625277996063,-0.019500432536005974,0.3885557949542999,0.6573119163513184,0.19239342212677002,-0.31789812445640564,-0.4415925145149231,-0.8592580556869507,0.2932972311973572
<http://data.kasabi.com/dataset/cheese/queso-ibores>,0.5365495681762695,-0.02955823577940464,0.16160359978675842,0.34052538871765137,0.45408424735069275,0.28296005725860596,0.28585702180862427,-0.5297582149505615,-1.1456379890441895,0.6838440895080566
<http://ec.europa.eu/eurostat/ramon/rdfdata/nuts2008/ITF12>,0.5251756310462952,0.17273154854774475,-0.1791357398033142,0.44182488322257996,0.6994937062263489,0.14152351021766663,-0.24738729000091553,-0.40674343705177307,-0.8852356672286987,0.22096262872219086
<http://ec.europa.eu/eurostat/ramon/rdfdata/nuts2008/ITC15>,0.5599830150604248,0.19816403090953827,-0.18904726207256317,0.5795955061912537,0.6632054448127747,0.24060721695423126,-0.31982874870300293,-0.48274916410446167,-0.8426355719566345,0.2400643229484558
<http://data.kasabi.com/dataset/cheese/picon-bejes-tresviso>,0.42731285095214844,0.09993432462215424,0.2540231943130493,0.13369426131248474,0.43075698614120483,0.46356746554374695,0.019942140206694603,-0.3202739357948303,-1.1482672691345215,0.7430840134620667
<http://data.kasabi.com/dataset/cheese/mahon-menorca>,0.6508710980415344,-0.09864415973424911,0.025142179802060127,0.235434427857399,0.2651807963848114,0.30942052602767944,0.27348923683166504,-0.35318976640701294,-1.2150344848632812,0.520319402217865
<http://ec.europa.eu/eurostat/ramon/rdfdata/nuts2008/ITC4A>,0.4975281059741974,0.2559683918952942,-0.10881315916776657,0.4784334599971771,0.8477379083633423,0.20414888858795166,-0.14059244096279144,-0.4303044378757477,-0.920489490032196,0.3489574193954468
<http://ec.europa.eu/eurostat/ramon/rdfdata/nuts2008/ITD33>,0.4917632043361664,0.14093618094921112,-0.1734401434659958,0.6475187540054321,0.7354626655578613,0.3437422811985016,-0.1881399005651474,-0.5672927498817444,-0.9442706108093262,0.42795684933662415
<http://ec.europa.eu/eurostat/ramon/rdfdata/nuts2008/ITC31>,0.5730887651443481,0.1552443951368332,-0.14635783433914185,0.6508551239967346,0.677516758441925,0.13752934336662292,-0.310798704624176,-0.3805955946445465,-0.8665328025817871,0.5054026246070862
<http://data.kasabi.com/dataset/europe/united-kingdom>,1.1347366571426392,-0.24532020092010498,0.035501617938280106,0.08988196402788162,0.18493984639644623,-0.20627328753471375,-0.04526546597480774,0.10545837134122849,-0.9666650891304016,1.0691102743148804
<http://data.kasabi.com/dataset/cheese/svecia>,0.6965731382369995,0.03535814955830574,0.28164103627204895,0.20066823065280914,0.44970178604125977,0.274454265832901,0.016901765018701553,-0.2960241436958313,-1.0671818256378174,0.6523656845092773
<http://data.kasabi.com/dataset/cheese/swaledale>,0.6680585145950317,-0.09740038216114044,0.3951629102230072,0.22708693146705627,0.35679832100868225,0.4064915180206299,0.24696789681911469,-0.6182863712310791,-1.1241161823272705,0.653658926486969
<http://ec.europa.eu/eurostat/ramon/rdfdata/nuts2008/ITC13>,0.5234158039093018,0.18130025267601013,-0.1516919881105423,0.4596797823905945,0.6446889042854309,0.16375701129436493,-0.28901633620262146,-0.33192023634910583,-0.7308544516563416,0.2583683431148529
<http://ec.europa.eu/eurostat/ramon/rdfdata/nuts2008/ITD31>,0.5236049294471741,0.2602293789386749,-0.11666498333215714,0.5130650997161865,0.7668623924255371,0.1399664580821991,-0.1807573288679123,-0.4240734875202179,-1.016860008239746,0.5265364646911621
<http://data.kasabi.com/dataset/cheese/torta-del-casar>,0.5848870277404785,-0.11380960047245026,0.2119753062725067,0.3152030110359192,0.31670892238616943,0.47068068385124207,0.28178873658180237,-0.3271794021129608,-1.0913480520248413,0.7203527092933655
<http://ec.europa.eu/eurostat/ramon/rdfdata/nuts2008/ITG16>,0.5828487873077393,0.11492923647165298,-0.04007355123758316,0.4908447861671448,0.7211978435516357,0.245826855301857,-0.14675721526145935,-0.5664291381835938,-0.8689681887626648,0.44724205136299133
<http://data.kasabi.com/dataset/cheese/queso-de-murcia>,0.4710739552974701,-0.1973530799150467,0.10218589007854462,0.29720062017440796,0.16889624297618866,0.45465168356895447,0.14694465696811676,-0.5288794636726379,-1.1903215646743774,0.7301528453826904
<http://ec.europa.eu/eurostat/ramon/rdfdata/nuts2008/ITC17>,0.4725438058376312,0.2608473300933838,-0.30644288659095764,0.3867330849170685,0.667495846748352,0.2100244015455246,-0.1993996798992157,-0.5323165059089661,-0.9062280058860779,0.2728233337402344
<http://ec.europa.eu/eurostat/ramon/rdfdata/nuts2008/ITF61>,0.5817260146141052,0.09159599989652634,-0.16305112838745117,0.4377564787864685,0.7192315459251404,0.08967681229114532,0.019038788974285126,-0.4838431775569916,-0.7205648422241211,0.4643489122390747
<http://ec.europa.eu/eurostat/ramon/rdfdata/nuts2008/ITE21>,0.6483004093170166,0.28689101338386536,-0.0813186913728714,0.5857406854629517,0.694804847240448,0.2792104482650757,-0.2513507008552551,-0.5752133131027222,-0.762952983379364,0.24291466176509857
<http://ec.europa.eu/eurostat/ramon/rdfdata/nuts2008/ITE17>,0.3457874059677124,0.16528557240962982,-0.07239477336406708,0.4668020009994507,0.7815032005310059,0.19794461131095886,-0.22956357896327972,-0.3723827600479126,-0.8096770644187927,0.28092890977859497
<http://data.kasabi.com/dataset/cheese/afuegal-pitu>,0.3275485336780548,-0.0832253247499466,0.24229075014591217,0.32814764976501465,0.22024165093898773,0.37345218658447266,0.24260364472866058,-0.3941814601421356,-0.9552682638168335,0.5511153936386108
<http://ec.europa.eu/eurostat/ramon/rdfdata/nuts2008/ITE15>,0.3538671135902405,0.27299943566322327,-0.005471181124448776,0.5194754600524902,0.7319415807723999,0.063410684466362,-0.15554077923297882,-0.4873049557209015,-0.7874937057495117,0.16588148474693298
<http://data.kasabi.com/dataset/cheese/queso-de-lalt-urgell-y-la-cerdanya>,0.544780433177948,-0.003973127342760563,0.15768377482891083,0.347925066947937,0.3996939957141876,0.4140852391719818,0.1504681557416916,-0.4262503385543823,-1.1221283674240112,0.7067161798477173
<http://ec.europa.eu/eurostat/ramon/rdfdata/nuts2008/ITE14>,0.4870308041572571,0.16882112622261047,-0.06785524636507034,0.4695771038532257,0.7368971705436707,0.2886064648628235,-0.22709113359451294,-0.3864363431930542,-0.8073390126228333,0.20298981666564941
<http://data.kasabi.com/dataset/cheese/queso-de-la-serena>,0.47699472308158875,-0.08183711767196655,0.1981784552335739,0.2323680967092514,0.4719763696193695,0.45724624395370483,0.13576127588748932,-0.3158167004585266,-1.1416151523590088,0.6234447956085205
<http://ec.europa.eu/eurostat/ramon/rdfdata/nuts2008/ITE32>,0.5075827240943909,0.15312640368938446,-0.25780901312828064,0.48527729511260986,0.7041158080101013,0.1968132108449936,-0.34460264444351196,-0.34642958641052246,-0.8124186396598816,0.3178686499595642
<http://ec.europa.eu/eurostat/ramon/rdfdata/nuts2008/ITF51>,0.5532212853431702,0.12571263313293457,-0.13646425306797028,0.44750380516052246,0.7458462715148926,0.21826161444187164,-0.29138872027397156,-0.6321175694465637,-0.9200823903083801,0.49185314774513245
<http://data.kasabi.com/dataset/cheese/white-stilton>,0.4752652943134308,0.02200273610651493,0.13841655850410461,0.2586990296840668,0.43083298206329346,0.3247869908809662,0.06679143756628036,-0.5203056335449219,-1.0579339265823364,0.8092662692070007
